tree
version=v3
num_class=1
num_tree_per_iteration=1
label_index=0
max_feature_idx=8
objective=regression
feature_names=average_rank rank_difference point_difference number_of_champ_home number_of_champ_away number_of_topFour_home number_of_topFour_away home_team_encoded_norm away_team_encoded_norm
feature_infos=[1.5:204] [-202:203] [-1158.28:1236.6099999999999] [0:2] [0:2] [0:4] [0:4] [0:1] [0:1]
tree_sizes=2660 2771 2772 2768 2812 2790 2780 2798 2844 2825 2797 2809 2808 2830 2839 2816 2803 2809 2811 2821 2837 2820 2849 2835 2825 2817 2826

Tree=0
num_leaves=31
num_cat=0
split_feature=1 1 0 1 1 7 0 1 1 4 8 7 1 8 0 0 1 0 8 8 6 8 6 0 1 8 0 1 6 2
split_gain=1927.18 545.876 336.028 287.577 124.587 110.815 98.9118 91.7452 68.0608 44.0005 41.6752 40.5439 39.325 34.0133 30.6541 27.4807 24.7092 23.4636 22.7117 20.7083 19.8049 16.0225 14.9722 14.3953 12.8064 12.1483 10.64 10.2098 8.61901 8.52026
threshold=12.500000000000002 92.500000000000014 168.25000000000003 -26.499999999999996 53.500000000000007 0.14175257731958765 143.75000000000003 132.50000000000003 -75.499999999999986 1.0000000180025095e-35 0.47164948453608252 0.77061855670103108 36.500000000000007 0.77577319587628879 153.25000000000003 46.250000000000007 -5.4999999999999991 100.25000000000001 0.28608247422680416 0.45103092783505161 3.5000000000000004 0.75515463917525782 1.0000000180025095e-35 161.25000000000003 47.500000000000007 0.033505154639175264 167.25000000000003 -116.49999999999999 1.0000000180025095e-35 22.515000000000075
decision_type=2 2 2 2 2 2 2 2 2 2 2 2 2 2 2 2 2 2 2 2 2 2 2 2 2 2 2 2 2 2
left_child=3 2 4 8 9 -4 15 13 27 14 -8 17 -7 18 -2 -6 25 21 22 -20 23 -9 -3 29 -11 -5 -25 -1 -15 -18
right_child=1 7 5 16 6 12 10 11 -10 24 -12 -13 -14 28 -16 -17 20 -19 19 -21 -22 -23 -24 26 -26 -27 -28 -29 -30 -31
leaf_value=0.98676310316643179 1.0904469860838215 1.1531516824452446 1.4930680919031392 1.0118271070110509 1.1622450638816526 1.1907953603788917 1.1528921335888895 1.3232421705686543 1.0334652335703105 1.1307438136698542 1.3035731394926797 1.4004107461118633 1.3557953617314586 1.1376135418630999 1.1461875172837781 1.1189542050224204 1.0646356347203334 1.1806101765352355 1.2728376141906153 1.2063750701184812 1.1189599171392364 1.2181763136440888 1.2372239304831429 1.1550810746175282 1.211249905987138 1.056311167579352 1.0851831158710061 1.0098331413505206 1.2049257963002682 1.1017328606278414
leaf_weight=248 3014 87 22 63 169 52 31 47 3223 194 45 26 20 110 102 1108 1897 27 71 138 79 21 28 28 22 2404 98 847 23 64
leaf_count=248 3014 87 22 63 169 52 31 47 3223 194 45 26 20 110 102 1108 1897 27 71 138 79 21 28 28 22 2404 98 847 23 64
internal_value=1.07311 1.12055 1.10944 1.04471 1.10569 1.29665 1.13128 1.21234 1.02615 1.0953 1.24211 1.28976 1.23663 1.19183 1.09227 1.12468 1.06202 1.25948 1.20931 1.22895 1.06981 1.2908 1.17362 1.06795 1.13894 1.05518 1.10072 1.00461 1.14925 1.06585
internal_weight=0 5357 4779 8951 4685 94 1353 578 4318 3332 76 121 72 457 3116 1277 4633 95 324 209 2166 68 115 2087 216 2467 126 1095 133 1961
internal_count=14308 5357 4779 8951 4685 94 1353 578 4318 3332 76 121 72 457 3116 1277 4633 95 324 209 2166 68 115 2087 216 2467 126 1095 133 1961
is_linear=0
shrinkage=1


Tree=1
num_leaves=31
num_cat=0
split_feature=1 1 0 1 1 0 7 1 8 1 6 7 1 0 8 1 0 8 7 6 0 8 1 8 0 6 0 1 0 8
split_gain=1561.01 442.159 272.182 233.708 107.217 106.137 89.7598 74.3136 50.4018 50.1592 40.5553 32.8406 31.8533 29.4422 27.5508 25.1887 19.0056 18.4828 17.4342 15.3199 14.3074 12.9783 8.95728 8.0937 7.13203 6.98139 7.7761 6.83268 6.48342 13.0151
threshold=12.500000000000002 92.500000000000014 168.25000000000003 -29.499999999999996 35.500000000000007 132.75000000000003 0.14175257731958765 132.50000000000003 0.87371134020618568 -75.499999999999986 1.0000000180025095e-35 0.77061855670103108 36.500000000000007 27.250000000000004 0.77577319587628879 -12.499999999999998 100.25000000000001 0.12628865979381446 0.39948453608247431 3.5000000000000004 158.25000000000003 0.75515463917525782 -96.499999999999986 0.64690721649484551 187.25000000000003 1.0000000180025095e-35 101.25000000000001 18.500000000000004 141.75000000000003 0.69329896907216504
decision_type=2 2 2 2 2 2 2 2 2 2 2 2 2 2 2 2 2 2 2 2 2 2 2 2 2 2 2 2 2 2
left_child=3 2 4 9 13 10 -4 14 -7 22 -6 16 23 27 17 24 21 -3 -19 28 -15 -9 -1 -8 -5 26 -16 -2 -17 -30
right_child=1 7 6 15 5 8 12 11 -10 -11 -12 -13 -14 20 25 19 -18 18 -20 -21 -22 -23 -24 -25 -26 -27 -28 -29 29 -31
leaf_value=-0.07086760185405723 0.020848872126420823 0.056067250870369581 0.37796591845425698 -0.02074762764384298 0.031170337389445579 0.086959577925252107 0.14388342676339325 0.22512259014109348 0.20994206697839066 -0.036577921309339081 0.06715228384534519 0.29457431401197731 0.25442046463489532 0.0060978649391548543 0.038351322227800397 -0.0082799251103626258 0.096753796824702518 0.10012760155641282 0.15073623856190932 0.036288359466680263 0.065869051436098613 0.13056331936802185 -0.052775426162740613 0.064920465230941776 0.037861513616960676 0.1186378537312798 0.093930952976911508 0.046914600251385802 -0.0077810935326851904 0.031805625082704965
leaf_weight=537 164 37 22 1837 1902 178 27 47 41 2943 375 26 20 1724 71 2602 27 111 176 86 41 21 558 25 21 23 39 260 240 127
leaf_count=537 164 37 22 1837 1902 178 27 47 41 2943 375 26 20 1724 71 2602 27 111 176 86 41 21 558 25 21 23 39 260 240 127
internal_value=0 0.0426962 0.0327048 -0.0255528 0.0293244 0.0434914 0.201186 0.125306 0.109984 -0.0433763 0.0370962 0.194991 0.14717 0.0131706 0.106856 -0.0109037 0.167736 0.122587 0.131163 -0.00531971 0.00748632 0.19592 -0.061648 0.10592 -0.0200852 0.0685332 0.0580568 0.0368326 -0.00652493 0.00591785
internal_weight=0 5357 4779 8951 4685 2496 94 578 219 4038 2277 121 72 2189 457 4913 95 324 287 3055 1765 68 1095 52 1858 133 110 424 2969 367
internal_count=14308 5357 4779 8951 4685 2496 94 578 219 4038 2277 121 72 2189 457 4913 95 324 287 3055 1765 68 1095 52 1858 133 110 424 2969 367
is_linear=0
shrinkage=0.1


Tree=2
num_leaves=31
num_cat=0
split_feature=1 1 0 1 1 0 7 1 6 4 1 6 7 1 0 0 6 0 8 1 0 1 1 1 0 1 1 8 2 8
split_gain=1264.42 361.631 214.754 190.396 121.583 79.2097 72.7054 45.5789 39.7592 31.8673 31.345 28.4526 26.5666 25.8011 20.5233 19.4046 16.794 15.7296 13.129 11.7628 10.7678 10.1465 10.071 9.65614 8.61842 7.71347 7.54377 7.42032 7.08753 6.5559
threshold=12.500000000000002 104.50000000000001 168.25000000000003 -25.499999999999996 53.500000000000007 119.25000000000001 0.14175257731958765 -75.499999999999986 3.5000000000000004 1.0000000180025095e-35 133.50000000000003 2.5000000000000004 0.41494845360824745 36.500000000000007 153.25000000000003 110.75000000000001 2.5000000000000004 143.75000000000003 0.40979381443298973 -5.4999999999999991 161.25000000000003 146.50000000000003 110.50000000000001 47.500000000000007 167.25000000000003 -133.49999999999997 -52.499999999999993 0.033505154639175264 22.515000000000075 0.64690721649484551
decision_type=2 2 2 2 2 2 2 2 2 2 2 2 2 2 2 2 2 2 2 2 2 2 2 2 2 2 2 2 2 2
left_child=3 2 4 7 9 11 -4 25 10 14 12 -6 22 29 -2 21 19 -7 -14 27 28 -12 -3 -11 -22 -1 -9 -5 -21 -8
right_child=1 8 6 16 5 17 13 26 -10 23 15 -13 18 -15 -16 -17 -18 -19 -20 20 24 -23 -24 -25 -26 -27 -28 -29 -30 -31
leaf_value=-0.078055717252699053 0.013616024505522526 0.019359178073478468 0.34016932601278482 -0.049780830067325511 0.038430339710222639 0.086045000022277246 0.12949508605179963 -0.038476610606157292 0.27094529762864117 0.047707998568249733 0.16244854251949156 0.10439244720382967 0.089535348634330603 0.22897841840982439 0.059224976759915261 0.088888772544653522 0.02797836907757599 0.14012850261764762 0.15271998026967049 -0.0070681031781409526 0.073141902791602278 0.23182445982018032 0.088343077948537921 0.11761432574553923 0.010233742051890919 -0.052362498338576292 -0.028465481359065133 -0.013564424857821153 0.027033011934586931 0.058428416252136232
leaf_weight=133 3014 33 22 58 1251 160 27 1155 20 194 49 69 49 20 102 23 122 81 100 1871 28 37 59 22 98 962 2161 2300 63 25
leaf_count=133 3014 33 22 58 1251 160 27 1155 20 194 49 69 49 20 102 23 122 81 100 1871 28 37 59 22 98 962 2161 2300 63 25
internal_value=0 0.0384266 0.0313495 -0.0229976 0.0284732 0.0515036 0.181068 -0.0377938 0.133814 0.0176838 0.125978 0.0418784 0.105852 0.132453 0.015109 0.170476 -0.00862171 0.104222 0.131941 -0.0096324 -0.00411187 0.192296 0.0635989 0.0548281 0.0242133 -0.0554832 -0.0319525 -0.0144552 -0.00595726 0.0953284
internal_weight=0 5357 4987 8951 4893 1561 94 4411 370 3332 350 1320 241 72 3116 109 4540 241 149 4418 2060 86 92 216 126 1095 3316 2358 1934 52
internal_count=14308 5357 4987 8951 4893 1561 94 4411 370 3332 350 1320 241 72 3116 109 4540 241 149 4418 2060 86 92 216 126 1095 3316 2358 1934 52
is_linear=0
shrinkage=0.1


Tree=3
num_leaves=31
num_cat=0
split_feature=1 1 0 1 7 1 0 1 8 1 6 6 0 6 1 0 8 6 1 8 0 8 7 1 2 0 8 8 7 7
split_gain=1031.19 278.99 210.823 177.657 80.4471 60.1248 72.4896 49.2634 40.3128 36.9189 30.6484 28.9137 28.2956 26.4933 24.6078 21.469 26.5794 19.6785 18.6071 13.8612 13.7679 14.3253 12.5795 11.6051 9.81932 9.22976 9.05984 7.71668 7.32519 8.37463
threshold=16.500000000000004 92.500000000000014 168.25000000000003 -25.499999999999996 0.62628865979381454 35.500000000000007 132.75000000000003 113.50000000000001 0.87371134020618568 -75.499999999999986 1.0000000180025095e-35 1.0000000180025095e-35 177.75000000000003 2.5000000000000004 146.50000000000003 107.75000000000001 0.481958762886598 2.5000000000000004 -2.4999999999999996 0.83247422680412386 161.25000000000003 0.41494845360824745 0.57474226804123718 31.500000000000004 -41.804999999999986 25.250000000000004 0.80154639175257747 0.033505154639175264 0.39432989690721654 0.13144329896907217
decision_type=2 2 2 2 2 2 2 2 2 2 2 2 2 2 2 2 2 2 2 2 2 2 2 2 2 2 2 2 2 2
left_child=3 2 5 9 12 13 11 15 -8 -1 14 -7 -4 24 19 17 -17 26 27 -9 21 25 -12 -15 -2 -20 -3 -5 29 -22
right_child=1 7 4 18 -6 6 8 10 -10 -11 22 -13 -14 23 -16 16 -18 -19 20 -21 28 -23 -24 -25 -26 -27 -28 -29 -30 -31
leaf_value=-0.049934904382789518 -0.012593367465659587 0.065594710548256718 0.19845212234391107 -0.045473926396049656 0.048183264613151554 0.025205718225297116 0.069854166752166963 0.1101397736014518 0.17984119384753994 -0.028757221897613525 0.15948130047204448 0.055587447897593179 0.34939024448394779 0.045778502347794452 0.19166712276637554 0.18418297642791592 0.067279497515864484 0.15528816311132343 0.022934879842278075 0.0315454013645649 0.020518903563851897 -0.0082713471580498996 0.24494972343628227 0.13473124831914904 0.011488941806043098 0.00084497124803021857 0.01959275386312552 -0.011117618967608739 0.013897253992035986 0.10496163185064991
leaf_weight=1095 191 172 27 67 25 1902 178 113 41 3316 51 375 23 55 32 37 41 21 292 28 23 1271 26 20 1491 537 57 2697 80 24
leaf_count=1095 191 172 27 67 25 1902 178 113 41 3316 51 375 23 55 32 37 41 21 292 28 23 1271 26 20 1491 537 57 2697 80 24
internal_value=0 0.0371643 0.0284496 -0.0193925 0.19465 0.0255187 0.0354944 0.102419 0.0904453 -0.0340144 0.135859 0.0302093 0.267884 0.0113473 0.1125 0.076931 0.122734 0.0626405 -0.00646971 0.0945324 0.000332576 -0.00160102 0.188341 0.0694992 0.00875427 0.00862574 0.0541444 -0.0119504 0.0323055 0.0636386
internal_weight=0 4906 4328 9402 75 4253 2496 578 219 4411 250 2277 50 1757 173 328 78 250 4991 141 2227 2100 77 75 1682 829 229 2764 127 47
internal_count=14308 4906 4328 9402 75 4253 2496 578 219 4411 250 2277 50 1757 173 328 78 250 4991 141 2227 2100 77 75 1682 829 229 2764 127 47
is_linear=0
shrinkage=0.1


Tree=4
num_leaves=31
num_cat=0
split_feature=1 1 0 1 0 6 1 1 1 6 1 8 0 0 7 0 0 1 0 0 7 8 1 3 6 8 8 8 7 0
split_gain=835.432 203.604 199.365 180.138 71.1901 46.5228 39.1078 32.6617 31.668 29.1014 26.3604 23.8261 22.8764 26.0571 25.5668 18.1253 12.5544 14.701 11.7522 11.7278 11.5561 10.9049 10.4251 7.06186 7.97858 6.73282 6.25977 5.94103 5.32033 5.17878
threshold=23.500000000000004 104.50000000000001 176.25000000000003 -24.499999999999996 132.75000000000003 2.5000000000000004 42.500000000000007 61.500000000000007 -64.499999999999986 3.5000000000000004 3.5000000000000004 0.85824742268041254 127.25000000000001 63.250000000000007 0.54381443298969079 22.750000000000004 158.25000000000003 9.5000000000000018 44.750000000000007 21.250000000000004 0.27061855670103097 0.35824742268041243 -96.499999999999986 1.0000000180025095e-35 2.5000000000000004 0.25515463917525777 0.46134020618556709 0.95618556701030943 0.35309278350515466 13.750000000000002
decision_type=2 2 2 2 2 2 2 2 2 2 2 2 2 2 2 2 2 2 2 2 2 2 2 2 2 2 2 2 2 2
left_child=3 2 4 8 5 7 20 -2 22 12 23 -8 13 -3 -15 19 26 -18 -7 21 -6 -12 -1 24 -5 28 -17 -10 -25 -27
right_child=1 9 -4 10 6 18 11 -9 27 -11 15 -13 -14 14 -16 16 17 -19 -20 -21 -22 -23 -24 25 -26 29 -28 -29 -30 -31
leaf_value=-0.052914752091109421 0.015478006244143045 0.011556903719902039 0.31818341873586181 -0.0082193612379807424 0.079449636839768467 0.068073597550392148 0.081040722766408224 0.037088597205472112 -0.025275857927549619 0.22593365198932591 0.032193766430081656 0.16125620706006885 0.016851158388729755 0.09688073454842884 0.15901851013675333 0.0049800715229129273 -0.016114121958937334 0.053645622268827124 0.15037326306104659 0.081631805675645042 0.011513805224707253 0.00057869329295977203 -0.035842061547839005 -0.023672747024379315 0.045412893540092876 -0.023154848959972288 -0.0072573604444522103 -0.0071657275027336223 0.027286346366163346 -0.056891168356542621
leaf_weight=537 2249 25 24 2963 34 131 162 1015 2733 20 243 48 29 196 100 724 46 88 20 31 95 198 1071 42 28 171 989 194 40 62
leaf_count=537 2249 25 24 2963 34 131 162 1015 2733 20 243 48 29 196 100 724 46 88 20 31 95 198 1071 42 28 171 989 194 40 62
internal_value=0 0.0378176 0.0308842 -0.0154397 0.0290474 0.0247087 0.0727551 0.0221982 -0.0302693 0.108613 -0.00348375 0.0993757 0.101909 0.109593 0.117873 0.00468989 0.000220686 0.0296982 0.0789742 0.0221785 0.0294194 0.0179992 -0.0415436 -0.00921716 -0.00771729 -0.0234588 -0.00208521 -0.0240755 0.00118535 -0.0321319
internal_weight=0 4148 3778 10160 3754 3415 339 3264 4535 370 5625 210 350 321 296 2319 1847 134 151 472 129 441 1608 3306 2991 315 1713 2927 82 233
internal_count=14308 4148 3778 10160 3754 3415 339 3264 4535 370 5625 210 350 321 296 2319 1847 134 151 472 129 441 1608 3306 2991 315 1713 2927 82 233
is_linear=0
shrinkage=0.1


Tree=5
num_leaves=31
num_cat=0
split_feature=1 1 0 1 7 1 0 1 8 7 6 1 0 8 0 1 0 7 7 6 1 8 1 0 8 1 0 0 8 8
split_gain=679.869 186.623 144.62 117.334 61.1353 40.8532 42.1274 35.0215 28.1237 24.9519 22.9266 22.3629 19.2859 16.8657 16.6821 15.6475 15.2776 14.9581 14.5514 29.0091 12.1371 7.82445 7.58612 7.51518 7.02773 9.61937 14.808 8.35415 11.3725 6.15768
threshold=16.500000000000004 92.500000000000014 168.25000000000003 -29.499999999999996 0.62628865979381454 53.500000000000007 143.75000000000003 133.50000000000003 0.47164948453608252 0.77061855670103108 2.5000000000000004 -96.499999999999986 177.75000000000003 0.77577319587628879 49.750000000000007 -11.499999999999998 100.25000000000001 0.50257731958762897 0.39948453608247431 2.5000000000000004 35.500000000000007 0.46649484536082481 -55.499999999999993 187.25000000000003 0.4974226804123712 9.5000000000000018 154.25000000000003 140.75000000000003 0.69329896907216504 0.064432989690721656
decision_type=2 2 2 2 2 2 2 2 2 2 2 2 2 2 2 2 2 2 2 2 2 2 2 2 2 2 2 2 2 2
left_child=3 2 5 11 12 10 14 13 -8 16 20 -1 -4 18 -7 23 21 -12 -3 -20 -2 -9 -13 -5 25 -17 -27 -26 -29 -24
right_child=1 7 4 15 -6 6 8 9 -10 -11 17 22 -14 -15 -16 24 -18 -19 19 -21 -22 -23 29 -25 27 26 -28 28 -30 -31
leaf_value=-0.047623277753869028 0.0068084056503565794 0.05653852249585814 0.16722238428062863 -0.013782431534542042 0.033020546615123748 0.055379836532804705 0.03400926263101639 0.095269645234713193 0.15779073233819671 0.22180690062046052 0.095582103214480671 -0.030956924218856076 0.29183418776678 0.041690118047926161 0.025379802456600133 -0.0014770958298432545 0.045985904308380905 0.021830519789999184 0.087613974535528993 0.21432567238807679 0.020288018250185662 0.16814429793945129 0.0014067103239622984 0.043714275279932699 -0.009282815647588134 0.011513312638175391 0.092617719496289885 -0.011408728914010147 0.030439407206070957 -0.022946407043047855
leaf_weight=537 1682 124 27 1957 25 225 31 26 45 25 55 1541 23 135 1052 1263 27 55 187 20 1108 34 110 23 1474 363 24 126 134 1850
leaf_count=537 1682 124 27 1957 25 225 31 26 45 25 55 1541 23 135 1052 1263 27 55 187 20 1108 34 110 23 1474 363 24 126 134 1850
internal_value=0 0.0301765 0.023049 -0.0157462 0.160703 0.0206215 0.0349704 0.0835467 0.107301 0.133756 0.0139271 -0.0286217 0.224544 0.0714791 0.0306656 -0.00605363 0.108454 0.0587063 0.0836287 0.0998567 0.0121616 0.136565 -0.0257072 -0.0131145 -0.00192225 0.00274945 0.016543 -0.00636764 0.0101592 -0.0215797
internal_weight=0 4906 4328 9402 75 4253 1353 578 76 112 2900 4038 50 466 1277 5364 87 110 331 207 2790 60 3501 1980 3384 1650 387 1734 260 1960
internal_count=14308 4906 4328 9402 75 4253 1353 578 76 112 2900 4038 50 466 1277 5364 87 110 331 207 2790 60 3501 1980 3384 1650 387 1734 260 1960
is_linear=0
shrinkage=0.1


Tree=6
num_leaves=31
num_cat=0
split_feature=1 1 1 0 8 6 0 1 1 0 7 7 0 1 1 0 8 0 8 0 7 0 7 7 7 7 1 7 1 0
split_gain=553.622 129.071 128.241 119.929 63.286 27.5612 29.065 32.4223 23.4335 20.9395 34.452 20.8351 18.279 33.5119 17.3779 23.358 16.8013 14.8857 13.251 11.1709 8.77722 8.00357 7.98096 8.53371 8.50325 7.26203 6.99541 6.82784 6.79553 6.74334
threshold=26.500000000000004 104.50000000000001 -21.499999999999996 161.25000000000003 0.85824742268041254 2.5000000000000004 119.25000000000001 51.500000000000007 -64.499999999999986 127.25000000000001 0.77061855670103108 0.77577319587628879 112.75000000000001 113.50000000000001 8.5000000000000018 174.75000000000003 0.481958762886598 24.750000000000004 0.023195876288659798 89.750000000000014 0.39432989690721654 44.750000000000007 0.83247422680412386 0.80670103092783518 0.847938144329897 0.42525773195876293 -16.499999999999996 0.75000000000000011 -116.49999999999999 98.250000000000014
decision_type=2 2 2 2 2 2 2 2 2 2 2 2 2 2 2 2 2 2 2 2 2 2 2 2 2 2 2 2 2 2
left_child=2 3 8 5 16 6 18 -8 28 10 12 -12 13 -3 22 17 -5 27 -2 -19 -17 25 23 -4 -24 -7 -26 -16 -1 -25
right_child=1 9 14 4 -6 21 7 -9 -10 -11 11 -13 -14 -15 15 20 -18 19 -20 -21 -22 -23 24 29 26 -27 -28 -29 -30 -31
leaf_value=-0.048960362639158005 -0.045173096566489247 0.014924441691901949 -0.0044407693341485593 0.14397553341801872 0.30151390075683593 0.084474701627537063 0.01868209569286014 0.07077197128836113 -0.018963399011162101 0.0069822032903802808 0.22002630508504809 0.096769440919160843 0.15524103110035262 0.095458212823612124 0.01331235398504421 0.12329255158335649 0.037608304464568698 -0.0066715890187712098 0.01857328132081907 0.011001151356263405 0.031759735643863682 0.12560640094801784 -0.043480058102447428 0.050721176702748332 -0.035388923405992742 0.035026461337551933 -0.0060655557659857117 0.04252578453449285 -0.030960909512770529 -0.0062778846274263098
leaf_weight=248 33 72 2898 33 20 54 241 237 3231 29 32 24 30 183 274 22 27 963 2752 569 20 20 94 51 98 66 479 113 1360 35
leaf_count=248 33 72 2898 33 20 54 241 237 3231 29 32 24 30 183 274 22 27 963 2752 569 20 20 94 51 98 66 479 113 1360 35
internal_value=0 0.0324026 -0.0119414 0.0264372 0.147461 0.0235921 0.0217279 0.0445091 -0.0238726 0.0885579 0.0954955 0.167202 0.0814058 0.0727193 -0.00166086 0.00593347 0.0961103 0.00431887 0.0178179 -0.000107758 0.0797055 0.0670393 -0.00573541 -0.00351954 -0.0155896 0.0572782 -0.011046 0.0218424 -0.0337369 0.0275239
internal_weight=0 3853 10455 3483 80 3403 3263 478 4839 370 341 56 285 255 5616 1961 60 1919 2785 1532 42 140 3655 2984 671 120 577 387 1608 86
internal_count=14308 3853 10455 3483 80 3403 3263 478 4839 370 341 56 285 255 5616 1961 60 1919 2785 1532 42 140 3655 2984 671 120 577 387 1608 86
is_linear=0
shrinkage=0.1


Tree=7
num_leaves=31
num_cat=0
split_feature=1 1 1 0 8 1 8 6 1 0 1 8 8 1 8 0 0 0 1 8 6 8 7 7 1 7 0 1 7 7
split_gain=448.434 105.04 103.875 100.108 51.2616 24.7988 20.012 19.1471 19.11 17.3519 19.3008 15.0253 15.1113 14.5028 13.609 12.6497 14.3988 13.4211 30.2897 11.4034 10.0001 7.29748 6.53751 7.78786 6.50289 5.8369 5.76853 5.06722 4.87986 19.8305
threshold=26.500000000000004 92.500000000000014 -21.499999999999996 161.25000000000003 0.85824742268041254 146.50000000000003 0.67268041237113418 2.5000000000000004 -77.499999999999986 119.25000000000001 51.500000000000007 0.043814432989690726 0.97680412371134029 3.5000000000000004 0.481958762886598 22.750000000000004 21.750000000000004 168.25000000000003 19.500000000000004 0.6778350515463919 1.0000000180025095e-35 0.35824742268041243 0.83247422680412386 0.8118556701030929 -41.499999999999993 0.847938144329897 116.25000000000001 -16.499999999999996 0.28608247422680416 0.45103092783505161
decision_type=2 2 2 2 2 2 2 2 2 2 2 2 2 2 2 2 2 2 2 2 2 2 2 2 2 2 2 2 2 2
left_child=2 3 8 7 14 11 -7 9 -1 19 -11 -3 20 22 -5 16 21 -17 -19 -2 -13 -15 23 26 -10 -24 -4 -27 -9 -30
right_child=1 5 13 4 -6 6 -8 28 24 10 -12 12 -14 15 -16 17 -18 18 -20 -21 -22 -23 25 -25 -26 27 -28 -29 29 -31
leaf_value=-0.033562720287320227 0.0093182706240660107 -0.023189929006621243 -0.0070335843632146639 0.12957798210960444 0.27136251233518122 0.18542480950634327 0.062313656654694807 0.02850287411271072 -0.022240789108428277 0.016813888434799876 0.05844642346103987 0.061240850713431508 -0.0075916796370788858 0.025651545088851091 0.033847475686558971 -0.0011466798223573539 0.095494310363479287 0.0067025576678799914 0.14341338855170069 0.022771299210999976 0.095295152941768158 0.00086715038848557955 -0.03978670641737081 0.037688204307447785 -0.013973090926774484 -0.031850032576796965 0.005846170195730368 -0.0063120277928537701 0.15257385075092317 0.04314962643295972
leaf_weight=1031 1560 20 1976 33 20 31 23 41 1954 241 207 364 27 264 27 2019 23 71 21 1057 113 216 87 44 1854 98 422 375 22 67
leaf_count=1031 1560 20 1976 33 20 31 23 41 1954 241 207 364 27 264 27 2019 23 71 21 1057 113 216 87 44 1854 98 422 375 22 67
internal_value=0 0.0291623 -0.0107472 0.0222259 0.132715 0.0684648 0.132989 0.0194593 -0.0214854 0.017865 0.0360503 0.0618154 0.0651886 -0.00149478 0.0864993 0.00395107 0.0182022 0.000555384 0.0379083 0.0147519 0.0693082 0.0144986 -0.00623676 -0.00400205 -0.0182155 -0.0159817 -0.00476701 -0.0116032 0.0570482 0.0701983
internal_weight=0 3853 10455 3275 80 578 54 3195 4839 3065 448 524 504 5616 60 2614 503 2111 92 2617 477 480 3002 2442 3808 560 2398 473 130 89
internal_count=14308 3853 10455 3275 80 578 54 3195 4839 3065 448 524 504 5616 60 2614 503 2111 92 2617 477 480 3002 2442 3808 560 2398 473 130 89
is_linear=0
shrinkage=0.1


Tree=8
num_leaves=31
num_cat=0
split_feature=1 1 0 1 0 8 6 1 2 7 1 1 2 8 8 6 8 6 7 3 1 8 8 0 1 7 8 0 0 7
split_gain=364.948 102.273 88.2153 63.0818 32.1911 46.1159 22.9764 20.087 18.292 18.0096 16.1916 13.2024 12.4722 12.1705 14.0574 14.8787 12.5486 9.91659 7.65963 7.4667 5.651 4.84368 4.79219 4.37649 4.04099 6.83275 6.10165 4.34463 5.0076 4.6387
threshold=16.500000000000004 92.500000000000014 177.75000000000003 -29.499999999999996 146.75000000000003 0.87371134020618568 1.0000000180025095e-35 146.50000000000003 -31.58499999999999 0.37886597938144334 46.500000000000007 -96.499999999999986 -294.48499999999996 0.043814432989690726 0.77577319587628879 1.0000000180025095e-35 0.40463917525773202 1.0000000180025095e-35 0.86855670103092797 1.0000000180025095e-35 -12.499999999999998 0.14690721649484537 0.4974226804123712 187.25000000000003 -52.499999999999993 0.074742268041237125 0.064432989690721656 57.750000000000007 49.250000000000007 0.090206185567010322
decision_type=2 2 2 2 2 2 2 2 2 2 2 2 2 2 2 2 2 2 2 2 2 2 2 2 2 2 2 2 2 2
left_child=3 2 4 11 6 8 10 13 -6 -9 -2 -1 -8 -3 16 -16 -15 19 21 20 23 -19 -22 -5 27 -26 -27 28 -13 -29
right_child=1 7 -4 17 5 -7 12 9 -10 -11 -12 24 -14 14 15 -17 -18 18 -20 -21 22 -23 -24 -25 25 26 -28 29 -30 -31
leaf_value=-0.035577327567993818 0.0047142025934017668 -0.020870935358107093 0.19375550938504082 -0.010426449718006823 -0.028701770325770249 0.16773929197341206 0.084276205083219022 0.059759353046627862 0.04922722179074715 0.17533934507519008 0.018738355829295294 -0.021408783685183154 0.027289551791092121 0.050352709237596993 0.017886782309881621 0.092559331786983168 0.088456788423910651 0.022797953036557562 0.050571233194664514 -0.023868114396256197 0.0019250719295358446 0.00017508826271090875 -0.0063145513334577109 0.035520555832911103 -0.042582996020262893 0.011040530596738277 -0.015439060290543297 -0.0036955059515802486 0.0020061089119441074 -0.026636875599134163
leaf_weight=537 2045 20 28 1616 37 30 41 26 162 28 1378 256 607 168 124 34 178 116 38 224 1327 514 1508 21 88 92 1608 95 142 1220
leaf_count=537 2045 20 28 1616 37 30 41 26 162 28 1378 256 607 168 124 34 178 116 38 224 1327 514 1508 21 88 92 1608 95 142 1220
internal_value=0 0.0221092 0.0168328 -0.0115367 0.0156807 0.0521617 0.0136286 0.0616183 0.0347379 0.11969 0.0103599 -0.0209773 0.0308952 0.0556338 0.0586697 0.0339556 0.0699554 -0.00442975 0.00697046 -0.00605141 -0.00515899 0.00434057 -0.00245777 -0.00983703 -0.0187379 -0.0154125 -0.014006 -0.0222089 -0.0130547 -0.0249795
internal_weight=0 4906 4328 9402 4300 229 4071 578 199 54 3423 4038 648 524 504 158 346 5364 668 4696 4472 630 2835 1637 3501 1788 1700 1713 398 1315
internal_count=14308 4906 4328 9402 4300 229 4071 578 199 54 3423 4038 648 524 504 158 346 5364 668 4696 4472 630 2835 1637 3501 1788 1700 1713 398 1315
is_linear=0
shrinkage=0.1


Tree=9
num_leaves=31
num_cat=0
split_feature=1 1 0 1 8 6 1 0 1 0 0 7 0 1 8 8 7 1 6 0 7 8 8 8 1 2 5 8 7 0
split_gain=298.935 70.8814 70.8867 67.4003 37.4917 20.3265 17.1113 19.8955 16.3331 16.1951 16.3269 15.7266 14.8723 12.8929 10.6694 9.65432 9.12607 9.0871 8.08344 10.3851 15.7997 8.86086 6.7875 8.73813 5.71049 5.50952 5.00016 5.58122 4.87967 4.28415
threshold=26.500000000000004 104.50000000000001 161.25000000000003 -15.499999999999998 0.85824742268041254 3.5000000000000004 61.500000000000007 118.25000000000001 -55.499999999999993 63.250000000000007 127.25000000000001 0.37886597938144334 41.250000000000007 46.500000000000007 0.038659793814432998 0.9149484536082475 0.80670103092783518 42.500000000000007 1.0000000180025095e-35 112.75000000000001 0.033505154639175264 0.079896907216494853 0.059278350515463922 0.50773195876288668 -133.49999999999997 -217.51999999999995 1.0000000180025095e-35 0.13659793814432994 0.35824742268041243 46.250000000000007
decision_type=2 2 2 2 2 2 2 2 2 2 2 2 2 2 2 2 2 2 2 2 2 2 2 2 2 2 2 2 2 2
left_child=3 2 6 8 13 9 12 14 24 -3 11 -11 17 -4 -8 -9 -14 -2 19 22 -21 -22 28 -24 -1 -20 27 -27 -5 -10
right_child=1 5 4 18 -6 -7 7 15 29 10 -12 -13 16 -15 -16 -17 -18 -19 25 20 21 -23 23 -25 -26 26 -28 -29 -30 -31
leaf_value=-0.043392809261953026 0.017259541595771862 -0.01773693332076073 0.032373402004732807 -0.060492716546115634 0.23100649528205397 0.16347489714622498 -0.043071356177330017 0.047821945553893443 -0.017180998405617345 0.042612027152603787 -0.0058197569230507163 0.090401172024362236 0.0040808740976435651 0.12591944650675244 0.023101069402186109 0.11264922850661807 0.022068327867378626 0.045544782137803441 0.059772496422131866 0.095313392505340752 0.048200900264529757 0.0031436908339965842 0.0015816057799082209 -0.0089868129097381826 -0.021975057836056983 0.0528057661652565 -0.0024177156928942823 0.011203357003538347 -0.015007330777800896 -0.0096804394230289702
leaf_weight=133 317 25 34 34 20 20 25 154 1131 109 29 187 1388 26 961 27 354 177 21 20 46 853 1543 1587 1945 35 289 410 77 2331
leaf_count=133 317 25 34 34 20 20 25 154 1131 109 29 187 1388 26 961 27 354 177 21 20 46 853 1543 1587 1945 35 289 410 77 2331
internal_value=0 0.0238101 0.0193894 -0.00877478 0.112434 0.0654244 0.0172021 0.0270175 -0.0163375 0.0598215 0.0657876 0.0728031 0.0120792 0.07291 0.0214233 0.0574923 0.00773619 0.0273941 -0.00025042 -0.0019781 0.00740487 0.00544918 -0.00463868 -0.00377689 -0.0233459 0.00926898 0.00782406 0.0144755 -0.0289398 -0.0121308
internal_weight=0 3853 3483 10455 80 370 3403 1167 5540 350 325 296 2236 60 986 181 1742 494 4915 4160 919 899 3241 3130 2078 755 734 445 111 3462
internal_count=14308 3853 3483 10455 80 370 3403 1167 5540 350 325 296 2236 60 986 181 1742 494 4915 4160 919 899 3241 3130 2078 755 734 445 111 3462
is_linear=0
shrinkage=0.1


Tree=10
num_leaves=31
num_cat=0
split_feature=1 1 0 1 1 1 0 1 8 8 4 8 8 8 7 0 6 3 1 0 0 7 8 0 8 0 7 8 2 0
split_gain=242.644 72.5932 51.1177 50.9855 37.8798 22.2548 33.887 15.2946 17.1327 15.1468 10.3587 10.1569 9.97278 14.4228 8.74478 8.24279 8.0279 6.57834 6.5747 6.19786 7.2647 5.6236 5.54305 4.38986 2.5564 2.53833 2.40227 2.27622 3.76413 4.10875
threshold=12.500000000000002 92.500000000000014 176.25000000000003 24.500000000000004 -41.499999999999993 53.500000000000007 160.25000000000003 146.50000000000003 0.64175257731958768 0.6778350515463919 1.0000000180025095e-35 0.97680412371134029 0.12628865979381446 0.16752577319587633 0.13659793814432994 125.25000000000001 2.5000000000000004 1.0000000180025095e-35 -96.499999999999986 11.750000000000002 9.7500000000000018 0.99226804123711354 0.86855670103092797 10.750000000000002 0.86340206185567026 74.250000000000014 0.53865979381443307 0.43556701030927841 227.43500000000003 76.750000000000014
decision_type=2 2 2 2 2 2 2 2 2 2 2 2 2 2 2 2 2 2 2 2 2 2 2 2 2 2 2 2 2 2
left_child=4 2 5 -4 18 10 9 11 -9 -7 15 12 26 -14 -12 -2 17 21 25 20 -19 22 -6 -18 -21 -1 -3 28 -20 -30
right_child=1 7 3 -5 16 6 -8 8 -10 -11 14 -13 13 -15 -16 -17 23 19 27 24 -22 -23 -24 -25 -26 -27 -28 -29 29 -31
leaf_value=-0.017824861785055889 0.0040175487120528422 -0.023715562522411346 0.016894867108203471 0.22765339870344509 -0.0060644267714949733 0.011550580511928959 0.13562714979052545 0.15730580390189533 0.044651840554757252 0.03324083734090643 0.082987375672046962 -0.014648357613219155 0.13561345741152764 0.04876767153768382 0.0211518650266685 0.019412099287363153 0.010285352337529365 -0.013866846164875234 -0.015093323438618314 -0.024289509789843865 0.03521592095997688 -0.031363034551904999 0.0027154293226848642 0.057280099511146543 -0.053203907412373352 -0.033413859115371224 0.024710432306996415 -0.019755692935508232 0.027521264275839164 -0.027341246232390405
leaf_weight=142 2758 20 24 22 4468 793 26 27 27 542 26 27 20 436 190 398 97 163 1005 203 37 80 857 25 36 395 21 1380 43 20
leaf_count=142 2758 20 24 22 4468 793 26 27 27 542 26 27 20 436 190 398 97 163 1005 203 37 80 857 25 36 395 21 1380 43 20
internal_value=0 0.0168333 0.0127849 0.117692 -0.0100744 0.0117653 0.0225587 0.0503061 0.100979 0.0203567 0.00740894 0.0450841 0.0483291 0.0525767 0.028595 0.00595894 -0.00547293 -0.00600294 -0.0192712 -0.0177754 -0.00478653 -0.00504677 -0.00465141 0.0199154 -0.0286448 -0.0292916 0.001088 -0.0170731 -0.0136069 0.0101046
internal_weight=0 5357 4779 46 8951 4733 1361 578 54 1335 3372 524 497 456 216 3156 5966 5844 2985 439 200 5405 5325 122 239 537 41 2448 1068 63
internal_count=14308 5357 4779 46 8951 4733 1361 578 54 1335 3372 524 497 456 216 3156 5966 5844 2985 439 200 5405 5325 122 239 537 41 2448 1068 63
is_linear=0
shrinkage=0.1


Tree=11
num_leaves=31
num_cat=0
split_feature=1 1 1 0 8 7 7 4 7 0 0 0 0 7 8 1 8 1 1 0 7 2 5 0 8 0 7 2 2 2
split_gain=198.507 49.2943 45.993 45.8439 30.2099 18.6252 18.3721 23.2395 22.5033 15.7376 14.2248 13.2285 11.9023 11.2837 9.51871 9.25691 9.02561 8.28342 7.36272 8.05212 7.43324 6.86079 6.48298 6.0015 4.751 3.99779 6.53969 5.76174 5.52808 4.9112
threshold=26.500000000000004 110.50000000000001 -24.499999999999996 161.25000000000003 0.85824742268041254 0.68814432989690733 0.16237113402061856 1.5000000000000002 0.18298969072164953 107.75000000000001 105.75000000000001 24.750000000000004 53.750000000000007 0.54896907216494861 0.481958762886598 31.500000000000004 0.75515463917525782 -93.499999999999986 3.5000000000000004 18.750000000000004 0.023195876288659798 -170.56499999999997 1.0000000180025095e-35 104.25000000000001 0.6778350515463919 46.750000000000007 0.98711340206185583 22.515000000000075 32.475000000000016 148.84000000000003
decision_type=2 2 2 2 2 2 2 2 2 2 2 2 2 2 2 2 2 2 2 2 2 2 2 2 2 2 2 2 2 2
left_child=2 3 17 6 14 9 12 8 -8 13 -7 -9 15 16 -5 -2 -3 -1 25 22 -21 -22 -20 -14 -24 27 28 -4 -27 -29
right_child=1 5 18 4 -6 10 7 11 -10 -11 -12 -13 23 -15 -16 -17 -18 -19 19 20 21 -23 24 -25 -26 26 -28 29 -30 -31
leaf_value=-0.025933152887349327 -0.040690740468827168 0.085955635038712494 -0.01036229620584418 0.091626692134322549 0.19751404494047164 0.1620809939423842 0.077292922039826711 0.020379643887281418 0.015385233242503481 -0.010518942133356364 0.058301393091678623 0.1240528827533126 -0.016877379176425344 0.0051303765387274332 0.011564789215723674 0.02834062239671328 0.033602485513473133 -0.013098338841789748 0.025283331197193445 0.044097426637860121 -0.054842196828078317 6.556209495161163e-05 0.0087569569164004778 0.0089919724847160043 -0.033835371254998095 0.00092282451817607435 -0.041953960099281408 0.030520166958414658 -0.020783381532006418 -0.010218697958592905
leaf_weight=576 22 110 1316 33 20 28 60 20 2744 39 25 32 324 32 27 166 47 3959 255 38 23 2150 114 124 34 1705 39 67 126 53
leaf_count=576 22 110 1316 33 20 28 60 20 2744 39 25 32 324 32 27 166 47 3959 255 38 23 2150 114 124 34 1705 39 67 126 53
internal_value=0 0.0194026 -0.00715049 0.0162302 0.0910776 0.0597302 0.0145155 0.0179384 0.0167099 0.0473174 0.113128 0.0841786 -0.000855219 0.0592519 0.0555988 0.0202625 0.070283 -0.0147285 -0.00134537 0.00262067 0.000251149 -0.000515606 0.0156207 -0.00971711 -0.00102777 -0.00448125 -0.00143395 -0.00844953 -0.000570885 0.0125272
internal_weight=0 3853 10455 3572 80 281 3492 2856 2804 228 53 52 636 189 60 188 157 4535 5920 2614 2211 2173 403 448 148 3306 1870 1436 1831 120
internal_count=14308 3853 10455 3572 80 281 3492 2856 2804 228 53 52 636 189 60 188 157 4535 5920 2614 2211 2173 403 448 148 3306 1870 1436 1831 120
is_linear=0
shrinkage=0.1


Tree=12
num_leaves=31
num_cat=0
split_feature=1 1 1 0 8 0 7 1 7 7 7 4 7 0 2 0 7 1 7 7 7 7 6 8 7 1 8 0 8 1
split_gain=161.799 46.0961 35.5448 37.8374 16.0694 14.9378 21.5529 12.3591 27.5947 21.3414 11.5925 23.3931 22.2415 13.9327 9.92447 9.69461 38.311 9.26828 8.72071 13.3101 8.66676 7.78574 7.37357 6.04931 4.49108 4.18316 4.16184 3.49703 12.6566 19.3654
threshold=35.500000000000007 -15.499999999999998 113.50000000000001 119.25000000000001 0.96649484536082486 110.75000000000001 0.77061855670103108 55.500000000000007 0.57474226804123718 0.76546391752577325 0.23453608247422683 1.5000000000000002 0.27577319587628873 30.250000000000004 -217.51999999999995 159.25000000000003 0.069587628865979398 -64.499999999999986 0.54896907216494861 0.37886597938144334 0.11597938144329899 0.19329896907216496 1.0000000180025095e-35 0.033505154639175264 0.6778350515463919 20.500000000000004 0.67268041237113418 105.75000000000001 0.87371134020618568 -26.499999999999996
decision_type=2 2 2 2 2 2 2 2 2 2 2 2 2 2 2 2 2 2 2 2 2 2 2 2 2 2 2 2 2 2
left_child=1 17 3 10 7 6 18 9 -9 -5 13 12 -12 -2 25 22 -17 -1 19 -4 -18 -15 23 -16 -24 -3 -7 -19 -29 -30
right_child=2 14 5 4 -6 26 -8 8 -10 -11 11 -13 -14 21 15 16 20 27 -20 -21 -22 -23 24 -25 -26 -27 -28 28 29 -31
leaf_value=-0.018474517056523865 0.074076158863802755 0.020559417857573585 0.037199616921134292 0.0025948897672769351 0.11650105203901018 0.031405998982489108 0.15108436000774858 0.08109945154010223 0.011538800400027888 0.080765115784274213 0.071296827269322946 0.10059877731837333 0.012137982813653391 0.00030413353358583952 -0.028294213628660976 0.13324496666184413 -0.043182326285468954 -0.0077352238194536146 0.0096501381739097503 0.098098655132686396 0.012392158853912701 -0.038748859627205035 0.013619290492273509 -0.0018109576666124835 -0.0013943500291331221 0.081391059942543517 -0.029795739920809867 -0.019152053698818568 -0.0084254985054334 0.077780903024332868
leaf_weight=1608 24 26 76 156 28 25 27 145 94 45 66 32 1713 489 88 26 31 2944 34 68 296 57 520 4339 323 20 20 851 102 35
leaf_count=1608 24 26 76 156 28 25 27 145 94 45 66 32 1713 489 88 26 31 2944 34 68 296 57 520 4339 323 20 20 851 102 35
internal_value=0 -0.00559147 0.0202242 0.0170517 0.0430456 0.056378 0.0678305 0.0383711 0.0537409 0.0200957 0.0119425 0.015857 0.0143327 -0.000494975 0.000747959 0.000369521 0.016413 -0.0120785 0.0552022 0.0659575 0.00712363 -0.00377283 -0.00070512 -0.00233739 0.00786673 0.047008 0.00420523 -0.00946286 -0.0146108 0.013598
internal_weight=0 11209 3099 2849 468 250 205 440 239 201 2381 1811 1779 570 5669 5623 353 5540 178 144 327 546 5270 4427 843 46 45 3932 988 137
internal_count=14308 11209 3099 2849 468 250 205 440 239 201 2381 1811 1779 570 5669 5623 353 5540 178 144 327 546 5270 4427 843 46 45 3932 988 137
is_linear=0
shrinkage=0.1


Tree=13
num_leaves=31
num_cat=0
split_feature=1 1 0 1 0 0 6 8 7 8 0 1 6 1 0 3 8 6 5 0 1 7 7 7 8 8 7 7 7 8
split_gain=133.392 42.523 40.3334 22.3106 18.9005 17.831 19.9863 22.3081 18.3315 12.2151 12.7673 21.0728 14.0742 10.0658 12.1422 5.76973 6.64604 5.15384 4.7196 5.44949 4.13614 3.70689 3.67596 3.18519 2.84299 4.40181 5.55082 2.49889 2.96175 2.41485
threshold=14.500000000000002 79.500000000000014 179.75000000000003 -41.499999999999993 49.250000000000007 65.250000000000014 1.0000000180025095e-35 0.47164948453608252 0.60567010309278357 0.038659793814432998 111.75000000000001 39.500000000000007 1.0000000180025095e-35 109.50000000000001 54.250000000000007 1.0000000180025095e-35 0.14690721649484537 1.0000000180025095e-35 3.5000000000000004 11.750000000000002 -137.49999999999997 0.99226804123711354 0.76546391752577325 0.35309278350515466 0.43556701030927841 0.34278350515463923 0.40463917525773202 0.86855670103092797 0.64175257731958768 0.25515463917525777
decision_type=2 2 2 2 2 2 2 2 2 2 2 2 2 2 2 2 2 2 2 2 2 2 2 2 2 2 2 2 2 2
left_child=3 2 9 20 -3 13 7 -7 -8 -2 12 -12 -11 14 -6 17 23 21 29 -20 -1 22 -5 -17 25 -22 -27 28 -19 -18
right_child=1 4 -4 15 5 6 8 -9 -10 10 11 -13 -14 -15 -16 16 18 27 19 -21 24 -23 -24 -25 -26 26 -28 -29 -30 -31
leaf_value=-0.033619395817551655 -0.029957627199859505 0.12244197305129922 0.13295957718454213 -0.0050171632719284614 0.036636818670912792 0.053036531080202814 0.057331012350345115 0.014240920174399896 0.16606215238571168 0.0028420433523084713 0.0048036680631424805 0.036759279664996487 0.019432645816874657 0.054946518316864972 -0.030348497849116304 -0.010591269028373063 -0.0031421714063201637 0.011668235298396699 0.012796030186668592 -0.023556767239296325 -0.013074902618772415 -0.025047715696977613 0.0011647139413252033 0.036990070551195568 -0.016332802758139666 0.021640265832344692 -0.0089802177482946766 0.032740444615483283 -0.0049971257261879577 -0.031466636393912312
leaf_weight=107 83 23 26 3889 38 261 69 343 20 2678 437 391 632 28 94 24 35 266 81 84 978 81 1278 34 1637 90 173 35 178 215
leaf_count=107 83 23 26 3889 38 261 69 343 20 2678 437 391 632 28 94 24 35 266 81 84 978 81 1278 34 1637 90 173 35 178 215
internal_value=0 0.0129286 0.0087909 -0.00721103 0.032989 0.030577 0.0375242 0.0310052 0.081765 0.00802607 0.00878794 0.0198938 0.0060098 0.000487143 -0.0110648 -0.0037913 -0.0144062 -0.0029146 -0.0188376 -0.00571085 -0.014314 -0.0038209 -0.00348814 0.0173012 -0.0135962 -0.00998647 0.00149827 0.00701498 0.00498708 -0.0275012
internal_weight=0 5123 4247 9185 876 853 693 604 89 4221 4138 828 3310 160 132 6200 473 5727 415 165 2985 5248 5167 58 2878 1241 263 479 444 250
internal_count=14308 5123 4247 9185 876 853 693 604 89 4221 4138 828 3310 160 132 6200 473 5727 415 165 2985 5248 5167 58 2878 1241 263 479 444 250
is_linear=0
shrinkage=0.1


Tree=14
num_leaves=31
num_cat=0
split_feature=1 0 1 1 1 0 0 6 0 8 8 8 1 0 1 6 7 0 2 2 0 8 7 7 7 8 8 8 1 7
split_gain=108.476 41.2232 36.6567 19.0158 12.5613 14.5728 12.0615 10.0109 10.1499 12.3285 8.04177 7.67931 4.6075 4.45188 6.99457 3.77433 5.11991 4.09798 5.75052 13.1628 9.39374 3.66063 3.19928 6.47916 3.15244 2.94123 5.01058 3.76784 5.2757 3.92055
threshold=16.500000000000004 179.75000000000003 70.500000000000014 -29.499999999999996 146.50000000000003 100.25000000000001 143.75000000000003 2.5000000000000004 132.75000000000003 0.28608247422680416 0.038659793814432998 0.023195876288659798 -96.499999999999986 32.750000000000007 51.500000000000007 1.0000000180025095e-35 0.86855670103092797 47.750000000000007 32.475000000000016 25.204999999999874 60.750000000000007 0.059278350515463922 0.64175257731958768 0.35309278350515466 0.67268041237113418 0.064432989690721656 0.090206185567010322 0.023195876288659798 -39.499999999999993 0.6778350515463919
decision_type=2 2 2 2 2 2 2 2 2 2 2 2 2 2 2 2 2 2 2 2 2 2 2 2 2 2 2 2 2 2
left_child=3 2 7 12 6 -6 10 8 11 -10 -4 -2 -1 14 -9 17 22 21 19 -19 -20 -5 23 -17 -23 27 -27 29 -29 -14
right_child=1 -3 4 15 5 -7 -8 13 9 -11 -12 -13 25 -15 -16 16 -18 18 20 -21 -22 24 -24 -25 -26 26 -28 28 -30 -31
leaf_value=-0.020098031510631911 -0.044244289189351332 0.15186107882431576 -0.029400494283643264 -0.035847010176671162 0.13198903013641636 0.027444481449201703 0.078465432886732744 0.034550633163440349 -0.017474035071925475 0.030852279199612101 0.02397585710264577 0.0042452500573763093 -0.032391661524772644 0.06876010150924601 -0.03017815724015236 -0.0016610373070634868 0.040292292186304146 -0.00074342633202371423 0.037534980729222303 0.076905242048881273 -0.02883777204387147 -0.0099563845265593174 -0.0073013058144795724 0.024516356884514548 -0.00076781630301516867 -0.031849335540424697 -0.010141858670124813 0.0031581120938062668 0.058292560988948465 0.013335376977920532
leaf_weight=537 33 21 29 44 24 30 40 101 65 281 1058 3177 50 27 20 265 38 2847 25 22 145 1026 218 147 587 110 3190 100 21 30
leaf_count=537 33 21 29 44 24 30 40 101 65 281 1058 3177 50 27 20 265 38 2847 25 22 145 1026 218 147 587 110 3190 100 21 30
internal_value=0 0.0120538 0.0114528 -0.00628972 0.0267938 0.0739087 0.0245363 0.00656138 0.00550078 0.0217736 0.0225518 0.00374676 -0.011473 0.0320444 0.0238517 -0.00238773 0.00464544 -0.00338819 -0.00120688 -0.000148003 -0.0190771 -0.00738879 0.00249531 0.00767896 -0.0066125 -0.0101501 -0.0108654 0.0015942 0.0127269 -0.015244
internal_weight=0 4906 4885 9402 1181 54 1127 3704 3556 346 1087 3210 4038 148 121 5364 668 4696 3039 2869 170 1657 630 412 1613 3501 3300 201 121 80
internal_count=14308 4906 4885 9402 1181 54 1127 3704 3556 346 1087 3210 4038 148 121 5364 668 4696 3039 2869 170 1657 630 412 1613 3501 3300 201 121 80
is_linear=0
shrinkage=0.1


Tree=15
num_leaves=31
num_cat=0
split_feature=1 1 0 1 8 0 8 8 8 0 1 7 0 7 2 8 0 7 7 8 8 7 1 2 3 8 8 8 0 7
split_gain=89.8667 24.8777 22.2428 22.8156 15.8001 13.5217 12.5764 29.1588 18.2063 11.6388 13.6191 11.7266 10.8473 15.7345 7.52626 7.17591 5.99063 27.0674 7.08327 5.49656 10.401 7.26854 5.3175 3.7581 3.33363 3.73773 3.17022 3.00169 3.8276 3.26894
threshold=35.500000000000007 -15.499999999999998 161.25000000000003 113.50000000000001 0.41494845360824745 107.75000000000001 0.51804123711340211 0.43556701030927841 0.68298969072164961 53.750000000000007 77.500000000000014 0.23453608247422683 110.75000000000001 0.77061855670103108 -217.51999999999995 0.46134020618556709 159.25000000000003 0.069587628865979398 0.11597938144329899 0.5128865979381444 0.52319587628865993 0.56958762886597947 -75.499999999999986 -273.85499999999996 1.5000000000000002 0.25515463917525777 0.67268041237113418 0.71907216494845372 107.75000000000001 0.62628865979381454
decision_type=2 2 2 2 2 2 2 2 2 2 2 2 2 2 2 2 2 2 2 2 2 2 2 2 2 2 2 2 2 2
left_child=1 22 3 5 -4 9 7 -7 -8 10 -2 -11 13 15 23 -5 19 -18 -19 21 -21 -16 27 -3 -24 -26 -14 29 -29 -1
right_child=2 14 4 12 -6 6 8 -9 -10 11 -12 -13 26 -15 16 -17 17 18 -20 20 -22 -23 24 -25 25 -27 -28 28 -30 -31
leaf_value=-0.0072167622063585186 0.013807019348796426 0.015706062259582373 0.010198861849494279 0.016939088804647326 0.12350173927843572 0.022130963752238914 -0.029011003848384412 0.096176669411901117 0.02555144665369747 -0.01329109001176796 0.060644985087539842 0.0076450884726957814 0.022190529599785805 0.1238029859132237 0.00720963901406361 0.058043413060820774 0.11097465381026268 -0.040514766252900083 0.0097269214221317249 -0.063509884774524336 -0.0032852512860440846 -0.0032808815209185399 -0.0069903602108958816 0.07336433131247759 -0.055123369420568148 -0.012450823637728509 -0.031224834332242608 -0.015858651637225538 -0.043007719963788993 -0.01964011600484019
leaf_weight=499 619 26 20 70 32 232 85 69 218 348 69 1157 25 27 1472 108 26 31 296 29 2571 1198 4350 20 30 65 20 148 80 368
leaf_count=499 619 26 20 70 32 232 85 69 218 348 69 1157 25 27 1472 108 26 31 296 29 2571 1198 4350 20 30 65 20 148 80 368
internal_value=0 -0.00416713 0.0150724 0.0139657 0.0799237 0.0113786 0.0246272 0.0391049 0.0102451 0.00772965 0.0185044 0.00280403 0.0429095 0.0526688 0.000490055 0.0418788 0.000160497 0.0127721 0.00496395 -0.000684265 -0.00395699 0.00250266 -0.00893276 0.0407749 -0.00739507 -0.0259264 -0.00154963 -0.0151748 -0.0253846 -0.0124899
internal_weight=0 11209 3099 3047 52 2797 604 301 303 2193 688 1505 250 205 5669 178 5623 353 327 5270 2600 2670 5540 46 4445 95 45 1095 228 867
internal_count=14308 11209 3099 3047 52 2797 604 301 303 2193 688 1505 250 205 5669 178 5623 353 327 5270 2600 2670 5540 46 4445 95 45 1095 228 867
is_linear=0
shrinkage=0.1


Tree=16
num_leaves=31
num_cat=0
split_feature=1 1 0 8 7 1 6 7 7 0 1 2 2 0 0 7 3 6 8 0 5 1 8 8 8 1 1 0 7 8
split_gain=72.9585 25.9529 23.1217 27.0771 22.6804 11.6969 9.23115 14.7417 10.8252 8.50966 9.23941 8.11203 9.46257 11.5146 9.89588 7.24637 4.55592 6.22501 4.65305 4.8155 4.63755 4.41648 4.18924 6.40188 4.45645 2.80684 2.68928 2.40035 2.32591 2.25075
threshold=12.500000000000002 92.500000000000014 168.25000000000003 0.37371134020618563 0.39432989690721654 -41.499999999999993 2.5000000000000004 0.52835051546391765 0.77577319587628879 63.250000000000007 97.500000000000014 -445.55999999999989 -44.20500000000002 146.75000000000003 28.250000000000004 0.8788659793814434 1.0000000180025095e-35 2.5000000000000004 0.14690721649484537 3.7500000000000004 3.5000000000000004 102.50000000000001 0.19845360824742272 0.10567010309278352 0.27577319587628873 -137.49999999999997 2.5000000000000004 9.7500000000000018 0.35309278350515466 0.43556701030927841
decision_type=2 2 2 2 2 2 2 2 2 2 2 2 2 2 2 2 2 2 2 2 2 2 2 2 2 2 2 2 2 2
left_child=5 2 11 -4 -5 25 8 -8 9 21 -11 -2 14 -14 -13 -10 17 22 28 -20 -21 -3 23 -7 -24 -1 -19 -28 -18 -27
right_child=1 6 3 4 -6 16 7 -9 15 10 -12 12 13 -15 -16 -17 18 26 19 20 -22 -23 24 -25 -26 29 27 -29 -30 -31
leaf_value=-0.026538240714607954 0.05066531357915665 0.017818740403036711 -0.026484998873534744 0.15708813626190712 0.038975224583535584 -0.0004946966720695429 0.013537143096327781 0.13349840715527536 -0.057929398491978645 0.071370169577204587 0.02885853618604688 0.041132447554876932 0.0058975710206186742 0.032698768407976378 -0.012042372619930831 0.01695257586293987 -0.0093211376806721091 0.052501054294407372 -0.063979418631643067 -0.022397370706409778 -0.00014475332557937348 -0.046434247381985191 0.0095069998839836835 -0.017089313877279536 -0.0022458936053188871 -0.00683170323958808 0.0011421538572362129 0.042505027204751966 0.031592796548185025 -0.012478450809991716
leaf_weight=107 40 23 28 29 37 470 20 21 24 59 383 38 3997 167 443 28 24 24 20 239 154 20 350 460 4125 1241 47 20 33 1637
leaf_count=107 40 23 28 29 37 470 20 21 24 59 383 38 3997 167 443 28 24 24 20 239 154 20 350 460 4125 1241 47 20 33 1637
internal_value=0 0.00923046 0.00680984 0.0559155 0.0908733 -0.00552425 0.0292446 0.0749807 0.0257526 0.0304017 0.0345332 0.00582458 0.00543844 0.00697245 -0.00784145 -0.0176083 -0.00296725 -0.00215914 -0.012417 -0.0161134 -0.0136775 -0.0120664 -0.00259583 -0.00870279 -0.00132667 -0.0106348 0.0237781 0.0134893 0.0143659 -0.0100436
internal_weight=0 5357 4779 94 66 8951 578 41 537 485 442 4685 4645 4164 481 52 5966 5496 470 413 393 43 5405 930 4475 2985 91 67 57 2878
internal_count=14308 5357 4779 94 66 8951 578 41 537 485 442 4685 4645 4164 481 52 5966 5496 470 413 393 43 5405 930 4475 2985 91 67 57 2878
is_linear=0
shrinkage=0.1


Tree=17
num_leaves=31
num_cat=0
split_feature=1 0 1 1 0 7 0 1 0 0 8 1 8 8 7 0 6 1 0 0 0 1 7 0 0 0 8 8 8 7
split_gain=62.2606 28.8843 17.3097 15.5523 13.1625 12.0369 16.3607 20.5604 11.3301 10.7113 9.66713 8.42095 12.6582 7.60501 6.59504 6.03922 5.73751 5.52892 5.18018 4.66793 3.85606 4.07933 3.74686 24.5593 4.96623 4.33933 3.88621 10.1961 7.72225 2.54221
threshold=38.500000000000007 168.25000000000003 -11.499999999999998 104.50000000000001 119.25000000000001 0.37886597938144334 126.25000000000001 108.50000000000001 37.250000000000007 120.75000000000001 0.15206185567010314 129.50000000000003 0.46134020618556709 0.64175257731958768 0.97164948453608257 98.250000000000014 1.0000000180025095e-35 -36.499999999999993 23.750000000000004 187.25000000000003 174.75000000000003 -52.499999999999993 0.023195876288659798 119.75000000000001 72.750000000000014 195.25000000000003 0.5128865979381444 0.52835051546391765 0.46649484536082481 0.64175257731958768
decision_type=2 2 2 2 2 2 2 2 2 2 2 2 2 2 2 2 2 2 2 2 2 2 2 2 2 2 2 2 2 2
left_child=2 3 16 4 8 11 7 -7 13 -6 -11 15 -13 -2 -10 -5 19 -18 29 20 21 -1 23 24 -4 26 28 -28 -24 -19
right_child=1 -3 22 5 9 6 -8 -9 14 10 -12 12 -14 -15 -16 -17 17 18 -20 -21 -22 -23 25 -25 -26 -27 27 -29 -30 -31
leaf_value=-0.010697915143383661 0.013613283067631224 0.12728470982137052 0.015219329131068663 -0.027639218597041982 0.095922930041948962 0.1320678250462716 -0.036744224086181602 0.041371964608725595 0.0052567408557821537 -0.020366074274415558 0.028709812846759126 -0.021756842508912088 0.080284330128662054 0.052840770101999938 -0.02125525496373273 0.030582385078072552 0.058541648089885712 0.029930507806129755 -0.023573447289791976 0.037463350529256076 -0.028819258164285738 -0.0052387900629581588 0.0016224825494354574 0.11866977404803039 -0.039691592154226137 -0.042886963259914646 -0.045498575232917539 -0.0011894950269088767 0.020253208708303164 -0.007505773380398751
leaf_weight=2241 132 22 40 62 21 29 22 181 1796 46 315 20 31 79 99 25 22 60 44 23 85 3517 2420 20 28 23 53 2581 245 26
leaf_count=2241 132 22 40 62 21 29 22 181 1796 46 315 20 31 79 99 25 22 60 44 23 85 3517 2420 20 28 23 53 2581 245 26
internal_value=0 0.0131403 -0.00331153 0.0122617 0.00941694 0.0313906 0.0453014 0.0538966 0.00631919 0.0264951 0.0224564 0.00800439 0.0402682 0.0283004 0.00387168 -0.0109089 -0.00700157 0.01218 0.00433422 -0.00749861 -0.00767559 -0.00736347 0.000793223 0.0212591 -0.00739105 0.000454816 0.000642939 -0.00208106 0.00333525 0.0186126
internal_weight=0 2880 11428 2858 2488 370 232 210 2106 382 361 138 51 211 1895 87 6018 152 130 5866 5843 5758 5410 88 68 5322 5299 2634 2665 86
internal_count=14308 2880 11428 2858 2488 370 232 210 2106 382 361 138 51 211 1895 87 6018 152 130 5866 5843 5758 5410 88 68 5322 5299 2634 2665 86
is_linear=0
shrinkage=0.1


Tree=18
num_leaves=31
num_cat=0
split_feature=1 0 1 1 0 0 8 0 6 2 8 0 7 0 1 0 7 7 0 8 6 0 8 0 7 7 0 7 7 2
split_gain=50.4311 23.3963 14.1589 13.1463 12.311 12.6856 13.4251 13.3041 9.13896 12.7155 12.2556 8.85975 8.96855 6.86019 10.7767 12.0668 6.80626 6.7509 5.80683 5.57358 9.23129 4.51142 10.755 5.93281 5.57479 9.76549 7.70787 5.62623 15.7993 5.31418
threshold=38.500000000000007 168.25000000000003 -5.4999999999999991 113.50000000000001 119.25000000000001 126.25000000000001 0.38917525773195882 131.75000000000003 1.0000000180025095e-35 -1.0000000180025095e-35 0.38402061855670105 37.250000000000007 0.23453608247422683 173.25000000000003 19.500000000000004 183.25000000000003 0.29639175257731964 0.89432989690721665 170.75000000000003 0.72938144329896915 2.5000000000000004 88.250000000000014 0.87371134020618568 163.75000000000003 0.89432989690721665 0.92010309278350533 69.750000000000014 0.83247422680412386 0.8118556701030929 29.225000000000026
decision_type=2 2 2 2 2 2 2 2 2 2 2 2 2 2 2 2 2 2 2 2 2 2 2 2 2 2 2 2 2 2
left_child=2 3 21 4 11 6 -6 -7 9 -5 -11 17 -13 18 15 -15 -17 -2 -4 20 -10 24 29 -24 27 26 -26 28 -1 -23
right_child=1 -3 13 8 5 7 -8 -9 19 10 -12 12 -14 14 -16 16 -18 -19 -20 -21 -22 22 23 -25 25 -27 -28 -29 -30 -31
leaf_value=-0.005001526174776779 0.017907420694619917 0.11455624033273622 0.00088288277537580109 0.09517056673765184 0.007003623909420437 -0.026119631803816275 0.083337470712285727 0.025448406059984809 -0.0035133574157953265 -0.034883775187353062 0.028078879807144404 -0.0082038231600849738 0.007635833134888758 0.054350185314998835 0.081714238140445497 -0.050893922390476354 0.015921640271941821 0.067775267851538964 -0.051824504491828738 0.092666168104518554 0.088475862136110667 -0.0097725250010502057 0.003776474325949776 0.051978538005745839 0.077045866483522046 -0.00022652089781108865 0.013818051213142918 -0.019190045257091972 0.046343687956877912 -0.024361596689592084
leaf_weight=3414 179 22 4498 20 36 63 64 243 24 43 110 467 1524 37 26 31 30 32 21 33 20 1966 290 28 31 392 51 266 61 286
leaf_count=3414 179 22 4498 20 36 63 64 243 24 43 110 467 1524 37 26 31 30 32 21 33 20 1966 290 28 31 392 51 266 61 286
internal_value=0 0.0118263 -0.00298037 0.0110355 0.00893567 0.0249363 0.0558573 0.0148315 0.0329411 0.0201855 0.0103835 0.0059855 0.00392055 0.00127468 0.0244796 0.00929484 -0.0180338 0.0254703 0.000637949 0.0615997 0.0382999 -0.00589213 -0.00919441 0.00802068 -0.00387864 0.00633828 0.0377212 -0.00517316 -0.00410021 -0.0116253
internal_weight=0 2880 11428 2858 2608 406 100 306 250 173 153 2202 1991 4643 124 98 61 211 4519 77 44 6785 2570 318 4215 474 82 3741 3475 2252
internal_count=14308 2880 11428 2858 2608 406 100 306 250 173 153 2202 1991 4643 124 98 61 211 4519 77 44 6785 2570 318 4215 474 82 3741 3475 2252
is_linear=0
shrinkage=0.1


Tree=19
num_leaves=31
num_cat=0
split_feature=1 1 0 8 8 1 0 8 2 7 0 1 0 0 0 7 0 1 0 7 6 1 1 0 0 8 0 2 8 7
split_gain=41.8049 15.228 14.4247 11.1875 25.8123 48.3231 17.6062 16.9715 17.7366 16.5833 10.1074 21.8151 8.91189 8.20407 7.95519 5.84835 5.07302 5.02019 4.99602 7.73523 5.25768 4.39036 3.90616 3.45807 10.3394 6.98778 4.71739 4.15584 3.80057 3.43364
threshold=54.500000000000007 -5.4999999999999991 160.25000000000003 0.40463917525773202 0.45618556701030932 91.500000000000014 143.75000000000003 0.35824742268041243 -416.35999999999996 0.89432989690721665 173.25000000000003 24.500000000000004 183.25000000000003 120.75000000000001 170.75000000000003 0.63659793814432997 108.75000000000001 80.500000000000014 161.25000000000003 0.68814432989690733 1.0000000180025095e-35 4.5000000000000009 -47.499999999999993 46.750000000000007 74.250000000000014 0.87371134020618568 68.750000000000014 51.405000000000058 0.46649484536082481 0.12113402061855671
decision_type=2 2 2 2 2 2 2 2 2 2 2 2 2 2 2 2 2 2 2 2 2 2 2 2 2 2 2 2 2 2
left_child=1 22 3 7 5 16 13 8 -2 -10 14 12 15 -6 18 -12 -5 -9 20 -20 -3 -14 29 27 26 -26 -25 -24 -29 -1
right_child=2 10 -4 4 6 -7 -8 17 9 -11 11 -13 21 -15 -16 -17 -18 -19 19 -21 -22 -23 23 24 25 -27 -28 28 -30 -31
leaf_value=0.0040968684443071779 0.098425345725956417 -0.00049794065065426158 0.089283367514610301 0.0072927354140715165 0.014716507362140316 0.17313740750153861 0.080886804116399674 -0.064538471088852994 -0.00067595129021531363 0.057070611854168507 0.081818699641596715 0.10919092152013306 0.014358381721480141 -0.013365030347600452 -0.057616690643455676 0.0071872360649563012 0.06411073644730178 -0.012685242408152783 0.0049146718943296978 0.066012300873796156 0.0078532949969087242 -0.037924164140390029 -0.0086450174987793959 0.004370808203994582 -0.0082017640272127375 0.0091697503469313369 0.023599487537025787 -0.009696902080618762 0.024462168077374565 -0.0094198109648394503
leaf_weight=204 21 4465 25 55 939 30 38 43 519 55 21 27 29 117 23 21 22 33 67 30 907 36 1454 681 1495 274 157 57 76 2387
leaf_count=204 21 4465 25 55 939 30 38 43 519 55 21 27 29 117 23 21 22 33 67 30 907 36 1454 681 1495 274 157 57 76 2387
internal_value=0 -0.00211327 0.0138259 0.0128182 0.0185965 0.0654734 0.0140117 0.00247575 0.00815966 0.00485726 0.00173347 0.0288687 0.00860045 0.0116052 0.0010714 0.044503 0.0235264 -0.0420233 0.00131821 0.0238108 0.000912069 -0.0145981 -0.00530291 -0.00341701 -0.00117663 -0.00551109 0.00797332 -0.00709732 0.00982257 -0.00835559
internal_weight=0 12411 1897 1872 1201 107 1094 671 595 574 5626 134 107 1056 5492 42 77 76 5469 97 5372 65 6785 4194 2607 1769 838 1587 133 2591
internal_count=14308 12411 1897 1872 1201 107 1094 671 595 574 5626 134 107 1056 5492 42 77 76 5469 97 5372 65 6785 4194 2607 1769 838 1587 133 2591
is_linear=0
shrinkage=0.1


Tree=20
num_leaves=31
num_cat=0
split_feature=1 0 6 7 7 1 8 1 8 1 1 8 6 0 0 1 1 7 2 0 5 8 3 0 0 2 7 0 1 0
split_gain=34.273 12.8962 12.3977 10.5778 15.0808 21.8823 10.4981 9.25437 11.6477 7.73101 7.1283 6.32499 2.98847 3.37475 8.57846 6.16527 4.68124 3.15571 2.75631 3.14681 3.69499 2.56065 2.55584 3.01687 5.10384 2.92259 2.78251 2.05469 3.53963 1.86736
threshold=26.500000000000004 169.25000000000003 2.5000000000000004 0.28608247422680416 0.42525773195876293 59.500000000000007 0.038659793814432998 79.500000000000014 0.13144329896907217 -29.499999999999996 56.500000000000007 0.6778350515463919 1.0000000180025095e-35 47.750000000000007 50.250000000000007 15.500000000000002 25.500000000000004 0.98195876288659811 9.6050000000000004 37.250000000000007 1.5000000000000002 0.90463917525773208 1.5000000000000002 80.750000000000014 79.250000000000014 185.83500000000004 0.53350515463917536 84.250000000000014 -55.499999999999993 85.250000000000014
decision_type=2 2 2 2 2 2 2 2 2 2 2 2 2 2 2 2 2 2 2 2 2 2 2 2 2 2 2 2 2 2
left_child=9 2 6 10 -5 -6 -2 11 -9 22 -4 -8 13 17 15 -15 -16 21 19 20 -14 -11 23 24 25 -1 -26 28 -25 -29
right_child=1 -3 3 4 5 -7 7 8 -10 12 -12 -13 18 14 16 -17 -18 -19 -20 -21 -22 -23 -24 27 26 -27 -28 29 -30 -31
leaf_value=-0.0053981383787090652 -0.029814416537933715 0.065274412490618536 0.04195267522618884 0.1212116176262498 -0.013839935336490068 0.082744334557274771 0.00034085719964020592 0.063700271523272498 0.013397877313101689 -0.004559488439716361 -0.03302749723661691 0.01010834134932403 0.0085275015563603083 0.014796916910195615 -0.00029211280282176883 0.071141935288906097 -0.030516885400104984 0.026583143750265721 0.030070819310480501 -0.025834665809358871 -0.0084848324246875988 -0.01890554916766931 -0.025340888308627265 -0.034481197396914166 0.00043092493353218868 0.0092586399138379263 0.041561526020890791 0.017530485189386779 0.0036656625568866731 -0.0084954799008709284
leaf_weight=1826 79 39 21 24 49 45 1644 49 760 1740 32 1111 589 87 3520 25 52 31 41 35 163 134 70 75 29 147 38 28 36 1789
leaf_count=1826 79 39 21 24 49 45 1644 49 760 1740 32 1111 589 87 3520 25 52 31 41 35 163 134 70 75 29 147 38 28 36 1789
internal_value=0 0.00806212 0.0074771 0.0337927 0.0504612 0.0323972 0.00624186 0.00704109 0.0164446 -0.00297115 -0.00331837 0.00427976 -0.000814033 -0.00164466 0.000122358 0.0273739 -0.000732115 -0.00506182 0.00479271 0.0034758 0.00483999 -0.0055853 -0.00639913 -0.00606498 -0.00338439 -0.00430612 0.0237587 -0.00890129 -0.0221092 -0.00809442
internal_weight=0 3853 3814 171 118 94 3643 3564 809 10455 53 2755 6417 5589 3684 112 3572 1905 828 787 752 1874 4038 3968 2040 1973 67 1928 111 1817
internal_count=14308 3853 3814 171 118 94 3643 3564 809 10455 53 2755 6417 5589 3684 112 3572 1905 828 787 752 1874 4038 3968 2040 1973 67 1928 111 1817
is_linear=0
shrinkage=0.1


Tree=21
num_leaves=31
num_cat=0
split_feature=1 0 1 8 8 1 0 8 2 7 7 0 0 8 8 8 7 0 0 6 7 7 7 0 7 7 1 1 0 8
split_gain=28.1013 11.3166 10.1641 9.23369 21.3675 38.5329 14.3181 13.3747 13.503 12.4991 6.73572 21.6588 6.6023 6.50701 12.0381 10.7048 8.98708 8.48828 5.38643 4.88337 4.54425 10.3866 4.15371 4.13973 4.02109 6.83227 3.10773 2.86328 2.47034 3.9735
threshold=54.500000000000007 160.25000000000003 -12.499999999999998 0.40463917525773202 0.45618556701030932 91.500000000000014 143.75000000000003 0.35824742268041243 -416.35999999999996 0.89432989690721665 0.018041237113402064 160.25000000000003 120.75000000000001 0.5128865979381444 0.46649484536082481 0.52835051546391765 0.17268041237113405 122.75000000000001 72.750000000000014 1.0000000180025095e-35 0.35309278350515466 0.60567010309278357 0.64175257731958768 108.75000000000001 0.18298969072164953 0.51804123711340211 18.500000000000004 -116.49999999999999 41.750000000000007 0.10567010309278352
decision_type=2 2 2 2 2 2 2 2 2 2 2 2 2 2 2 2 2 2 2 2 2 2 2 2 2 2 2 2 2 2
left_child=2 3 19 7 5 23 12 8 -2 -10 11 18 -6 14 22 26 -17 -16 -4 27 -21 -22 -12 -5 -9 -26 -15 -1 29 -29
right_child=1 -3 10 4 6 -7 -8 24 9 -11 13 -13 -14 15 17 16 -18 -19 -20 20 21 -23 -24 -25 25 -27 -28 28 -30 -31
leaf_value=-0.015733934655363262 0.084852265389192674 0.078171225771307959 0.023941093988997755 0.006220755685459484 0.012142049572757854 0.15448387950037917 0.071828975802973691 -0.076945991115644582 -0.0015924504208010633 0.048541388289833613 0.0047707491986952663 0.11972631219541655 -0.013049438655471955 -0.024114746611033168 0.015309866781482865 -0.015220989253190443 0.00033378229798017859 0.060475388864520946 -0.027523070342387213 -0.0082158434804592093 0.066162289329804488 -0.0029964860908839167 -0.0029670905241439721 0.057546876811168414 0.018712678958069197 -0.052807049409431574 -0.069269310186306637 0.010147507876308278 -0.003668361348839605 -0.010852950772348637
leaf_weight=247 21 25 53 55 939 30 38 20 519 55 1802 20 117 35 248 431 2688 50 33 59 39 49 1128 22 22 34 27 99 4401 1002
leaf_count=247 21 25 53 55 939 30 38 20 519 55 1802 20 117 35 248 431 2688 50 33 59 39 49 1128 22 22 34 27 99 4401 1002
internal_value=0 0.0113356 -0.00173262 0.010443 0.0156926 0.0583429 0.0115211 0.00104696 0.00609276 0.00321131 0.000989784 0.0259919 0.00935095 0.000576268 0.00373935 -0.00263355 -0.00181566 0.022888 0.00419322 -0.00474085 0.0132569 0.0276534 0.00179181 0.0208854 -0.0384563 -0.02471 -0.0437788 -0.00520104 -0.00472819 -0.00896463
internal_weight=0 1897 12411 1872 1201 107 1094 671 595 574 6515 106 1056 6409 3228 3181 3119 298 86 5896 147 88 2930 77 76 56 62 5749 5502 1101
internal_count=14308 1897 12411 1872 1201 107 1094 671 595 574 6515 106 1056 6409 3228 3181 3119 298 86 5896 147 88 2930 77 76 56 62 5749 5502 1101
is_linear=0
shrinkage=0.1


Tree=22
num_leaves=31
num_cat=0
split_feature=1 0 1 7 7 7 0 0 6 1 0 1 8 2 1 7 8 8 0 8 8 0 8 0 1 8 8 7 0 0
split_gain=23.3237 18.0221 11.9456 11.0192 13.5914 13.0804 14.912 10.4192 10.2315 9.57481 40.1065 7.13645 13.6663 11.2208 3.39349 3.49784 4.75531 3.40908 4.93729 3.56217 3.13701 3.04437 7.23788 6.78589 1.70832 1.78578 3.53285 4.44028 1.8436 3.84259
threshold=8.5000000000000018 179.75000000000003 70.500000000000014 0.80670103092783518 0.8118556701030929 0.69845360824742275 78.750000000000014 154.25000000000003 1.0000000180025095e-35 71.500000000000014 83.250000000000014 146.50000000000003 0.64175257731958768 -132.20500000000001 -41.499999999999993 0.012886597938144331 0.57474226804123718 0.95618556701030943 154.25000000000003 0.98711340206185583 0.19845360824742272 89.750000000000014 0.85824742268041254 46.750000000000007 -137.49999999999997 0.43556701030927841 0.34278350515463923 0.40463917525773202 134.25000000000003 126.25000000000001
decision_type=2 2 2 2 2 2 2 2 2 2 2 2 2 2 2 2 2 2 2 2 2 2 2 2 2 2 2 2 2 2
left_child=14 2 3 5 -5 8 -7 -6 -2 10 -4 13 -13 -11 24 16 20 21 19 -19 -16 23 -23 -17 -1 26 -26 -28 29 -27
right_child=1 -3 9 4 7 6 -8 -9 -10 11 -12 12 -14 -15 15 17 -18 18 -20 -21 -22 22 -24 -25 25 28 27 -29 -30 -31
leaf_value=-0.018462688872747334 -0.00027671139476103789 0.073521632995260391 -0.03033864912779435 0.072019865446620521 0.0070963037904397015 -0.0050487965163167406 -0.044226750344475457 0.059932181812249699 0.016162929870929061 -0.018688578552520665 0.1632868528366089 0.097435842216428786 -0.0031780213117599491 0.013504279718038255 -0.030475971944954085 -0.004063018913245715 -0.0590488318502903 0.012471695889180788 0.048553440400532319 -0.010938896490641092 0.022342919168824499 -0.0082045017805074949 0.01227399720406464 0.0049927573888112753 -0.0055003735749146205 -0.0076827257925617528 0.025570139984289805 -0.0018165070283619655 -0.017024497476063279 0.01684003801488165
leaf_weight=107 2712 38 23 36 868 368 132 39 440 122 20 27 27 962 23 2123 25 193 28 98 22 1445 196 1356 978 1380 90 173 190 67
leaf_count=107 2712 38 23 36 868 368 132 39 440 122 20 27 27 962 23 2123 25 193 28 98 22 1445 196 1356 978 1380 90 173 190 67
internal_value=0 0.00488009 0.0044285 0.00212296 0.01176 -0.000365455 -0.0153918 0.00936819 0.00201816 0.0133988 0.0597197 0.0116486 0.0471289 0.0098811 -0.00334034 -0.00186904 -0.0240803 -0.00158318 0.00844678 0.00458772 -0.0046534 -0.00220809 -0.00575856 -0.000533375 -0.00605573 -0.00559446 -0.00273353 0.00755535 -0.00776331 -0.00654726
internal_weight=0 5814 5776 4595 943 3652 500 907 3152 1181 43 1138 54 1084 8494 5509 70 5439 319 291 45 5120 1641 3479 2985 2878 1241 263 1637 1447
internal_count=14308 5814 5776 4595 943 3652 500 907 3152 1181 43 1138 54 1084 8494 5509 70 5439 319 291 45 5120 1641 3479 2985 2878 1241 263 1637 1447
is_linear=0
shrinkage=0.1


Tree=23
num_leaves=31
num_cat=0
split_feature=1 8 0 6 7 1 2 2 7 1 1 3 8 8 8 0 8 7 5 3 0 8 8 1 7 7 8 8 7 5
split_gain=19.5738 9.62267 10.5817 8.87834 9.13851 16.1026 7.93748 9.05837 8.08728 7.9011 4.2909 3.53606 4.00618 11.6355 12.2476 8.69118 5.41451 4.69474 3.95309 5.76889 5.69848 3.35745 1.55776 1.4045 1.49687 1.40976 1.35267 3.14681 3.38197 2.26056
threshold=26.500000000000004 0.038659793814432998 169.25000000000003 2.5000000000000004 0.36597938144329906 87.500000000000014 -445.55999999999989 -94.324999999999989 0.481958762886598 51.500000000000007 -41.499999999999993 1.0000000180025095e-35 0.9458762886597939 0.90463917525773208 0.86855670103092797 163.75000000000003 0.9149484536082475 0.4304123711340207 3.5000000000000004 1.5000000000000002 12.750000000000002 0.25515463917525777 0.33247422680412375 -128.49999999999997 0.46649484536082481 0.35309278350515466 0.43556701030927841 0.34278350515463923 0.40463917525773202 2.5000000000000004
decision_type=2 2 2 2 2 2 2 2 2 2 2 2 2 2 2 2 2 2 2 2 2 2 2 2 2 2 2 2 2 2
left_child=10 -2 3 6 9 -6 8 -8 -3 -5 23 12 13 14 -12 17 -15 -14 21 20 -20 -13 -23 24 25 -1 27 -25 -29 -28
right_child=1 2 -4 4 5 -7 7 -9 -10 -11 11 18 15 16 -16 -17 -18 -19 19 -21 -22 22 -24 26 -26 -27 29 28 -30 -31
leaf_value=-0.015742778259774912 -0.028010216085125269 0.088044318297634955 0.060040236828294957 0.051870792172849178 0.023269280330497202 0.11182531379163266 -0.011438206927179357 0.0062359380249855422 0.011266596253742191 -0.023416511285240235 -0.00099709529172202689 0.0033837862246270689 -0.0078092420221461609 -0.040682159990158888 0.021431851369515795 0.07268523413687944 -0.011722721784415163 0.012522565833092112 0.040707438643073184 -0.01443722764885262 -0.0090910965250805033 -0.044851922988891603 -0.019578174248931528 -0.0050650794342610838 -0.023767926969698497 0.011588884890079499 -0.0061247771812809847 0.023013125807046893 -0.00096007780117147122 -0.026576553125466619
leaf_weight=46 81 23 37 20 77 28 319 3188 34 46 5869 63 174 86 254 20 259 327 54 107 40 28 189 959 84 32 1548 90 170 56
leaf_count=46 81 23 37 20 77 28 319 3188 34 46 5869 63 174 86 254 20 259 327 54 107 40 28 189 959 84 32 1548 90 170 56
internal_value=0 0.00609271 0.00682504 0.00629788 0.0285561 0.0468842 0.00522993 0.00462828 0.0422471 -0.000602177 -0.00224536 -0.000964727 -0.000393953 -0.00107346 -6.66768e-05 0.0080418 -0.0189416 0.00546122 -0.00925816 0.00144166 0.0195166 -0.0169391 -0.0228393 -0.00545016 -0.0145051 -0.00452979 -0.00493053 -0.00241956 0.00733834 -0.0068388
internal_weight=0 3853 3772 3735 171 105 3564 3507 57 66 10455 7470 6989 6468 6123 521 345 501 481 201 94 280 217 2985 162 78 2823 1219 260 1604
internal_count=14308 3853 3772 3735 171 105 3564 3507 57 66 10455 7470 6989 6468 6123 521 345 501 481 201 94 280 217 2985 162 78 2823 1219 260 1604
is_linear=0
shrinkage=0.1


Tree=24
num_leaves=31
num_cat=0
split_feature=1 6 0 1 0 0 1 0 2 0 8 1 8 1 7 7 1 7 8 8 8 2 2 7 7 7 0 0 0 8
split_gain=16.5775 7.94612 8.69082 7.86241 32.6415 5.8386 5.40397 11.7801 8.77809 6.9285 16.5224 7.89151 6.77646 4.9882 5.69866 23.0206 15.4199 13.2287 8.08012 10.4373 6.84887 4.51312 4.36802 3.84892 14.1473 5.28587 2.30122 2.54816 2.91426 1.15072
threshold=70.500000000000014 1.0000000180025095e-35 47.750000000000007 71.500000000000014 83.250000000000014 52.250000000000007 146.50000000000003 100.25000000000001 -132.20500000000001 100.75000000000001 0.481958762886598 115.50000000000001 0.30670103092783513 -12.499999999999998 0.80670103092783518 0.83247422680412386 46.500000000000007 0.847938144329897 0.19329896907216496 0.50773195876288668 0.11597938144329899 -373.43999999999994 -508.44999999999987 0.64175257731958768 0.46649484536082481 0.86855670103092797 187.25000000000003 174.75000000000003 167.25000000000003 0.14175257731958765
decision_type=2 2 2 2 2 2 2 2 2 2 2 2 2 2 2 2 2 2 2 2 2 2 2 2 2 2 2 2 2 2
left_child=1 13 21 4 -2 -4 8 -8 12 11 -11 -10 -5 26 18 16 -16 -17 20 -20 -15 -3 -14 24 -23 -25 27 28 -1 -29
right_child=3 2 5 6 -6 -7 7 -9 9 10 -12 -13 22 14 15 17 -18 -19 19 -21 -22 23 -24 25 -26 -27 -28 29 -30 -31
leaf_value=-0.0040759219028449886 -0.027922805625459426 0.04405497546706881 0.077465003872146984 0.020112408479409559 0.14675598457455635 0.019609679562865565 0.092856351689745986 -0.0011386530846357347 0.0014919388677373893 0.053666758603699828 0.0027536979636301165 0.029647826959844682 0.0053838183374508575 -0.0033832478492618785 0.028016868908711856 -0.03684146258980036 0.11232483983039857 0.0042118534842870209 0.0060696577284860805 -0.0040173766300276885 -0.024543760677215688 0.0026665491678369078 -0.045426071225665512 -0.0096755477830480566 0.045643604373220695 0.014780982200182598 0.029106079068567072 -0.0336979691311717 0.015146947531029582 -0.0099985498580194652
leaf_weight=5566 23 28 26 35 20 53 24 30 584 115 143 120 23 380 131 85 26 1025 1760 2459 256 591 64 352 88 118 21 40 80 42
leaf_count=5566 23 28 26 35 20 53 24 30 584 115 143 120 23 380 131 85 26 1025 1760 2459 256 591 64 352 88 118 21 40 80 42
internal_value=0 -0.00102097 0.00654289 0.0113482 0.0533231 0.0386507 0.00976219 0.0406369 0.00822415 0.0114288 0.0254475 0.00629124 -0.0170451 -0.00182126 0.000165193 0.00613755 0.0419787 0.00106813 -0.0013934 0.000190535 -0.0119007 0.00438783 -0.0319936 0.00342118 0.00823648 -0.0035354 -0.00393659 -0.00405773 -0.00380355 -0.0215592
internal_weight=0 13127 1256 1181 43 79 1138 54 1084 962 258 704 122 11871 6122 1267 157 1110 4855 4219 636 1177 87 1149 679 470 5749 5728 5646 82
internal_count=14308 13127 1256 1181 43 79 1138 54 1084 962 258 704 122 11871 6122 1267 157 1110 4855 4219 636 1177 87 1149 679 470 5749 5728 5646 82
is_linear=0
shrinkage=0.1


Tree=25
num_leaves=31
num_cat=0
split_feature=1 6 0 1 0 0 0 7 7 8 1 8 0 1 7 0 0 7 7 8 2 7 7 7 1 1 0 0 0 8
split_gain=13.4278 6.43636 7.03957 6.36855 26.4396 5.60272 27.8843 7.21928 6.50673 6.1745 7.19181 5.26885 4.93381 4.04044 5.30967 16.6453 7.24069 5.351 18.6467 4.97953 3.74618 3.98899 11.1982 4.0586 3.21284 2.30076 1.86399 2.06401 2.36055 0.932086
threshold=70.500000000000014 1.0000000180025095e-35 47.750000000000007 71.500000000000014 83.250000000000014 127.25000000000001 124.75000000000001 0.29639175257731964 0.68814432989690733 0.99226804123711354 110.50000000000001 0.22938144329896912 55.750000000000007 -12.499999999999998 0.018041237113402064 160.25000000000003 59.250000000000007 0.80670103092783518 0.83247422680412386 0.19845360824742272 -294.48499999999996 0.64175257731958768 0.46649484536082481 0.86855670103092797 87.500000000000014 91.500000000000014 187.25000000000003 174.75000000000003 167.25000000000003 0.14175257731958765
decision_type=2 2 2 2 2 2 2 2 2 2 2 2 2 2 2 2 2 2 2 2 2 2 2 2 2 2 2 2 2 2
left_child=1 13 20 4 -2 6 9 25 -9 10 -5 -4 -13 26 15 16 -15 19 -19 -16 -3 22 -22 -23 -11 -7 27 28 -1 -29
right_child=3 2 11 5 -6 7 -8 8 -10 24 -12 12 -14 14 17 -17 -18 18 -20 -21 21 23 -24 -25 -26 -27 -28 29 -30 -31
leaf_value=-0.0036683297610332691 -0.025130525231361389 0.034424133192843355 -0.0055115635628285621 0.005308714024795845 0.13208038806915284 -0.0025479918390157678 0.12800375100225211 -0.06181290312443808 -0.00033801157366145741 -0.0003376164606639317 0.025012957208184528 0.078968915541966764 0.019452357807984721 0.040860817626570213 -0.0096914614661645134 0.10444016382098198 -0.017998711338364764 0.037780829189214743 0.00096131807774187887 -0.00046294593051508386 0.0028219766760385618 -0.0096306570412205729 0.04107924410226671 0.011968093065962453 -0.055021262321282516 0.044843812356702983 0.026195471040305812 -0.030328172259032726 0.013632254854310306 -0.0089986944659834808
leaf_weight=5566 23 39 23 715 20 21 20 36 33 21 250 30 26 33 683 20 57 157 1110 4062 586 348 88 116 22 20 21 40 80 42
leaf_count=5566 23 39 23 715 20 21 20 36 33 21 250 30 26 33 683 20 57 157 1110 4062 586 348 88 116 22 20 21 40 80 42
internal_value=0 -0.000918873 0.0058886 0.0102134 0.0479908 0.00878597 0.0110812 -0.0126641 -0.0324119 0.00876132 0.0104134 0.0347856 0.0513362 -0.00163913 0.000148674 0.0219208 0.00358312 -0.000249684 0.0055238 -0.00179131 0.00394904 0.00290464 0.00781699 -0.00423097 -0.0283153 0.02057 -0.00354293 -0.00365196 -0.00342319 -0.0194033
internal_weight=0 13127 1256 1181 43 1138 1028 110 69 1008 965 79 56 11871 6122 110 90 6012 1267 4745 1177 1138 674 464 43 41 5749 5728 5646 82
internal_count=14308 13127 1256 1181 43 1138 1028 110 69 1008 965 79 56 11871 6122 110 90 6012 1267 4745 1177 1138 674 464 43 41 5749 5728 5646 82
is_linear=0
shrinkage=0.1


Tree=26
num_leaves=31
num_cat=0
split_feature=1 0 8 8 0 8 8 8 6 1 7 7 7 7 8 0 2 8 7 7 8 7 0 1 7 0 0 0 0 3
split_gain=10.9828 11.8887 6.69245 7.48584 18.5623 7.35421 14.2412 10.1582 4.02789 4.82658 2.92043 10.1477 14.3327 4.87841 4.17776 3.45626 2.74815 6.64211 7.46599 4.50006 4.18253 4.07374 3.50856 3.3718 13.1544 13.7495 4.70063 2.6947 2.58291 2.31132
threshold=38.500000000000007 168.25000000000003 0.038659793814432998 0.059278350515463922 66.750000000000014 0.39948453608247431 0.51804123711340211 0.33247422680412375 1.0000000180025095e-35 -36.499999999999993 0.35309278350515466 0.53350515463917536 0.46649484536082481 0.27577319587628873 0.33247422680412375 6.7500000000000009 -56.840000000000011 0.40979381443298973 0.27577319587628873 0.72422680412371143 0.25000000000000006 0.88917525773195882 92.750000000000014 16.500000000000004 0.04896907216494846 83.250000000000014 174.75000000000003 32.750000000000007 40.750000000000007 1.5000000000000002
decision_type=2 2 2 2 2 2 2 2 2 2 2 2 2 2 2 2 2 2 2 2 2 2 2 2 2 2 2 2 2 2
left_child=8 2 -2 4 28 7 -7 -5 16 -10 13 12 -12 27 -13 -15 17 18 -1 22 -20 -21 -19 29 25 -25 -26 -11 -4 -18
right_child=1 -3 3 5 -6 6 -8 -9 9 10 11 14 -14 15 -16 -17 23 19 20 21 -22 -23 -24 24 26 -27 -28 -29 -30 -31
leaf_value=0.050966350681015432 -0.026518412385220555 0.078749115951359278 0.025442354256908103 0.0037923203926056442 0.10935285165905953 0.025513585841461284 0.0039075813285368551 -0.020438151251762474 0.050973164222457193 0.0086065177225225463 0.015050816520682124 -0.013027178981870996 0.092202604363362001 0.014487906788354335 0.0072443875422695094 -0.028760311450125611 -0.0022864112371927935 -0.022337519353817378 -0.028325628854023916 0.025305144530203605 0.014885488336481754 -0.034240327915176748 -0.059650846565186627 0.013998778007532421 0.0014330623366570292 0.11643422003835441 -0.047378141954541209 -0.019904531939671594 -0.02048559057712555 -0.016378802010568523
leaf_weight=28 66 22 24 656 24 387 1441 235 22 221 122 153 30 23 303 94 8496 63 48 27 42 20 42 38 1459 20 20 39 25 118
leaf_count=28 66 22 24 656 24 387 1441 235 22 221 122 153 30 23 303 94 8496 63 48 27 42 20 42 38 1459 20 20 39 25 118
internal_value=0 0.00551895 0.00495525 0.00569926 0.0373006 0.00485082 0.00848172 -0.00259843 -0.00139085 0.00464855 0.00361389 0.00790159 0.0302781 -0.00330102 0.000442744 -0.0202585 -0.00197444 -0.0119317 0.00586965 -0.0257511 -0.00816044 -3.33544e-05 -0.0372629 -0.0017096 0.00260502 0.0493213 0.000773005 0.00432986 0.00200973 -0.00247946
internal_weight=0 2880 2858 2792 73 2719 1828 891 11428 1007 985 608 152 377 456 117 10421 270 118 152 90 47 105 10151 1537 58 1479 260 49 8614
internal_count=14308 2880 2858 2792 73 2719 1828 891 11428 1007 985 608 152 377 456 117 10421 270 118 152 90 47 105 10151 1537 58 1479 260 49 8614
is_linear=0
shrinkage=0.1


end of trees

feature_importances:
average_rank=206
rank_difference=198
away_team_encoded_norm=162
home_team_encoded_norm=142
number_of_topFour_away=47
point_difference=33
number_of_champ_home=10
number_of_topFour_home=7
number_of_champ_away=5

parameters:
[boosting: gbdt]
[objective: regression]
[metric: rmse]
[tree_learner: serial]
[device_type: cpu]
[data: ]
[valid: ]
[num_iterations: 200]
[learning_rate: 0.1]
[num_leaves: 31]
[num_threads: 8]
[deterministic: 0]
[force_col_wise: 0]
[force_row_wise: 0]
[histogram_pool_size: -1]
[max_depth: 6]
[min_data_in_leaf: 20]
[min_sum_hessian_in_leaf: 0.001]
[bagging_fraction: 1]
[pos_bagging_fraction: 1]
[neg_bagging_fraction: 1]
[bagging_freq: 0]
[bagging_seed: 3]
[feature_fraction: 1]
[feature_fraction_bynode: 1]
[feature_fraction_seed: 2]
[extra_trees: 0]
[extra_seed: 6]
[early_stopping_round: 50]
[first_metric_only: 0]
[max_delta_step: 0]
[lambda_l1: 0]
[lambda_l2: 0]
[linear_lambda: 0]
[min_gain_to_split: 0]
[drop_rate: 0.1]
[max_drop: 50]
[skip_drop: 0.5]
[xgboost_dart_mode: 0]
[uniform_drop: 0]
[drop_seed: 4]
[top_rate: 0.2]
[other_rate: 0.1]
[min_data_per_group: 100]
[max_cat_threshold: 32]
[cat_l2: 10]
[cat_smooth: 10]
[max_cat_to_onehot: 4]
[top_k: 20]
[monotone_constraints: ]
[monotone_constraints_method: basic]
[monotone_penalty: 0]
[feature_contri: ]
[forcedsplits_filename: ]
[refit_decay_rate: 0.9]
[cegb_tradeoff: 1]
[cegb_penalty_split: 0]
[cegb_penalty_feature_lazy: ]
[cegb_penalty_feature_coupled: ]
[path_smooth: 0]
[interaction_constraints: ]
[verbosity: 0]
[saved_feature_importance_type: 0]
[linear_tree: 0]
[max_bin: 255]
[max_bin_by_feature: ]
[min_data_in_bin: 3]
[bin_construct_sample_cnt: 200000]
[data_random_seed: 1]
[is_enable_sparse: 1]
[enable_bundle: 1]
[use_missing: 1]
[zero_as_missing: 0]
[feature_pre_filter: 1]
[pre_partition: 0]
[two_round: 0]
[header: 0]
[label_column: ]
[weight_column: ]
[group_column: ]
[ignore_column: ]
[categorical_feature: ]
[forcedbins_filename: ]
[precise_float_parser: 0]
[objective_seed: 5]
[num_class: 1]
[is_unbalance: 0]
[scale_pos_weight: 1]
[sigmoid: 1]
[boost_from_average: 1]
[reg_sqrt: 0]
[alpha: 0.9]
[fair_c: 1]
[poisson_max_delta_step: 0.7]
[tweedie_variance_power: 1.5]
[lambdarank_truncation_level: 30]
[lambdarank_norm: 1]
[label_gain: ]
[eval_at: ]
[multi_error_top_k: 1]
[auc_mu_weights: ]
[num_machines: 1]
[local_listen_port: 12400]
[time_out: 120]
[machine_list_filename: ]
[machines: ]
[gpu_platform_id: -1]
[gpu_device_id: -1]
[gpu_use_dp: 0]
[num_gpu: 1]

end of parameters

pandas_categorical:[]
