tree
version=v3
num_class=1
num_tree_per_iteration=1
label_index=0
max_feature_idx=16
objective=regression
feature_names=average_rank rank_difference point_difference number_of_champ_home number_of_champ_away number_of_topFour_home number_of_topFour_away home_team_encoded_norm away_team_encoded_norm home_team_goalkeeper_score away_team_goalkeeper_score home_team_mean_defense_score home_team_mean_offense_score home_team_mean_midfield_score away_team_mean_defense_score away_team_mean_offense_score away_team_mean_midfield_score
feature_infos=[1.5:204] [-202:203] [-1158.28:1236.6099999999999] [0:2] [0:2] [0:4] [0:4] [0:1] [0:1] [48:96.200000000000003] [48:95.857142857142861] [50:91.200000000000003] [50:92.333333333333329] [50:91.333333333333329] [50:90.857142857142861] [50:92.222222222222229] [50:90.444444444444443]
tree_sizes=2660 2792 2788 2763 2801 2817 2829 2790 2823 2789 2814 2804 2816 2826 2838 2812 2812 2836 2831 2828 2804 2794 2827 2836 2821 2113 2834 2832 2840 2823 2480

Tree=0
num_leaves=31
num_cat=0
split_feature=1 1 0 1 1 7 0 13 15 1 16 16 9 8 10 8 1 16 12 12 10 12 6 12 1 12 16 13 8 16
split_gain=1927.18 545.876 336.028 287.577 124.587 110.815 98.9118 91.9427 107.408 68.0608 49.5938 49.2165 45.6876 42.8448 65.2792 41.6752 39.325 38.9663 35.9916 32.5252 32.446 32.406 20.5283 29.672 19.8884 19.765 18.361 31.5107 18.2966 17.7865
threshold=12.500000000000002 92.500000000000014 168.25000000000003 -26.499999999999996 53.500000000000007 0.14175257731958765 143.75000000000003 61.125000000000007 82.171428571428592 -75.499999999999986 86.225000000000009 84.071428571428584 55.100000000000009 0.77577319587628879 61.900000000000006 0.47164948453608252 36.500000000000007 80.366666666666688 67.267857142857153 71.083333333333357 73.954545454545467 60.63333333333334 3.5000000000000004 62.250000000000007 131.00000000000003 84.062500000000014 68.590277777777786 75.916666666666671 0.87371134020618568 68.90000000000002
decision_type=2 2 2 2 2 2 2 2 2 2 2 2 2 2 2 2 2 2 2 2 2 2 2 2 2 2 2 2 2 2
left_child=3 2 4 9 11 -4 10 8 13 -1 -6 18 -10 14 -3 -8 -7 21 -2 -13 -9 28 23 -22 -15 -19 -23 -28 -5 -11
right_child=1 7 5 17 6 16 15 20 12 29 -12 19 -14 24 -16 -17 -18 25 -20 -21 22 26 -24 -25 -26 -27 27 -29 -30 -31
leaf_value=1.0046081464010648 1.1017904462819192 1.4112499082561785 1.4930680919031392 1.0672080750477251 1.121279231219299 1.1907953603788917 1.1528921335888895 1.0935731382150431 1.4885226369174229 1.0279209646600114 1.2387683310516335 1.2398694329522364 1.2927184387920847 1.146042273267855 1.2290386033154375 1.3035731394926797 1.3557953617314586 1.1080434224023927 1.0800309845595457 1.1243610971500604 1.2234224793172914 1.0424122761564854 1.2753191713546093 1.1304295065064829 1.2465645912627468 1.0657953605839157 1.0735783792554672 1.048064864187316 1.0997666525893419 1.0434189513884538
leaf_weight=1095 1628 22 22 991 1240 52 31 54 22 2070 37 27 26 81 185 45 20 258 1426 251 59 1005 21 82 26 194 848 1128 209 1153
leaf_count=1095 1628 22 22 991 1240 52 31 54 22 2070 37 27 26 81 185 45 20 258 1426 251 59 1005 21 82 26 194 848 1128 209 1153
internal_value=1.07311 1.12055 1.10944 1.04471 1.10569 1.29665 1.13128 1.21234 1.24314 1.02615 1.12468 1.0953 1.38246 1.22185 1.2484 1.24211 1.23663 1.06202 1.09163 1.13558 1.1607 1.059 1.18308 1.16934 1.17047 1.08991 1.05342 1.05901 1.07288 1.03347
internal_weight=0 5357 4779 8951 4685 94 1353 578 362 4318 1277 3332 48 314 207 76 72 4633 3054 278 216 4181 162 141 107 452 2981 1976 1200 3223
internal_count=14308 5357 4779 8951 4685 94 1353 578 362 4318 1277 3332 48 314 207 76 72 4633 3054 278 216 4181 162 141 107 452 2981 1976 1200 3223
is_linear=0
shrinkage=1


Tree=1
num_leaves=31
num_cat=0
split_feature=1 1 0 1 1 0 7 1 10 1 9 8 12 16 8 1 15 15 10 12 13 12 8 16 12 4 16 11 16 13
split_gain=1561.01 442.159 272.182 233.683 106.882 107.689 89.7598 80.2254 63.8669 56.5459 53.3942 50.1958 42.619 40.2774 32.3235 31.8533 31.6591 33.0312 30.0933 26.0291 25.4631 25.2612 24.6297 23.9963 20.1546 17.3866 13.9372 20.0604 13.0686 19.2088
threshold=12.500000000000002 92.500000000000014 168.25000000000003 -25.499999999999996 35.500000000000007 132.75000000000003 0.14175257731958765 132.50000000000003 74.90000000000002 -75.499999999999986 52.500000000000007 0.87371134020618568 60.062500000000007 76.366666666666688 0.66752577319587636 36.500000000000007 82.171428571428592 65.857142857142875 80.100000000000009 60.63333333333334 80.708333333333357 70.550000000000011 0.72422680412371143 80.928571428571445 74.062500000000014 1.0000000180025095e-35 68.90000000000002 77.171428571428592 68.590277777777786 74.291666666666671
decision_type=2 2 2 2 2 2 2 2 2 2 2 2 2 2 2 2 2 2 2 2 2 2 2 2 2 2 2 2 2 2
left_child=3 2 4 9 13 8 -4 12 -6 -1 14 -7 16 21 -9 -8 17 -3 19 -5 -20 -2 25 -12 -15 -14 -11 -28 -21 -30
right_child=1 7 6 18 5 11 15 10 -10 26 23 -13 22 24 -16 -17 -18 -19 20 28 -22 -23 -24 -25 -26 -27 27 -29 29 -31
leaf_value=-0.061648029839858148 0.010753658138727314 0.19949982755067874 0.37796591845425698 -0.00041375806334160146 0.023599448855993209 0.087468850775883455 0.10592046448817621 0.31842240346105477 0.05791562468014181 -0.040308202187231974 0.062397766370197831 0.21019977814540633 0.064448156726511219 0.051352214891039118 0.17682330682873726 0.25442046463489532 0.22321342845116893 0.10225773233352072 0.033069181732886227 -0.027492256784895936 -0.0078808354955494948 -0.020577951143690928 -0.0016045138932937802 0.19470010015826961 0.017886253667362569 0.15740154644957297 -0.01481701126611381 -0.040796030706901486 0.00060340382055752836 -0.020975757594721568
leaf_weight=1095 1121 41 22 1180 1386 178 52 38 891 2120 29 41 79 316 28 20 31 236 282 972 329 334 43 26 418 27 644 552 651 1126
leaf_count=1095 1121 41 22 1180 1386 178 52 38 891 2120 29 41 79 316 28 20 31 236 282 972 329 334 43 26 418 27 644 552 651 1126
internal_value=0 0.0426962 0.0327048 -0.0255528 0.0293244 0.0434693 0.201186 0.125306 0.0370275 -0.041945 0.197709 0.110446 0.106136 0.0131958 0.25835 0.14717 0.127376 0.116651 -0.00962641 -0.012837 0.0110192 0.00356138 0.0622299 0.124941 0.0322939 0.088125 -0.0354388 -0.0268073 -0.0181696 -0.0130703
internal_weight=0 5357 4779 8951 4685 2496 94 578 2277 4411 121 219 457 2189 66 72 308 277 4540 3929 611 1455 149 55 734 106 3316 1196 2749 1777
internal_count=14308 5357 4779 8951 4685 2496 94 578 2277 4411 121 219 457 2189 66 72 308 277 4540 3929 611 1455 149 55 734 106 3316 1196 2749 1777
is_linear=0
shrinkage=0.1


Tree=2
num_leaves=31
num_cat=0
split_feature=1 1 0 1 1 7 13 10 1 13 15 10 12 1 0 16 12 1 15 13 10 7 0 12 10 0 12 16 9 15
split_gain=1264.42 361.58 219.51 190.64 116.494 80.9634 67.2803 62.4086 56.2471 51.2308 59.1506 46.164 42.4485 42.3556 37.9173 29.9038 28.5073 24.4238 23.0863 21.8934 27.2545 20.2173 16.4605 20.9059 15.9732 16.7906 14.6449 14.285 22.7286 13.633
threshold=12.500000000000002 104.50000000000001 161.25000000000003 -29.499999999999996 53.500000000000007 0.069587628865979398 60.833333333333336 75.928571428571445 40.500000000000007 52.666666666666679 81.309523809523824 74.70714285714287 67.267857142857153 -96.499999999999986 119.25000000000001 80.928571428571445 73.126984126984141 146.50000000000003 67.857142857142875 74.291666666666671 79.535714285714292 0.57474226804123718 100.25000000000001 62.250000000000007 68.583333333333357 54.250000000000007 84.923076923076934 77.071428571428584 82.732142857142875 69.928571428571445
decision_type=2 2 2 2 2 2 2 2 2 2 2 2 2 2 2 2 2 2 2 2 2 2 2 2 2 2 2 2 2 2
left_child=3 2 4 13 11 -4 14 -8 -7 10 17 12 -2 -1 -6 19 -13 18 -3 20 -5 -12 23 -11 -15 -26 -17 -21 -29 -27
right_child=1 9 5 15 6 8 7 -9 -10 22 21 16 -14 24 -16 26 -18 -19 -20 27 -22 -23 -24 -25 25 29 -28 28 -30 -31
leaf_value=-0.065245734336933398 0.01760207319393305 0.21233877999087178 0.33226759909164338 -0.008328289178276254 0.058311910027324568 0.0767983073492845 0.0024241898002936016 0.057101997733116153 0.2193165522068739 0.14050164272387822 0.20418400369011441 0.048761379647014859 -0.013228428237713301 -0.039406058618190722 0.1094849724267504 0.030626247479813174 0.01805956628793506 0.2269083471252368 0.10565414787021302 -0.027856809553661706 0.064048968726452798 0.33610518688247321 0.0025668430328369143 0.057665853050805765 -0.034285749240648436 -0.021391411298429783 -0.0068459711714901721 0.0099901856880515467 -0.034543924915161048 0.018980731305072274
leaf_weight=537 1427 24 21 2836 505 90 398 439 40 63 26 571 650 2484 203 256 643 26 131 1109 53 21 20 59 645 245 176 296 187 127
leaf_count=537 1427 24 21 2836 505 90 398 439 40 63 26 571 650 2484 203 256 643 26 131 1109 53 21 20 59 645 245 176 296 187 127
internal_value=0 0.0384266 0.03135 -0.0229976 0.0276427 0.15008 0.0502949 0.0311023 0.12065 0.133807 0.163173 0.0170084 0.00795363 -0.0390952 0.0729844 -0.00976691 0.0325 0.137218 0.122173 -0.0121893 -0.0070005 0.263128 0.0866565 0.100442 -0.0350841 -0.0245277 0.0153598 -0.0216054 -0.0072518 -0.00760845
internal_weight=0 5357 4987 8951 4836 151 1545 837 130 370 228 3291 2077 4038 708 4913 1214 181 155 4481 2889 47 142 122 3501 1017 432 1592 483 372
internal_count=14308 5357 4987 8951 4836 151 1545 837 130 370 228 3291 2077 4038 708 4913 1214 181 155 4481 2889 47 142 122 3501 1017 432 1592 483 372
is_linear=0
shrinkage=0.1


Tree=3
num_leaves=31
num_cat=0
split_feature=1 1 0 1 7 1 0 1 16 8 1 9 12 6 0 10 15 8 10 13 12 8 16 16 0 10 12 16 11 7
split_gain=1027.74 278.178 218.921 179.945 82.7701 59.8454 72.7335 53.664 52.7353 40.8373 40.383 37.4966 28.9389 28.4296 27.4969 26.3894 38.9475 25.5778 24.6935 23.8611 23.6199 19.8648 18.3438 14.0774 14.0666 13.7834 13.4027 13.0259 16.5831 12.0072
threshold=16.500000000000004 92.500000000000014 168.25000000000003 -24.499999999999996 0.62628865979381454 35.500000000000007 132.75000000000003 132.50000000000003 86.225000000000009 0.87371134020618568 -75.499999999999986 52.500000000000007 60.062500000000007 2.5000000000000004 177.75000000000003 74.366666666666688 66.550000000000011 0.66752577319587636 79.690476190476204 58.928571428571438 76.477272727272734 0.72422680412371143 79.928571428571445 75.7638888888889 67.750000000000014 84.214285714285737 78.422222222222231 68.590277777777786 78.414285714285725 0.63659793814432997
decision_type=2 2 2 2 2 2 2 2 2 2 2 2 2 2 2 2 2 2 2 2 2 2 2 2 2 2 2 2 2 2
left_child=3 2 5 10 14 13 8 12 -7 -8 -1 17 15 23 -4 16 -3 -9 19 -5 25 24 -13 -2 -14 -20 -15 -21 -29 -17
right_child=1 7 4 18 -6 6 9 11 -10 -11 -12 22 21 26 -16 29 -18 -19 20 27 -22 -23 -24 -25 -26 -27 -28 28 -30 -31
leaf_value=-0.050417490687952739 0.0021084112268207329 0.16114820185634826 0.20360150524863491 0.0022414770740698505 0.049196146845817572 0.027442597561780819 0.069684558596169011 0.2657331295507519 0.1181548037763798 0.18038479511330768 -0.02836783384499519 0.034861776108543081 0.1067984080263253 0.1041429543907338 0.35239403701346855 0.12621567532854172 0.054204464522855628 0.13977300003170967 0.029790401921836442 -0.023401543575806094 0.001731979784668189 -0.0069250511568646105 0.15131163741311721 0.021503709939397951 0.033614935291310148 0.10205398968913977 0.016745451944214958 -0.0036475424171848732 -0.025423422701674692 0.2108876097202301
leaf_weight=1095 1120 45 27 1292 25 2211 178 38 66 41 3440 24 58 47 23 103 140 28 118 991 588 43 31 562 48 34 28 1375 469 20
leaf_count=1095 1120 45 27 1292 25 2211 178 38 66 41 3440 24 58 47 23 103 140 28 118 991 588 43 31 562 48 34 28 1375 469 20
internal_value=0 0.0371021 0.0284001 -0.01936 0.197763 0.0254135 0.035366 0.102262 0.0300719 0.0904093 -0.0336918 0.161478 0.0865827 0.011275 0.272046 0.104085 0.0802178 0.212295 -0.00600583 -0.00902203 0.0108156 0.050403 0.100497 0.00858889 0.0736587 0.0459546 0.0715146 -0.0141552 -0.00918598 0.139983
internal_weight=0 4906 4328 9402 75 4253 2496 578 2277 219 4535 121 457 1757 50 308 185 66 4867 4127 740 149 55 1682 106 152 75 2835 1844 123
internal_count=14308 4906 4328 9402 75 4253 2496 578 2277 219 4535 121 457 1757 50 308 185 66 4867 4127 740 149 55 1682 106 152 75 2835 1844 123
is_linear=0
shrinkage=0.1


Tree=4
num_leaves=31
num_cat=0
split_feature=1 1 0 1 1 8 13 10 13 6 10 12 1 0 9 1 13 1 16 15 13 9 1 0 1 10 0 10 12 0
split_gain=833.574 241.279 150.775 125.831 79.266 61.1194 50.227 48.3106 35.7841 46.4471 33.5483 33.3359 29.7828 26.1467 26.0785 36.0407 25.1943 23.8982 21.3598 18.9281 17.2955 16.9042 14.551 12.9572 15.3664 12.7104 12.3511 12.281 11.2847 9.62581
threshold=12.500000000000002 104.50000000000001 161.25000000000003 -29.499999999999996 53.500000000000007 0.88402061855670111 60.833333333333336 75.928571428571445 52.666666666666679 1.0000000180025095e-35 74.70714285714287 67.267857142857153 -96.499999999999986 118.25000000000001 51.857142857142868 24.500000000000004 64.833333333333357 146.50000000000003 80.928571428571445 67.857142857142875 83.950000000000017 63.95454545454546 -12.499999999999998 100.25000000000001 115.50000000000001 70.071428571428584 46.250000000000007 80.100000000000009 84.923076923076934 65.750000000000014
decision_type=2 2 2 2 2 2 2 2 2 2 2 2 2 2 2 2 2 2 2 2 2 2 2 2 2 2 2 2 2 2
left_child=3 2 4 12 10 14 13 -8 9 17 11 -2 -1 -6 15 -4 -12 19 20 -3 22 -11 -5 24 29 -14 -27 -24 -20 -10
right_child=1 8 5 18 6 -7 7 -9 23 21 16 -13 25 -15 -16 -17 -18 -19 28 -21 -22 -23 27 -25 -26 26 -28 -29 -30 -31
leaf_value=-0.053679411498971943 0.014406287417431855 0.17703701406717301 0.054524925655248219 -0.015460442014253306 0.048115133957363949 0.2739070802279141 -0.00078234359547121445 0.047324875438403434 0.078235130105167638 0.28093980567840243 0.063755735647864645 -0.012915272771165921 -0.031653341629693153 0.090130250332479789 -0.0022264244204217741 0.17147863807908276 0.021168441857711415 0.19743797613514796 0.02671321616799105 0.080379268614431995 -0.030528616035822784 0.16096851591668701 -0.0048463127447767708 -0.0048983309790492056 0.11409382984709385 -0.028410022791761622 -0.0033236399277116017 0.028343200834834173 -0.0061802817423912615 -0.0065776186792746846
leaf_weight=537 1427 24 49 1622 497 23 398 439 32 24 160 650 2706 211 22 57 1054 27 256 130 375 23 2367 20 67 442 353 117 176 23
leaf_count=537 1427 24 49 1622 497 23 398 439 32 24 160 650 2706 211 22 57 1054 27 256 130 375 23 2367 20 67 442 353 117 176 23
internal_value=0 0.0312002 0.0254195 -0.0186727 0.022347 0.12382 0.0410323 0.0244495 0.109115 0.133657 0.013575 0.00585597 -0.0317509 0.0606366 0.0968517 0.117415 0.0267813 0.110658 -0.00792373 0.0954428 -0.00997102 0.22223 -0.0080935 0.0697082 0.0819387 -0.0283874 -0.017271 -0.00328304 0.0133122 0.042768
internal_weight=0 5357 4987 8951 4836 151 1545 837 370 228 3291 2077 4038 708 128 106 1214 181 4913 154 4481 47 4106 142 122 3501 795 2484 432 55
internal_count=14308 5357 4987 8951 4836 151 1545 837 370 228 3291 2077 4038 708 128 106 1214 181 4913 154 4481 47 4106 142 122 3501 795 2484 432 55
is_linear=0
shrinkage=0.1


Tree=5
num_leaves=31
num_cat=0
split_feature=1 1 1 0 8 6 12 12 1 10 1 6 12 0 12 10 7 1 8 8 15 11 0 10 13 11 2 10 1 2
split_gain=679.779 160.963 158.853 128.685 63.9265 49.1849 46.0712 45.8514 40.6669 35.6008 32.2212 29.8989 40.0222 33.2261 24.0348 41.7385 26.1307 22.3395 21.4678 16.288 13.0844 21.5076 12.4903 10.9733 10.9491 10.7442 10.1706 9.82682 9.74243 8.92163
threshold=26.500000000000004 -21.499999999999996 104.50000000000001 161.25000000000003 0.85824742268041254 2.5000000000000004 66.733333333333348 60.062500000000007 62.500000000000007 74.90000000000002 -64.499999999999986 3.5000000000000004 62.250000000000007 127.25000000000001 62.250000000000007 74.366666666666688 0.033505154639175264 5.5000000000000009 0.77577319587628879 0.481958762886598 68.055555555555571 75.585714285714303 104.25000000000001 86.812500000000014 71.928571428571445 66.522727272727295 32.475000000000016 78.944444444444457 -116.49999999999999 22.515000000000075
decision_type=2 2 2 2 2 2 2 2 2 2 2 2 2 2 2 2 2 2 2 2 2 2 2 2 2 2 2 2 2 2
left_child=1 10 3 5 19 7 -7 8 -2 -9 28 12 13 18 16 22 -3 -17 -4 -5 -12 -22 24 -8 -16 -19 29 -23 -1 -18
right_child=2 14 11 4 -6 6 23 9 -10 -11 20 -13 -14 -15 15 17 26 25 -20 -21 21 27 -24 -25 -26 -27 -28 -29 -30 -31
leaf_value=-0.056394008198572744 0.023790657446145724 0.11621943732554263 0.1362347003159492 0.15016973629368074 0.30948177799582482 0.22489656701684002 0.088313855298540814 8.7097954674850142e-05 0.058877214365783519 0.027596086078792589 -0.026428262310893569 0.21712066717445852 0.01392672546207905 0.00045035945044623484 -0.0053154745153239317 -0.0052402763379027651 0.007154190558348511 0.057482167898366854 0.075364504304221452 0.045439777854416108 0.0013419185312451808 -0.029246417518766478 -0.045022051898987163 0.027529665717372188 -0.020940103502609234 0.013553793510159463 -0.033907663474480314 -0.0020602977817810804 -0.034842320949606161 0.07125340676443144
leaf_weight=248 834 22 182 33 20 20 66 951 547 931 1825 20 56 27 795 1044 1670 60 85 27 572 668 141 54 1029 773 60 166 1360 22
leaf_count=248 834 22 182 33 20 20 66 951 547 931 1825 20 56 27 795 1044 1670 60 85 27 572 668 141 54 1029 773 60 166 1360 22
internal_value=0 -0.0132322 0.0359052 0.0292872 0.154651 0.0263401 0.0843803 0.0238498 0.0376881 0.0136954 -0.0265993 0.0982032 0.0914079 0.106166 -0.00171451 -0.00615984 0.00791288 0.00450462 0.116857 0.103041 -0.0208427 -0.0135925 -0.0163467 0.060961 -0.01413 0.0167179 0.00655286 -0.0238353 -0.0381662 0.00798763
internal_weight=0 10455 3853 3483 80 3403 140 3263 1381 1882 4839 370 350 294 5616 3842 1774 1877 267 60 3231 1406 1965 120 1824 833 1752 834 1608 1692
internal_count=14308 10455 3853 3483 80 3403 140 3263 1381 1882 4839 370 350 294 5616 3842 1774 1877 267 60 3231 1406 1965 120 1824 833 1752 834 1608 1692
is_linear=0
shrinkage=0.1


Tree=6
num_leaves=31
num_cat=0
split_feature=1 0 1 1 0 10 8 13 1 13 15 12 9 8 1 15 10 12 16 12 16 11 0 15 15 12 9 10 8 8
split_gain=551.664 154.58 142.828 120.026 49.039 44.863 39.5693 33.3018 32.3359 30.5054 44.4191 28.2143 27.2554 24.1569 19.7591 15.9904 14.991 14.51 25.3371 13.942 12.455 12.81 12.0461 10.6603 10.4886 10.2895 9.8431 8.6396 12.1122 8.72878
threshold=23.500000000000004 176.25000000000003 92.500000000000014 -15.499999999999998 142.75000000000003 81.225000000000009 0.87371134020618568 60.458333333333336 -55.499999999999993 61.125000000000007 82.171428571428592 74.928571428571445 55.100000000000009 0.77577319587628879 48.500000000000007 88.100000000000009 73.954545454545467 67.071428571428584 76.366666666666688 84.923076923076934 80.928571428571445 84.464285714285737 87.250000000000014 65.145833333333357 68.055555555555571 71.708333333333357 72.366666666666688 51.846153846153854 0.074742268041237125 0.50773195876288668
decision_type=2 2 2 2 2 2 2 2 2 2 2 2 2 2 2 2 2 2 2 2 2 2 2 2 2 2 2 2 2 2
left_child=3 2 4 8 5 7 14 -2 23 10 13 -7 -12 -4 -6 17 -11 27 22 -20 21 24 -19 25 -10 -1 -18 28 -5 -29
right_child=1 -3 9 15 6 11 -8 -9 20 16 12 -13 -14 -15 -16 -17 26 18 19 -21 -22 -23 -24 -25 -26 -27 -28 29 -30 -31
leaf_value=-0.029086620071732655 0.026817215608432889 0.28378350920975209 0.099344912999206114 0.059570189981241133 0.019196003145471062 0.06529154477562113 0.16575155349714416 0.0049730885045812861 -0.020442403330460032 -1.7401934773833664e-05 0.26461040174419231 0.013709984333426864 0.11337657123804093 0.040824397521041264 0.087042461606589239 0.059352135776796128 0.070073127872507343 -0.011786858708347088 0.0096165013065504668 -0.015031179472594997 0.048706806251971886 -0.040280293679959035 -0.04188707848079503 -0.021449737857944171 -0.0088907857181673693 -0.045961399623655787 -0.0048583517968654637 0.021512559509447166 -0.003047819905438775 0.0010073354106301458
leaf_weight=766 1200 24 207 32 97 307 35 1668 1835 54 22 162 26 107 77 44 142 1308 1046 294 29 223 148 628 1375 684 20 504 891 353
leaf_count=766 1200 24 207 32 97 307 35 1668 1835 54 22 162 26 107 77 44 142 1308 1046 294 29 223 148 628 1375 684 20 504 891 353
internal_value=0 0.0307309 0.0292582 -0.0125464 0.0217447 0.0188017 0.0687349 0.0141129 -0.022472 0.0753531 0.093099 0.0474745 0.182692 0.0794032 0.04922 -0.000644319 0.0456124 -0.00122121 -0.00571416 0.00420873 -0.016553 -0.0171043 -0.0148465 -0.0323332 -0.0154943 -0.0370469 0.0608223 0.00583627 -0.000876881 0.0130664
internal_weight=0 4148 4124 10160 3546 3337 209 2868 5540 578 362 469 48 314 174 4620 216 4576 2796 1340 3462 3433 1456 2078 3210 1450 162 1780 923 857
internal_count=14308 4148 4124 10160 3546 3337 209 2868 5540 578 362 469 48 314 174 4620 216 4576 2796 1340 3462 3433 1456 2078 3210 1450 162 1780 923 857
is_linear=0
shrinkage=0.1


Tree=7
num_leaves=31
num_cat=0
split_feature=1 1 0 1 0 6 12 1 9 7 1 10 1 1 2 10 0 6 16 8 8 0 6 9 0 0 1 13 16 13
split_gain=449.363 123.622 116.561 79.1981 47.3474 44.4084 38.6051 34.2785 29.4793 26.7582 32.5012 25.6458 21.8385 15.8573 14.2133 13.2656 13.2071 13.1562 18.762 11.5904 10.8324 14.8574 10.4116 14.0267 9.80645 11.0779 9.77283 8.79286 14.4926 13.1247
threshold=16.500000000000004 104.50000000000001 177.75000000000003 -41.499999999999993 132.75000000000003 2.5000000000000004 66.733333333333348 40.500000000000007 51.857142857142868 0.37886597938144334 146.50000000000003 74.77500000000002 -5.4999999999999991 110.50000000000001 -31.58499999999999 68.100000000000009 161.25000000000003 1.0000000180025095e-35 84.414285714285725 0.77577319587628879 0.40979381443298973 86.250000000000014 3.5000000000000004 78.90000000000002 167.25000000000003 173.25000000000003 -96.499999999999986 86.214285714285737 77.071428571428584 75.916666666666671
decision_type=2 2 2 2 2 2 2 2 2 2 2 2 2 2 2 2 2 2 2 2 2 2 2 2 2 2 2 2 2 2
left_child=3 2 4 15 5 11 -7 14 -9 13 17 -2 27 -3 -6 26 22 19 -19 -11 -15 -22 -14 -24 -18 -26 -1 28 29 -5
right_child=1 9 -4 12 7 6 -8 8 -10 10 -12 -13 16 20 -16 -17 24 18 -20 -21 21 -23 23 -25 25 -27 -28 -29 -30 -31
leaf_value=-0.042284185844238362 0.0070702233288447687 -0.012906308301857539 0.22340046085051393 -0.0089748448501858428 -0.048697468924980898 0.19513627979904413 0.047723508115459543 0.095816228231101225 0.0035568918296417528 0.088227313623537085 0.20188217288149254 0.023837566104708538 -0.002592206433535073 0.017773234550700043 0.030851540195219448 -0.013782613184499705 0.07744211739662922 0.18404138572192913 0.065827670574188243 0.024854882940267907 0.15312956280034523 0.05504335516944845 0.090447525573628285 0.0068703528546111689 -0.043309850860387092 0.03175878099611272 -0.026443667191100629 -0.038986301786332792 0.0058381612814523906 -0.02322366433136917
leaf_weight=495 2471 35 28 2321 26 20 159 178 43 111 28 1446 2368 33 165 663 33 29 25 39 23 47 28 71 25 92 1827 112 471 896
leaf_count=495 2471 35 28 2321 26 20 159 178 43 111 28 1446 2368 33 165 663 33 29 25 39 23 47 28 71 25 92 1827 112 471 896
internal_value=0 0.0245333 0.0199996 -0.0128016 0.0187362 0.0154859 0.0641942 0.05105 0.0778653 0.0801135 0.100854 0.0132601 -0.00654185 0.045245 0.0200229 -0.0262583 0.000487823 0.0869876 0.129313 0.0717505 0.0650052 0.0872717 -0.00126389 0.0305083 0.0292977 0.0157185 -0.0298205 -0.0113831 -0.0105448 -0.0129434
internal_weight=0 4906 4536 9402 4508 4096 179 412 221 370 232 3917 6417 138 191 2985 2617 204 54 150 103 70 2467 99 150 117 2322 3800 3688 3217
internal_count=14308 4906 4536 9402 4508 4096 179 412 221 370 232 3917 6417 138 191 2985 2617 204 54 150 103 70 2467 99 150 117 2322 3800 3688 3217
is_linear=0
shrinkage=0.1


Tree=8
num_leaves=31
num_cat=0
split_feature=1 12 1 0 6 1 10 7 7 8 12 7 0 1 12 10 7 12 13 11 14 15 1 9 14 16 16 0 15 0
split_gain=371.922 87.1282 85.0801 71.1391 72.6056 50.2902 46.8442 43.5967 25.0422 24.8173 23.0684 23.7184 18.213 17.7507 15.87 27.3274 17.2607 14.0149 12.9495 19.5755 18.4413 14.8324 12.1156 12.0114 11.4648 10.8913 10.5508 9.96576 8.73221 17.9475
threshold=26.500000000000004 60.062500000000007 -21.499999999999996 169.25000000000003 1.0000000180025095e-35 62.500000000000007 80.944444444444457 0.77061855670103108 0.76546391752577325 0.043814432989690726 74.928571428571445 0.95103092783505161 26.250000000000004 -64.499999999999986 62.250000000000007 74.366666666666688 0.033505154639175264 84.645833333333357 67.90000000000002 66.788888888888906 74.366666666666688 74.928571428571445 51.500000000000007 65.083333333333357 81.535714285714292 63.45000000000001 85.800000000000011 104.25000000000001 68.055555555555571 46.250000000000007
decision_type=2 2 2 2 2 2 2 2 2 2 2 2 2 2 2 2 2 2 2 2 2 2 2 2 2 2 2 2 2 2
left_child=2 3 13 4 5 8 18 23 -2 -7 11 12 -8 -1 16 27 -4 24 19 25 -21 -20 26 -6 -17 -3 -12 -16 -15 -30
right_child=1 6 14 -5 7 9 10 -9 -10 -11 22 -13 -14 28 15 17 -18 -19 21 20 -22 -23 -24 -25 -26 -27 -28 -29 29 -31
leaf_value=-0.028091079218137027 0.0090645663485110529 0.038831766506638193 0.0944345427507704 0.18022994023017788 0.10997773132851868 -0.048607192026532214 0.10665948327098573 0.24605656692927536 0.050152895098347319 0.056889806268736721 0.0035397369042038922 0.13798599332571029 0.036185093384613141 -0.019796122104490867 -0.011288796963868152 0.0033282610130494317 0.0053038464577790968 -0.013352028072814071 -0.02069761657579379 0.016881545615750691 0.11389305407388345 0.0063279730183157055 -0.036583801243040302 0.022291967130842666 0.024452922511281391 0.0027613785750201709 0.066976115718866011 -0.038882789374428232 -0.018777673378289107 0.0041727733273452536
leaf_weight=1608 664 99 22 37 61 23 42 22 191 731 80 30 289 1825 1824 1160 1752 387 330 43 36 528 45 21 330 542 39 141 826 580
leaf_count=1608 664 99 22 37 61 23 42 22 191 731 80 30 289 1825 1824 1160 1752 387 330 43 36 528 45 21 330 542 39 141 826 580
internal_value=0 0.0265582 -0.00978755 0.0430429 0.0400797 0.0348456 0.0128406 0.121058 0.0182434 0.0536717 0.0387157 0.0528442 0.0451275 -0.0195058 -0.00141388 -0.00502609 0.00640919 0.0036031 0.00423195 0.0141209 0.0610893 -0.00406648 0.00761571 0.0875216 0.00800688 0.00833231 0.0243298 -0.0132688 -0.0152331 -0.00931021
internal_weight=0 3853 10455 1750 1713 1609 2103 104 855 754 525 361 331 4839 5616 3842 1774 1877 1578 720 79 858 164 82 1490 641 119 1965 3231 1406
internal_count=14308 3853 10455 1750 1713 1609 2103 104 855 754 525 361 331 4839 5616 3842 1774 1877 1578 720 79 858 164 82 1490 641 119 1965 3231 1406
is_linear=0
shrinkage=0.1


Tree=9
num_leaves=31
num_cat=0
split_feature=1 1 1 0 8 12 15 1 10 7 15 15 1 12 9 0 1 9 8 8 15 1 0 16 8 16 10 11 16 11
split_gain=301.257 73.782 69.565 65.5145 44.3215 28.7566 34.528 32.7833 25.1733 23.1672 42.5731 19 17.7644 14.6898 13.3899 12.6117 19.9898 16.4958 12.3524 11.3677 10.3869 10.3514 10.2997 12.61 26.2588 20.8076 10.0248 9.03209 8.44162 8.65301
threshold=26.500000000000004 110.50000000000001 -15.499999999999998 161.25000000000003 0.85824742268041254 60.062500000000007 80.142857142857153 62.500000000000007 72.708333333333357 0.77061855670103108 78.928571428571445 60.900000000000006 -52.499999999999993 79.928571428571445 63.95454545454546 159.25000000000003 19.500000000000004 55.100000000000009 0.5128865979381444 0.481958762886598 88.452380952380963 -2.4999999999999996 107.75000000000001 77.816666666666677 0.77577319587628879 79.563492063492077 68.100000000000009 67.050000000000011 80.928571428571445 84.166666666666671
decision_type=2 2 2 2 2 2 2 2 2 2 2 2 2 2 2 2 2 2 2 2 2 2 2 2 2 2 2 2 2 2
left_child=2 3 12 5 19 7 14 8 -2 22 -11 -9 26 -8 -7 18 17 21 20 -5 27 -17 23 24 -3 -25 -1 -4 29 -14
right_child=1 9 15 4 -6 6 13 11 -10 10 -12 -13 28 -15 -16 16 -18 -19 -20 -21 -22 -23 -24 25 -26 -27 -28 -29 -30 -31
leaf_value=-0.0265838643351754 0.0095827896036914384 0.1358148764818907 0.010764901286308089 0.1058950665096442 0.23841761268675327 -0.015192956856665125 0.035387275085897112 0.081547746798250734 0.063284359390687467 0.053763471830349713 0.24782753527164458 0.037542429431965674 -0.010896679526043817 -0.046275594960088318 0.0075590969519061376 -0.0041757611592657101 0.086082977608132827 -0.051588012677568351 -0.0067399425743852274 0.018402190451268795 0.060212838079314684 0.037202120580368765 0.015658559676791941 -0.023037254878630242 0.013527675904333592 0.074787768294822574 -0.009606941923753597 -0.0021334256386905961 0.042864564753004486 -0.031477023137214524
leaf_weight=1820 738 59 884 33 20 332 521 123 99 26 20 485 3043 23 1171 107 39 38 2269 27 32 139 42 30 25 79 430 1407 28 219
leaf_count=1820 738 59 884 33 20 332 521 123 99 26 20 485 3043 23 1171 107 39 38 2269 27 32 139 42 30 25 79 430 1407 28 219
internal_value=0 0.0239024 -0.0088088 0.0200211 0.109497 0.0179713 0.0103469 0.0287721 0.0159346 0.07324 0.138139 0.0464448 -0.016492 0.0319346 0.00253336 -0.000148626 0.018951 0.0097322 -0.00149209 0.0665233 0.00363377 0.0192044 0.0605364 0.0703025 0.0994199 0.0478634 -0.0233394 0.00284349 -0.0118091 -0.0122784
internal_weight=0 3853 10455 3572 80 3492 2047 1445 837 281 46 608 5540 544 1503 4915 323 284 4592 60 2323 246 235 193 84 109 2250 2291 3290 3262
internal_count=14308 3853 10455 3572 80 3492 2047 1445 837 281 46 608 5540 544 1503 4915 323 284 4592 60 2323 246 235 193 84 109 2250 2291 3290 3262
is_linear=0
shrinkage=0.1


Tree=10
num_leaves=31
num_cat=0
split_feature=1 1 0 8 1 9 16 12 2 12 10 15 12 15 9 8 8 14 16 11 8 8 7 1 9 12 8 16 12 11
split_gain=244.851 76.4298 63.603 51.6078 38.2465 28.2007 26.7957 32.3266 22.7514 21.3455 26.4645 23.4725 20.797 21.3536 26.3572 20.5482 38.7066 17.9784 12.2818 14.4025 12.2354 10.9489 9.76073 9.73984 9.60541 8.99422 8.78831 8.7435 18.6893 13.0171
threshold=12.500000000000002 92.500000000000014 146.75000000000003 0.93041237113402075 -41.499999999999993 51.857142857142868 84.071428571428584 71.944444444444457 -31.58499999999999 67.071428571428584 58.812500000000007 74.928571428571445 63.062500000000007 82.171428571428592 55.100000000000009 0.77577319587628879 0.40463917525773202 84.928571428571445 80.785714285714292 83.863636363636388 0.35824742268041243 0.33247422680412375 0.71907216494845372 28.500000000000004 66.937500000000014 86.583333333333357 0.72938144329896915 68.590277777777786 67.071428571428584 71.875000000000014
decision_type=2 2 2 2 2 2 2 2 2 2 2 2 2 2 2 2 2 2 2 2 2 2 2 2 2 2 2 2 2 2
left_child=4 2 6 5 -1 8 9 24 -4 10 -2 -11 13 15 -15 16 -3 -9 19 27 -14 25 -17 -7 -8 -20 -16 28 -6 -29
right_child=1 12 3 -5 18 23 7 17 -10 11 -12 -13 20 14 26 22 -18 -19 21 -21 -22 -23 -24 -25 -26 -27 -28 29 -30 -31
leaf_value=-0.019361373139217722 -0.0020111933999550522 0.024004530096671695 -0.0071062070503830916 0.20513277934356169 -0.0032909015716992363 0.02991663448157765 0.14649811918320862 0.048803922696970405 0.076187938422087459 -0.016500974026839099 0.020998964479439101 0.0075908303817354547 0.045972770285564214 0.20034227400002155 0.040038232292447774 0.005308413521221308 0.10249065575880066 -0.00045110024511814119 0.036854754708508949 -0.025972325830937251 -0.021356081468561158 -0.0037118469449958121 0.07259366348627265 -0.059507009900849443 0.069741907230179229 -0.023425073401424395 0.11766728466749193 0.0092143291720245598 -0.02041527716321842 -0.0064131186128562143
leaf_weight=2985 729 114 40 22 1862 21 23 128 182 620 1590 1163 53 22 35 107 140 176 169 365 55 241 27 29 56 29 25 825 969 1506
leaf_count=2985 729 114 40 22 1862 21 23 128 182 620 1590 1163 53 22 35 107 140 176 169 365 55 241 27 29 56 29 25 825 969 1506
internal_value=0 0.0169097 0.0127557 0.0578144 -0.0101201 0.0458989 0.00980206 0.0350979 0.06118 0.00744021 0.0137655 -0.000786578 0.0512556 0.0603485 0.106714 0.0505496 0.0672646 0.0202879 -0.00549643 -0.00677516 0.0116849 0.0106027 0.0188659 -0.0219491 0.0920887 0.0280259 0.0723837 -0.00541774 -0.00915227 -0.000882169
internal_weight=0 5357 4779 294 8951 272 4485 383 222 4102 2319 1783 578 470 82 388 254 304 5966 5527 108 439 134 50 79 198 60 5162 2831 2331
internal_count=14308 5357 4779 294 8951 272 4485 383 222 4102 2319 1783 578 470 82 388 254 304 5966 5527 108 439 134 50 79 198 60 5162 2831 2331
is_linear=0
shrinkage=0.1


Tree=11
num_leaves=31
num_cat=0
split_feature=1 13 1 15 15 8 10 10 0 16 1 7 14 6 9 0 7 13 9 1 16 0 16 15 11 16 16 16 11 1
split_gain=203.8 61.7338 55.8839 43.7784 33.2655 34.1279 32.1869 29.5931 29.1897 21.3272 19.5814 17.6304 17.1823 15.2284 19.9002 16.1791 38.9117 14.9942 14.306 13.9949 13.648 11.081 10.769 22.7168 13.3837 9.17096 8.70414 8.48944 8.2592 8.93458
threshold=35.500000000000007 60.458333333333336 -15.499999999999998 82.171428571428592 52.500000000000007 0.89432989690721665 73.366666666666688 72.708333333333357 123.25000000000001 86.225000000000009 70.500000000000014 0.62113402061855683 68.090909090909108 2.5000000000000004 72.90000000000002 159.25000000000003 0.069587628865979398 68.583333333333357 55.100000000000009 -96.499999999999986 84.83750000000002 37.250000000000007 74.916666666666671 74.690476190476204 67.050000000000011 73.183333333333351 86.873015873015888 80.928571428571445 64.732142857142875 42.500000000000007
decision_type=2 2 2 2 2 2 2 2 2 2 2 2 2 2 2 2 2 2 2 2 2 2 2 2 2 2 2 2 2 2
left_child=2 3 19 4 5 8 28 10 -2 17 -6 20 -9 15 -15 22 -17 21 -18 -1 -5 -8 24 -24 -4 -19 -11 -21 29 -3
right_child=1 6 13 11 7 -7 9 12 -10 26 -12 -13 -14 14 -16 16 18 25 -20 27 -22 -23 23 -25 -26 -27 -28 -29 -30 -31
leaf_value=-0.028759146624659251 0.0098862451291823576 0.021346093753450798 -0.00072980638009752154 0.14297756150364876 0.0002572113176891426 0.12460777012269889 0.092962966169472097 0.14159345880150795 0.073383010396677439 0.11925044916570188 0.033189727621419092 0.19726459089666606 0.045483615126852929 0.11448232505632483 0.016210713091005354 0.138108721948587 0.01978374422082289 -0.05136951528213643 -0.038818308771873006 -0.012091304234656439 0.028838695314797488 0.026534514339941667 0.044022962355026701 0.0011044944214704249 -0.014607173119830903 0.0083995427864949814 0.048323592186094298 0.041264885589480403 0.00057633039694798144 -0.031592049750715799
leaf_weight=537 129 38 2029 20 423 67 27 20 165 24 315 20 266 23 198 26 278 27 49 4973 22 359 132 1877 1057 522 62 30 395 198
leaf_count=537 129 38 2029 20 423 67 27 20 165 24 315 20 266 23 198 26 278 27 49 4973 22 359 132 1877 1057 522 62 30 395 198
internal_value=0 0.0226979 -0.00627538 0.0377786 0.0340984 0.0602001 0.00948857 0.0248966 0.0455222 0.0204618 0.0143138 0.119989 0.0522046 0.000704716 0.0264381 -0.000339167 0.0203643 0.0160786 0.0110024 -0.013418 0.0831905 0.0311811 -0.00177358 0.00392442 -0.00548301 0.00546008 0.0681171 -0.0117714 -0.00826692 -0.0230681
internal_weight=0 3099 11209 1447 1385 361 1652 1024 294 1021 738 62 286 5669 221 5448 353 935 327 5540 42 386 5095 2009 3086 549 86 5003 631 236
internal_count=14308 3099 11209 1447 1385 361 1652 1024 294 1021 738 62 286 5669 221 5448 353 935 327 5540 42 386 5095 2009 3086 549 86 5003 631 236
is_linear=0
shrinkage=0.1


Tree=12
num_leaves=31
num_cat=0
split_feature=1 13 1 0 15 10 8 0 1 16 15 16 12 9 11 0 6 12 0 14 9 0 1 16 12 16 13 1 9 13
split_gain=165.119 52.0222 49.3356 37.0865 36.1618 31.6276 20.0692 19.4516 26.8222 19.0675 18.6422 16.3601 19.6592 14.1485 11.9867 15.4323 11.359 15.5578 10.8141 10.4069 9.92177 11.3165 10.1261 9.73321 8.12183 12.1801 7.82112 7.54545 7.18519 6.57949
threshold=38.500000000000007 60.458333333333336 -5.4999999999999991 168.25000000000003 84.387500000000017 70.612500000000011 0.043814432989690726 173.25000000000003 19.500000000000004 86.225000000000009 52.500000000000007 68.590277777777786 74.928571428571445 71.055555555555571 72.90000000000002 52.750000000000007 2.5000000000000004 73.126984126984141 183.25000000000003 68.708333333333357 74.125000000000014 30.250000000000004 -37.499999999999993 86.873015873015888 79.803571428571445 76.366666666666688 76.071428571428584 22.500000000000004 62.733333333333341 58.928571428571438
decision_type=2 2 2 2 2 2 2 2 2 2 2 2 2 2 2 2 2 2 2 2 2 2 2 2 2 2 2 2 2 2
left_child=2 3 11 4 6 -3 -2 16 18 14 -8 13 20 29 19 -16 24 -18 -9 -7 21 -13 -22 -11 25 -4 -19 -26 -6 -1
right_child=1 5 7 -5 28 9 10 8 -10 23 -12 12 -14 -15 15 -17 17 26 -20 -21 22 -23 -24 -25 27 -27 -28 -29 -30 -31
leaf_value=-0.0056947260006455277 -0.041152371240681725 -0.014815493329144497 -0.0013815763616479072 0.16432608238167384 0.16177731570990192 0.067562647995560665 0.053863877770745486 0.060320866283507572 0.13191875356894275 0.119457946361407 0.025667381654996796 0.07856275858357549 -0.0099745722049714783 -0.024185644251727419 0.013539658854269002 -0.040056684069773731 0.098197901010513317 -0.040412724406822871 -0.0082031372052876923 0.016961528325699412 0.088050619153113199 0.0020771418686885137 0.018841072078197241 0.042390371460402226 -0.0089619367112279674 0.011650940539498493 0.021879400048930589 -0.059463825519196691 0.079822513237595566 -0.015081354680580659
leaf_weight=1288 38 417 2935 22 23 43 311 37 26 23 953 20 1863 1140 146 85 25 23 61 742 29 590 78 57 392 949 163 32 20 1777
leaf_count=1288 38 417 2935 22 23 43 311 37 26 23 953 20 1863 1140 146 85 25 23 61 742 29 590 78 57 392 949 163 32 20 1777
internal_value=0 0.0213992 -0.00539287 0.0355387 0.0334321 0.00862415 0.0304523 0.00254987 0.0416239 0.0175423 0.032605 -0.0108281 -0.00455922 -0.0146744 0.0138412 -0.00618194 0.00147769 0.0241317 0.0176682 0.0197333 0.00951163 0.00458487 0.0375988 0.0645473 0.000368128 0.00180273 0.0141766 -0.0127734 0.123659 -0.0111368
internal_weight=0 2880 11428 1367 1345 1513 1302 4643 124 1096 1264 6785 2580 4205 1016 231 4519 211 98 785 717 610 107 80 4308 3884 186 424 43 3065
internal_count=14308 2880 11428 1367 1345 1513 1302 4643 124 1096 1264 6785 2580 4205 1016 231 4519 211 98 785 717 610 107 80 4308 3884 186 424 43 3065
is_linear=0
shrinkage=0.1


Tree=13
num_leaves=31
num_cat=0
split_feature=1 0 1 1 0 1 15 10 12 15 14 12 12 2 15 13 10 0 7 1 12 15 9 2 0 2 2 14 12 14
split_gain=135.023 51.8674 52.6699 19.8457 18.516 24.4781 23.2304 19.7062 19.1814 17.2754 19.2236 18.1836 14.4576 11.1623 9.46866 8.49037 8.80387 15.3101 9.66472 8.66654 8.18351 7.59302 10.7069 6.08782 8.10413 4.60523 3.90429 3.76223 4.45457 4.13028
threshold=8.5000000000000018 179.75000000000003 92.500000000000014 -47.499999999999993 142.75000000000003 55.500000000000007 61.750000000000007 68.909090909090921 73.050000000000011 52.500000000000007 65.83750000000002 59.800000000000004 62.250000000000007 -50.115000000000002 65.145833333333357 87.563492063492077 80.100000000000009 32.750000000000007 0.81701030927835061 -11.499999999999998 76.083333333333357 80.366666666666688 76.316666666666677 210.35500000000005 54.250000000000007 19.100000000000026 239.29000000000011 72.928571428571445 84.437500000000014 71.944444444444457
decision_type=2 2 2 2 2 2 2 2 2 2 2 2 2 2 2 2 2 2 2 2 2 2 2 2 2 2 2 2 2 2
left_child=3 2 4 14 7 13 -7 12 -9 -4 -11 -12 -2 -6 20 16 21 18 -18 -19 26 22 -5 27 -25 -23 -1 29 -29 -16
right_child=1 -3 9 15 5 6 -8 8 -10 10 11 -13 -14 -15 23 -17 17 19 -20 -21 -22 25 -24 24 -26 -27 -28 28 -30 -31
leaf_value=-0.014682222702838157 0.0049223084299886378 0.12818959655583298 0.12092200160026551 -0.0037355198550809024 -0.042798744964188548 0.11466597882184115 -0.0050165461457293975 0.017757945938759779 0.00093985070406867098 -0.015600586961954833 0.057987331932721042 0.01838665188009304 -0.012954124107286269 0.022825603089753357 -0.0098525967983041623 -0.037608503528799006 0.0066192725948759903 0.019063437014426057 -0.036616155764056461 0.089696035964880141 -0.032728343289644322 0.008133691104239324 -0.014365012797624286 -0.020226360691918268 0.050678951740264891 0.054406044700182982 -0.038017564698269495 0.014761494450523691 -0.019697593531825326 -0.034701699851767014
leaf_weight=1267 1247 38 25 3841 29 55 23 1803 1087 64 300 189 710 244 558 78 418 38 59 32 374 154 1258 27 40 25 76 118 55 76
leaf_count=1267 1247 38 25 3841 29 55 23 1803 1087 64 300 189 710 244 558 78 418 38 59 32 374 154 1258 27 40 25 76 118 55 76
internal_value=0 0.0117417 0.0109756 -0.00803703 0.00779135 0.0299702 0.079375 0.00618525 0.0114322 0.0396123 0.0359364 0.0426815 -0.00156326 0.0158545 -0.0153329 -0.00483464 -0.00439578 0.00768041 0.00127149 0.0513526 -0.019646 -0.00564732 -0.00635798 -0.00685989 0.0221052 0.0145963 -0.0160028 -0.00926467 0.00380629 -0.0128314
internal_weight=0 5814 5776 8494 5198 351 78 4847 2890 578 553 489 1957 273 2591 5903 5825 547 477 70 1717 5278 5099 874 67 179 1343 807 173 634
internal_count=14308 5814 5776 8494 5198 351 78 4847 2890 578 553 489 1957 273 2591 5903 5825 547 477 70 1717 5278 5099 874 67 179 1343 807 173 634
is_linear=0
shrinkage=0.1


Tree=14
num_leaves=31
num_cat=0
split_feature=1 0 1 1 6 11 0 12 0 7 15 14 16 12 0 9 8 2 11 11 16 2 15 8 1 15 2 0 7 1
split_gain=111.718 35.651 36.1244 25.3513 18.9492 19.866 17.3649 15.3336 14.8936 21.0944 24.3986 12.0814 9.2179 14.8051 11.9074 11.1216 9.77487 9.39358 8.82652 8.70156 8.62075 8.31776 7.46179 7.26259 6.54022 5.63664 8.19752 6.88066 4.85204 4.7684
threshold=26.500000000000004 169.25000000000003 113.50000000000001 -41.499999999999993 2.5000000000000004 68.63333333333334 44.250000000000007 65.750000000000014 110.75000000000001 0.77061855670103108 76.928571428571445 77.90000000000002 77.071428571428584 62.250000000000007 94.750000000000014 82.366666666666688 0.85824742268041254 27.634999999999973 75.708333333333357 69.477272727272734 63.45000000000001 -209.63499999999999 85.300000000000026 0.88917525773195882 -133.49999999999997 71.679487179487197 260.09000000000009 50.750000000000007 0.72938144329896915 -32.499999999999993
decision_type=2 2 2 2 2 2 2 2 2 2 2 2 2 2 2 2 2 2 2 2 2 2 2 2 2 2 2 2 2 2
left_child=3 2 4 24 5 6 -2 -6 9 10 -4 -7 13 16 18 21 17 -5 -15 -9 -16 -14 28 -18 -1 -26 27 -27 -17 -23
right_child=1 -3 8 12 7 11 -8 19 -10 -11 -12 -13 15 14 20 22 23 -19 -20 -21 -22 29 -24 -25 25 26 -28 -29 -30 -31
leaf_value=-0.034829761300768168 0.045226637836207048 0.10968075341139086 0.10463732433759354 0.00090828685748109103 0.12283613465049051 -0.013401543289802751 0.011690839586357978 -0.013666200806056301 -0.0017665943058414594 0.1441281246918219 0.024514050933161405 0.011130179095401862 0.073051685378665021 -0.0021601440482118262 -0.036878264433903594 -0.0088065236187068862 0.039839874797177564 -0.02989531482082038 -0.013188861741939686 0.04711924407213014 -0.0083854000478032799 0.050134671730588054 0.014674465483524031 0.0088265330946825926 -0.014087740455364301 -0.01557217232475523 0.056202819165976151 0.0099850186401738809 -0.038428234080978049 0.0082722208279609362
leaf_weight=133 165 39 55 1732 22 515 2404 31 45 27 123 329 21 2140 229 341 98 105 1098 98 198 28 121 329 2394 256 23 179 66 964
leaf_count=133 165 39 55 1732 22 515 2404 31 45 27 123 329 21 2140 229 341 98 105 1098 98 198 28 121 329 2394 256 23 179 66 964
internal_value=0 0.0145558 0.0135831 -0.00536427 0.0110055 0.00947179 0.0138448 0.0456717 0.050329 0.0617646 0.0492712 -0.00383882 -0.00225148 -0.00404236 -0.00796985 0.00463894 0.00231554 -0.000852398 -0.00589996 0.0325119 -0.0236661 0.0107722 -0.00712818 0.0159443 -0.0131541 -0.0121432 -0.00197924 -0.00505554 -0.01361 0.00945382
internal_weight=0 3853 3814 10455 3564 3413 2569 151 250 205 178 844 7470 5929 3665 1541 2264 1837 3238 129 427 1013 528 427 2985 2852 458 435 407 992
internal_count=14308 3853 3814 10455 3564 3413 2569 151 250 205 178 844 7470 5929 3665 1541 2264 1837 3238 129 427 1013 528 427 2985 2852 458 435 407 992
is_linear=0
shrinkage=0.1


Tree=15
num_leaves=31
num_cat=0
split_feature=1 13 1 6 0 10 15 16 1 7 16 13 13 7 0 7 1 16 15 13 13 2 0 15 13 12 11 16 12 14
split_gain=92.7331 35.2343 26.0623 24.7921 26.1426 23.321 17.7987 21.1207 16.91 16.5445 13.4068 11.4945 25.9817 9.59571 8.79215 26.1535 23.5036 10.2745 14.029 12.7988 10.3703 9.2656 8.75568 8.11043 11.7011 9.77388 7.98821 7.9436 7.71723 6.62688
threshold=38.500000000000007 60.458333333333336 -20.499999999999996 1.0000000180025095e-35 168.25000000000003 73.954545454545467 52.500000000000007 66.875000000000014 146.50000000000003 0.73969072164948468 86.225000000000009 67.100000000000009 66.366666666666688 0.40979381443298973 179.75000000000003 0.17783505154639176 3.5000000000000004 76.366666666666688 74.690476190476204 70.225000000000009 71.63333333333334 -98.884999999999948 78.750000000000014 62.900000000000006 71.045454545454561 84.598214285714292 64.732142857142875 86.873015873015888 74.062500000000014 62.083333333333336
decision_type=2 2 2 2 2 2 2 2 2 2 2 2 2 2 2 2 2 2 2 2 2 2 2 2 2 2 2 2 2 2
left_child=2 3 23 4 6 26 7 -2 -8 22 11 12 -7 -13 17 16 -16 19 20 21 -19 -4 -5 24 -1 -25 -3 -12 -20 -28
right_child=1 5 14 9 -6 10 8 -9 -10 -11 27 13 -14 -15 15 -17 -18 18 28 -21 -22 -23 -24 25 -26 -27 29 -29 -30 -31
leaf_value=-0.0085638469767267394 0.033249184703859298 -0.024827724082016313 -0.033266839719950585 0.084331495563189196 0.1323432302568108 0.018467767285552321 0.013131461201807838 0.11186733391040411 0.089426162604358983 0.16007055463269354 0.10413140698295574 -0.010029973866439012 0.12223402046495013 0.015547126498563211 0.023278449860711894 -0.010472939699251629 0.1593593036925251 0.10800582809107645 0.014621712063252926 -0.010690814995772374 0.024744077334896877 0.00166378711427089 0.006537762737792472 -0.0024111992483175524 -0.022894986469966142 -0.019068831269777268 -0.031800586396250233 0.034508468368368454 8.5610614852355609e-05 0.0051046928020798609
leaf_weight=1669 276 226 78 39 22 227 918 39 30 20 23 266 27 327 30 79 22 21 500 1466 52 2873 23 1990 865 428 58 57 1355 302
leaf_count=1669 276 226 78 39 22 227 918 39 30 20 23 266 27 327 30 79 22 21 500 1466 52 2873 23 1990 865 428 58 57 1355 302
internal_value=0 0.0160368 -0.00404147 0.0276732 0.0242713 0.00552317 0.0223888 0.0429829 0.0155459 0.0809842 0.0153942 0.0116983 0.029498 0.00407409 0.000134509 0.0257778 0.0808511 -0.000394928 0.00569589 -0.00305354 0.0486961 0.000740511 0.0554725 -0.00950262 -0.0134559 -0.0053597 -0.0100919 0.0545251 0.0040037 -0.000841158
internal_weight=0 2880 11428 1367 1285 1513 1263 315 948 82 927 847 254 593 6476 131 52 6345 1928 4417 73 2951 62 4952 2534 2418 586 80 1855 360
internal_count=14308 2880 11428 1367 1285 1513 1263 315 948 82 927 847 254 593 6476 131 52 6345 1928 4417 73 2951 62 4952 2534 2418 586 80 1855 360
is_linear=0
shrinkage=0.1


Tree=16
num_leaves=31
num_cat=0
split_feature=1 12 8 1 15 10 7 0 15 2 0 9 12 6 9 7 12 14 7 7 16 8 12 16 12 1 7 0 9 15
split_gain=75.1645 30.1207 20.9185 20.0051 19.8945 16.5536 29.9713 26.1658 18.8279 18.9741 13.9617 13.8989 10.5582 10.0067 12.8168 10.1491 29.6405 9.18464 8.47594 7.8463 7.48358 7.31148 7.22527 6.85898 7.25132 6.8377 10.8501 6.64702 6.51204 5.71619
threshold=35.500000000000007 62.250000000000007 0.038659793814432998 -24.499999999999996 80.142857142857153 72.708333333333357 0.62113402061855683 99.750000000000014 74.928571428571445 -110.24499999999998 89.750000000000014 57.100000000000009 74.928571428571445 2.5000000000000004 72.90000000000002 0.023195876288659798 61.100000000000009 85.464285714285737 0.40463917525773202 0.090206185567010322 74.414285714285725 0.033505154639175264 84.923076923076934 63.675000000000004 71.083333333333357 62.500000000000007 0.20360824742268044 136.25000000000003 68.550000000000011 66.100000000000009
decision_type=2 2 2 2 2 2 2 2 2 2 2 2 2 2 2 2 2 2 2 2 2 2 2 2 2 2 2 2 2 2
left_child=3 2 -2 23 11 8 10 -8 9 -4 -7 -3 17 15 -15 16 -5 19 -19 -6 -10 28 -23 24 -1 26 -14 -25 -17 -18
right_child=1 4 5 13 12 6 7 -9 20 -11 -12 -13 25 14 -16 21 29 18 -20 -21 -22 22 -24 27 -26 -27 -28 -29 -30 -31
leaf_value=-0.0086621097136339118 -0.040367482651216806 -0.046587245251882722 -0.016043801723892595 0.1300596843271152 0.058022808055214294 0.039997161893912087 0.05465677368646378 0.165510232362055 -0.066196045832287873 0.02641537938332969 -0.0022482222004852315 -0.0015078748763020121 0.070728016983379022 0.091192600973274404 0.012367793624289334 -0.010756428969835634 -0.043173836384500779 0.023335161645497596 0.10804287694670536 0.014529711862957879 -0.004552675769836814 -0.0001816727618030108 -0.013980079642018152 -0.0057466599421858201 -0.020655347078469152 -0.043210006753603619 -0.011557352700728482 0.044159077659801205 -0.060673375989033565 0.01695228416574537
leaf_weight=1409 51 74 118 23 52 265 68 31 31 974 111 903 22 23 200 89 21 21 27 205 54 5811 406 2314 785 33 59 27 37 64
leaf_count=1409 51 74 118 23 52 265 68 31 31 974 111 903 22 23 200 89 21 21 27 205 54 5811 406 2314 785 33 59 27 37 64
internal_value=0 0.0137845 0.0227105 -0.00381105 0.00289549 0.0246578 0.0404151 0.0893685 0.0182986 0.0218273 0.0275258 -0.00492228 0.0211245 -0.000328617 0.0204977 -0.00104855 0.0293488 0.0308294 0.0709833 0.0233299 -0.0270344 -0.00156611 -0.00108278 -0.00893602 -0.0129532 -0.00484033 0.0107918 -0.00517107 -0.0254146 0.0020976
internal_weight=0 3099 1703 11209 1396 1652 475 99 1177 1092 376 977 419 6674 223 6451 108 305 48 257 85 6343 6217 4535 2194 114 81 2341 126 85
internal_count=14308 3099 1703 11209 1396 1652 475 99 1177 1092 376 977 419 6674 223 6451 108 305 48 257 85 6343 6217 4535 2194 114 81 2341 126 85
is_linear=0
shrinkage=0.1


Tree=17
num_leaves=31
num_cat=0
split_feature=1 13 0 15 16 10 13 7 1 8 1 1 12 9 14 8 16 14 15 8 13 8 16 9 15 8 11 9 12 15
split_gain=61.1414 25.2791 20.2484 20.2069 18.5829 17.6592 20.4924 15.1823 27.3155 13.4573 28.5467 12.7316 12.3387 17.3894 15.5357 13.1573 10.894 10.624 7.7757 8.315 8.31018 7.18853 6.65782 6.41591 6.13269 7.23958 6.01089 7.43184 6.01042 7.34251
threshold=38.500000000000007 60.458333333333336 168.25000000000003 84.387500000000017 72.100000000000009 69.708333333333357 71.225000000000009 0.023195876288659798 3.5000000000000004 0.39948453608247431 49.500000000000007 51.500000000000007 74.291666666666671 79.833333333333357 82.645833333333357 0.29123711340206188 86.225000000000009 67.733333333333348 66.90000000000002 0.87371134020618568 70.100000000000009 0.059278350515463922 86.873015873015888 51.857142857142868 77.690476190476204 0.095360824742268049 65.77500000000002 67.727941176470594 72.211111111111123 62.900000000000006
decision_type=2 2 2 2 2 2 2 2 2 2 2 2 2 2 2 2 2 2 2 2 2 2 2 2 2 2 2 2 2 2
left_child=5 2 3 9 26 6 7 8 -1 11 -11 -2 13 14 21 -16 17 -6 19 -9 -20 -7 -18 -19 25 -14 27 -3 29 -28
right_child=1 4 -4 -5 16 12 -8 18 -10 10 -12 -13 24 -15 15 -17 22 23 20 -21 -22 -23 -24 -25 -26 -27 28 -29 -30 -31
leaf_value=-0.028910334780812265 0.03647058089061276 -0.016478973701853555 0.11803946644067764 0.088768085932662333 0.074862022730319402 -0.023572447973974918 -0.01411726930882201 -0.0071538643191228993 0.13088345368919166 -0.0064294700768022309 0.035664378022243447 -0.0059232450622533055 0.013579160823992796 0.062612360326589594 0.12274906858801843 0.022987855092073101 0.091291717711188228 -0.03122002547606826 0.0023741787226249666 0.0057044765564302604 0.036155944354372263 0.0061611705282259557 0.02755209058849958 0.0077895784387604977 0.0019155922412769383 -0.0099340020975595047 -0.038491366093914063 -0.06216089978503684 -0.042937868383402633 0.017966436435900898
leaf_weight=20 92 138 22 43 23 86 2325 3108 23 210 692 308 147 57 20 39 23 44 721 600 81 1491 57 1009 1511 1199 29 48 30 112
leaf_count=20 92 138 22 43 23 86 2325 3108 23 210 692 308 147 57 20 39 23 44 721 600 81 1491 57 1009 1511 1199 29 48 30 112
internal_value=0 0.0130217 0.0228781 0.0213216 0.00411635 -0.00328163 -0.00647887 -0.0025783 0.0565608 0.0190941 0.0258643 0.00382733 0.00155148 0.00831629 0.00642456 0.0568052 0.0102751 0.00762809 -0.00314215 -0.00507323 0.00578605 0.00453968 0.0458772 0.00615955 -0.00245722 -0.00736607 -0.0158262 -0.0282679 -0.00229324 0.00635455
internal_weight=0 2880 1367 1345 1513 11428 6878 4553 43 1302 902 400 4550 1693 1636 59 1156 1076 4510 3708 802 1577 80 1053 2857 1346 357 186 171 141
internal_count=14308 2880 1367 1345 1513 11428 6878 4553 43 1302 902 400 4550 1693 1636 59 1156 1076 4510 3708 802 1577 80 1053 2857 1346 357 186 171 141
is_linear=0
shrinkage=0.1


Tree=18
num_leaves=31
num_cat=0
split_feature=1 12 16 0 8 15 7 7 15 1 8 1 10 0 8 12 8 10 0 14 9 0 8 10 11 0 15 13 13 11
split_gain=49.5245 21.7034 18.4533 22.1407 30.1692 19.6155 18.0276 26.1655 16.0763 17.0844 15.4942 14.581 12.3359 11.2348 20.9056 12.1256 11.5095 9.1199 10.5655 8.36712 7.86014 20.0545 9.40259 7.73432 7.51522 9.34288 7.46792 7.33305 20.9036 12.6505
threshold=38.500000000000007 52.500000000000007 66.535714285714292 160.25000000000003 0.41494845360824745 61.750000000000007 0.77061855670103108 0.88402061855670111 63.900000000000006 92.500000000000014 0.34793814432989695 -5.4999999999999991 74.527777777777786 157.25000000000003 0.93041237113402075 60.828571428571429 0.85824742268041254 70.071428571428584 45.250000000000007 65.535714285714292 71.055555555555571 34.750000000000007 0.23453608247422683 68.100000000000009 68.029411764705898 25.250000000000004 73.809090909090926 67.90000000000002 66.366666666666688 65.77500000000002
decision_type=2 2 2 2 2 2 2 2 2 2 2 2 2 2 2 2 2 2 2 2 2 2 2 2 2 2 2 2 2 2
left_child=11 2 3 8 -5 -4 10 -8 9 -2 -7 17 -3 23 15 16 -15 20 26 -10 21 -1 -22 -13 -25 -26 -19 28 29 -14
right_child=1 12 5 4 -6 6 7 -9 19 -11 -12 13 27 14 -16 -17 -18 18 -20 -21 22 -23 -24 24 25 -27 -28 -29 -30 -31
leaf_value=0.094297883622348311 0.0070248475639490757 -0.0063681493098822085 0.10351465572085645 -0.014707803692330013 0.14304836844956434 -0.0016833281963343782 0.10309560433562313 0.013887048525559234 -0.035779032563933964 0.081441699297112591 0.032465598929793928 -0.0048498806569900639 0.0014758336366993367 0.026260280274028814 0.10993642403433722 -0.06241641765460372 -0.044199371337890626 -0.021055760928164653 0.010205769727592892 0.014250800841384465 -0.03046140310106393 -0.0061391612759891714 -0.010378722110755471 0.012633050584266586 0.0074392958787332297 -0.0067854560706089809 -0.0016881096166063408 0.0045690155234119111 0.097807181495077472 0.048460744207841348
leaf_weight=20 333 685 36 22 27 207 70 62 130 34 371 1827 202 214 24 20 26 246 656 45 289 3324 1206 685 929 918 1044 542 34 80
leaf_count=20 333 685 36 22 27 207 70 62 130 34 371 1827 202 214 24 20 26 246 656 45 289 3324 1206 685 929 918 1044 542 34 80
internal_value=0 0.0117195 0.0210453 0.00784609 0.0722191 0.031502 0.0278507 0.0611946 0.00202639 0.0139191 0.0202358 -0.00295346 0.00363879 0.00136455 0.0206361 0.012393 0.0186272 -0.0059083 -0.000126988 -0.0229142 -0.00823325 -0.00553846 -0.0142609 0.000108962 0.00368708 0.000369278 -0.00538148 0.011628 0.0237355 0.0148049
internal_weight=0 2880 1337 591 49 746 710 132 542 367 578 11428 1543 4643 284 260 240 6785 1946 175 4839 3344 1495 4359 2532 1847 1290 858 316 282
internal_count=14308 2880 1337 591 49 746 710 132 542 367 578 11428 1543 4643 284 260 240 6785 1946 175 4839 3344 1495 4359 2532 1847 1290 858 316 282
is_linear=0
shrinkage=0.1


Tree=19
num_leaves=31
num_cat=0
split_feature=1 0 1 6 12 10 0 16 12 13 7 7 0 8 9 14 2 11 0 0 8 7 7 0 1 9 11 14 1 13
split_gain=41.0595 31.6024 20.3912 15.951 15.1626 22.8695 15.7698 9.75863 12.267 10.6844 8.7428 8.65552 8.51635 17.4453 16.1736 11.7772 13.9379 12.8936 7.40972 8.3032 6.63967 5.11575 6.48777 10.0225 6.74727 5.36551 13.1106 5.03214 8.03178 5.19462
threshold=8.5000000000000018 179.75000000000003 79.500000000000014 3.5000000000000004 62.250000000000007 83.583333333333357 53.250000000000007 68.590277777777786 84.923076923076934 58.928571428571438 0.23453608247422683 0.14175257731958765 142.75000000000003 0.28608247422680416 51.857142857142868 75.414285714285725 -217.51999999999995 67.050000000000011 168.25000000000003 166.25000000000003 0.11082474226804125 0.12113402061855671 0.095360824742268049 42.750000000000007 -34.499999999999993 55.100000000000009 58.928571428571438 78.928571428571445 -13.499999999999998 84.809090909090926
decision_type=2 2 2 2 2 2 2 2 2 2 2 2 2 2 2 2 2 2 2 2 2 2 2 2 2 2 2 2 2 2
left_child=7 2 12 4 5 -4 -6 9 21 10 11 20 15 -14 -15 17 -17 -2 19 -12 -1 22 24 -24 -9 -23 -27 -10 29 -29
right_child=1 -3 3 -5 6 -7 -8 8 27 -11 18 -13 13 14 -16 16 -18 -19 -20 -21 -22 25 23 -25 -26 26 -28 28 -30 -31
leaf_value=0.061537763813421846 0.0027195566310882604 0.097370882549866547 0.031297098716600337 0.087081379413276039 0.05600663257410398 -0.042071566771229973 -0.014978890288896455 0.059265071437472394 -0.017673958924585929 -0.010796704944452904 -0.0023865088760128125 0.05976866461718694 -0.026711632010033903 0.041280755758219004 -0.022144553118043257 0.049625093983372726 0.0072051990080927268 -0.011719212922117648 -0.02159629908536433 0.048426032946868376 0.0021359001265746128 -0.017434867772127792 0.0059963014032248232 0.10490990232676267 -0.0033705817209556698 0.043447987257355929 0.0012812988593317986 0.061214837194259825 -0.011374108418622721 0.0050164853075617237
leaf_weight=21 2222 38 556 34 37 46 203 21 499 3162 1262 39 68 224 49 82 1398 857 204 33 181 142 21 20 95 76 2476 29 175 38
leaf_count=21 2222 38 556 34 37 46 203 21 499 3162 1262 39 68 224 49 82 1398 857 204 33 181 142 21 20 95 76 2476 29 175 38
internal_value=0 0.00647494 0.00587694 0.0199294 0.0172178 0.0256909 -0.00403529 -0.00443199 -0.00047234 -0.00733347 -0.00103994 0.0166385 0.0033647 0.0186083 0.0298967 0.00222453 0.00955549 -0.00129929 -0.00388216 -0.00109167 0.00831134 0.00250694 0.020054 0.0542468 0.00796863 0.00148433 0.00253705 -0.0119351 -0.000101704 0.0293411
internal_weight=0 5814 5776 876 842 602 240 8494 3592 4902 1740 241 4900 341 273 4559 1480 3079 1499 1295 202 2851 157 41 116 2694 2552 741 242 67
internal_count=14308 5814 5776 876 842 602 240 8494 3592 4902 1740 241 4900 341 273 4559 1480 3079 1499 1295 202 2851 157 41 116 2694 2552 741 242 67
is_linear=0
shrinkage=0.1


Tree=20
num_leaves=31
num_cat=0
split_feature=1 12 8 9 14 10 2 16 16 0 13 9 9 0 9 9 7 1 7 0 12 15 9 0 12 11 9 7 7 9
split_gain=33.546 16.5007 15.2591 12.739 12.0779 18.6493 12.2732 11.2665 11.1317 14.9957 12.1904 14.5516 14.0417 11.0758 10.6225 9.54001 9.2474 8.96566 7.57642 7.977 7.36458 8.42336 14.0456 9.94548 7.07812 6.23519 5.85412 5.83125 11.0316 5.7723
threshold=35.500000000000007 62.250000000000007 0.038659793814432998 57.100000000000009 82.708333333333357 83.071428571428584 -110.24499999999998 86.225000000000009 74.916666666666671 54.250000000000007 72.708333333333357 64.837662337662351 68.550000000000011 70.250000000000014 66.791666666666671 63.95454545454546 0.023195876288659798 1.5000000000000002 0.95103092783505161 99.750000000000014 84.645833333333357 73.153409090909108 73.928571428571445 25.250000000000004 78.354166666666671 67.050000000000011 79.354166666666671 0.22422680412371135 0.65206185567010322 74.950000000000017
decision_type=2 2 2 2 2 2 2 2 2 2 2 2 2 2 2 2 2 2 2 2 2 2 2 2 2 2 2 2 2 2
left_child=8 2 -2 -3 5 6 -4 24 14 20 11 13 -13 -11 16 -6 -1 -12 19 25 21 22 -10 -23 26 -16 -5 -9 -29 -19
right_child=1 3 4 7 15 -7 -8 27 9 10 17 12 -14 -15 18 -17 -18 29 -20 -21 -22 23 -24 -25 -26 -27 -28 28 -30 -31
leaf_value=0.048290236470730684 -0.03805840069464609 -0.034814790344503507 -0.0068155710154803846 0.00124579391512068 0.1101379280909896 -0.06230690838769079 0.020555427145440636 0.077871051458296953 0.087196292208447573 0.047322122611362365 0.019607213434759171 0.10323757223259816 0.032772615860203205 -0.03624683710613421 0.002943340770456976 0.02960511767060349 -0.0012739626892481542 -0.050996786484924651 0.010499211674600486 -0.019814048090524068 -0.0096921634635377292 0.0086199468548089683 0.0055939154925219942 -0.0056304234702085031 -0.040607105768643896 -0.0089666059780384392 0.036898226508249837 -0.025716815645305008 0.065544891357421878 0.013064533607526262
leaf_weight=38 51 92 186 1137 24 30 1374 27 31 29 114 47 71 35 520 38 4006 39 210 581 599 978 66 981 39 2842 48 26 27 22
leaf_count=38 51 92 186 1137 24 30 1374 27 31 29 114 47 71 35 520 38 4006 39 210 581 599 978 66 981 39 2842 48 26 27 22
internal_value=0 0.00920882 0.0158154 0.00114938 0.0174785 0.0157901 0.017292 0.00368673 -0.002546 0.00265273 0.0218949 0.040015 0.0608392 0.00162035 -0.00445628 0.0607791 -0.000808226 0.0030501 -0.00800859 -0.0089943 6.53635e-05 0.00290814 0.031673 0.00148385 0.00131038 -0.0071245 0.00268994 0.0400449 0.020775 -0.0278927
internal_weight=0 3099 1703 1396 1652 1590 1560 1304 11209 3012 357 182 118 64 8197 62 4044 175 4153 3943 2655 2056 97 1959 1224 3362 1185 80 53 61
internal_count=14308 3099 1703 1396 1652 1590 1560 1304 11209 3012 357 182 118 64 8197 62 4044 175 4153 3943 2655 2056 97 1959 1224 3362 1185 80 53 61
is_linear=0
shrinkage=0.1


Tree=21
num_leaves=31
num_cat=0
split_feature=1 13 8 8 0 0 7 14 0 16 9 10 12 9 10 10 11 8 1 11 12 2 16 16 8 16 16 2 7 1
split_gain=27.9151 14.9798 22.7227 24.0679 32.3074 21.6659 20.7641 17.338 21.6414 16.623 14.8502 14.0237 12.9793 12.8924 12.3957 9.857 10.8113 9.25945 10.1994 9.47929 8.7801 8.34749 8.36938 8.23197 7.85936 7.75755 10.6699 7.52704 6.98551 36.055
threshold=54.500000000000007 60.833333333333336 0.40463917525773202 0.45103092783505161 112.75000000000001 143.75000000000003 0.69329896907216504 81.416666666666671 68.250000000000014 66.875000000000014 60.366666666666674 69.708333333333357 70.129411764705893 71.756410256410263 83.916666666666671 74.253968253968267 64.90000000000002 0.16752577319587633 24.500000000000004 65.77500000000002 75.675000000000011 -106.93999999999997 63.675000000000004 75.535714285714292 0.23453608247422683 86.225000000000009 87.062500000000014 -445.55999999999989 0.018041237113402064 3.5000000000000004
decision_type=2 2 2 2 2 2 2 2 2 2 2 2 2 2 2 2 2 2 2 2 2 2 2 2 2 2 2 2 2 2
left_child=11 2 7 4 -4 9 -7 8 -2 -5 -10 13 14 21 17 16 -3 19 -19 -13 25 22 -1 -18 -15 27 -27 -17 29 -23
right_child=1 15 3 5 -6 6 -8 -9 10 -11 -12 12 -14 24 -16 20 23 18 -20 -21 -22 28 -24 -25 -26 26 -28 -29 -30 -31
leaf_value=-0.065063694713725931 -0.079828153942760674 -0.032450711084764265 0.024289546579849431 -0.0071789451703514863 0.15613037794828416 0.15115752239525318 0.01445468593388796 0.071575346015843339 -0.013980486395500475 0.030604496621592925 0.04099989318946267 0.0067626039009868501 -0.00048363803747537978 -0.026946607465862027 0.069244221639302037 0.064175489962100984 0.015060771771787128 0.0046715306706220702 0.025350933781961571 -0.040650500291410617 -0.026353353416097576 -0.019367369116535263 -0.0036354441289849423 -0.026836891397551604 -0.0090365141193826486 0.098112171947956087 0.002624414577572183 0.0077741630085202979 -0.0022230754867782715 0.1096627833434578
leaf_weight=42 38 139 41 174 34 25 20 29 177 352 68 111 3867 298 36 25 162 559 416 68 58 63 47 66 1378 25 22 442 5493 33
leaf_count=42 38 139 41 174 34 25 20 29 177 352 68 111 3867 298 36 25 162 559 416 68 58 63 47 66 1378 25 22 442 5493 33
internal_value=0 0.011298 0.0200957 0.0307987 0.0840574 0.0238033 0.0904007 -0.00206519 -0.00961139 0.0181058 0.00127937 -0.00172687 0.00232675 -0.00451436 0.0114593 0.00232223 -0.0104688 0.00965666 0.0134947 -0.0112491 0.010529 -0.00223955 -0.0326241 0.0029325 -0.012221 0.0146909 0.0534158 0.0107935 -0.0017557 0.0249867
internal_weight=0 1897 958 646 75 571 45 312 283 526 245 12411 5057 7354 1190 939 367 1154 975 179 572 5678 89 228 1676 514 47 467 5589 96
internal_count=14308 1897 958 646 75 571 45 312 283 526 245 12411 5057 7354 1190 939 367 1154 975 179 572 5678 89 228 1676 514 47 467 5589 96
is_linear=0
shrinkage=0.1


Tree=22
num_leaves=31
num_cat=0
split_feature=1 0 1 16 15 14 0 13 10 14 12 12 8 16 12 13 8 8 1 2 2 1 2 16 16 16 7 14 0 8
split_gain=22.7313 23.9685 14.519 12.1978 10.255 19.0206 9.10252 17.136 14.0845 13.7946 11.9299 7.80008 7.08574 6.78776 8.62051 7.22725 7.45578 10.0291 9.89216 9.05736 9.94055 7.52112 5.59928 4.96747 9.02505 7.99057 7.12585 4.98556 4.73048 4.61557
threshold=8.5000000000000018 179.75000000000003 110.50000000000001 65.90000000000002 85.683333333333351 82.708333333333357 111.75000000000001 60.458333333333336 72.708333333333357 75.414285714285725 74.738636363636388 77.585714285714303 0.69845360824742275 68.590277777777786 84.923076923076934 58.928571428571438 0.85824742268041254 0.89432989690721665 -26.499999999999996 27.634999999999973 15.115 2.5000000000000004 69.940000000000012 71.732142857142875 71.171428571428592 73.884615384615401 0.92010309278350533 70.90000000000002 45.250000000000007 0.27577319587628873
decision_type=2 2 2 2 2 2 2 2 2 2 2 2 2 2 2 2 2 2 2 2 2 2 2 2 2 2 2 2 2 2
left_child=13 2 6 -4 5 -5 9 8 -8 11 -11 -2 -9 15 23 16 19 18 -18 20 -1 -19 -21 24 27 -25 -27 -15 -26 -16
right_child=1 -3 3 4 -6 -7 7 12 -10 10 -12 -13 -14 14 29 -17 17 21 -20 22 -22 -23 -24 25 28 26 -28 -29 -30 -31
leaf_value=-0.0019235312693654711 -0.0022336435097693396 0.083977586364275547 -0.040203166395425802 0.028235741007865078 -0.025309771106198982 0.11135878651402892 0.014863724113578372 -0.0036244019239890478 0.092506619992976394 0.014980504040962015 -0.0021580574932701098 -0.030969003752368142 -0.047026670221239332 0.001619268665973354 0.0022339569112661771 -0.0085658472706928272 0.0094587141914027079 0.011387954517766989 0.092789409093404246 -0.054048092893379578 0.069116064859554169 -0.046837730576051402 -0.012404622535475276 -0.0092680857833260296 0.012399356067180635 0.0062078853702577756 -0.01713880935929208 0.023391553470590975 0.071910134116735525 -0.014866020829284286
leaf_weight=1302 2618 38 25 197 27 32 881 119 24 1029 671 98 55 464 228 3162 28 197 29 51 20 25 88 632 22 1419 144 136 34 513
leaf_count=1302 2618 38 25 197 27 32 881 119 24 1029 671 98 55 464 228 3162 28 197 29 51 20 25 88 632 22 1419 144 136 34 513
internal_value=0 0.00481772 0.00429693 0.0264679 0.0329787 0.0398512 0.00316316 0.011397 0.0169228 0.00115132 0.00821581 -0.00327049 -0.0173435 -0.00329765 4.72338e-06 -0.0057175 -0.000541354 0.0144381 0.051855 -0.0034019 -0.000848802 0.00483101 -0.0276839 0.00250224 0.0101377 0.000220306 0.00405694 0.00655432 0.0485309 -0.00960449
internal_weight=0 5814 5776 281 256 229 5495 1079 905 4416 1700 2716 174 8494 3592 4902 1740 279 57 1461 1322 222 139 2851 656 2195 1563 600 56 741
internal_count=14308 5814 5776 281 256 229 5495 1079 905 4416 1700 2716 174 8494 3592 4902 1740 279 57 1461 1322 222 139 2851 656 2195 1563 600 56 741
is_linear=0
shrinkage=0.1


Tree=23
num_leaves=31
num_cat=0
split_feature=1 12 8 15 14 9 7 8 10 1 12 9 6 12 13 6 0 9 14 0 12 16 4 8 8 8 1 0 1 0
split_gain=18.8418 12.1203 12.5582 12.8799 26.6276 22.444 31.0242 10.8141 10.5105 10.3935 9.97491 9.4687 9.24323 13.9086 15.3299 8.80678 8.96682 12.2973 9.07774 8.17671 11.0013 12.4501 10.6408 9.6894 7.14824 11.9649 22.2496 16.8131 8.21503 11.0565
threshold=54.500000000000007 62.250000000000007 0.28608247422680416 52.500000000000007 64.90000000000002 60.366666666666674 0.69329896907216504 0.68298969072164961 69.708333333333357 61.500000000000007 67.071428571428584 71.756410256410263 2.5000000000000004 73.90000000000002 75.916666666666671 1.0000000180025095e-35 86.750000000000014 60.366666666666674 74.8888888888889 52.750000000000007 74.928571428571445 86.225000000000009 1.0000000180025095e-35 0.14690721649484537 0.5128865979381444 0.85824742268041254 36.500000000000007 148.75000000000003 9.5000000000000018 155.25000000000003
decision_type=2 2 2 2 2 2 2 2 2 2 2 2 2 2 2 2 2 2 2 2 2 2 2 2 2 2 2 2 2 2
left_child=8 2 15 5 7 6 -4 -5 11 -6 -10 24 -12 -14 -15 16 17 -2 -18 20 21 22 -3 -21 28 26 -26 -27 29 -1
right_child=1 19 3 4 9 -7 -8 -9 10 -11 12 -13 13 14 -16 -17 18 -19 -20 23 -22 -23 -24 -25 25 27 -28 -29 -30 -31
leaf_value=0.0012800956639640122 -0.073784457422186464 0.033257981139634338 0.088814005195953949 -0.0590778975234348 -0.0098352822785576187 -0.048452830009839756 -0.011892142538306151 -0.0033273570705205204 0.013088986326994173 0.030802193982526663 -0.00085370042515655405 -0.01043649558618338 0.072914662491530183 -0.074682369977235805 0.017247362205854211 0.049004661185400832 0.017238958576565672 0.0042923749277466224 -0.042922136641573162 0.038960019908845428 -0.023442163035787389 0.089246087038406627 -0.023990618619830054 -0.012393571345854197 -0.0073778202260121719 -0.0015338373734833455 -0.052616450015318998 0.036823702818721306 0.010195983937634837 -0.020899022679322782
leaf_weight=1619 43 105 106 49 72 22 43 120 709 500 4093 1676 40 20 195 28 116 38 32 40 58 27 47 451 1732 1001 116 129 820 261
leaf_count=1619 43 105 106 49 72 22 43 120 709 500 4093 1676 40 20 195 28 116 38 32 40 58 27 47 451 1732 1001 116 129 820 261
internal_value=0 0.00928201 0.0155899 0.0210919 0.0153831 0.0458302 0.0597512 -0.0194917 -0.00141874 0.025687 0.00209058 -0.00383193 0.000297143 0.0187693 0.00869576 -0.00393494 -0.0104079 -0.0371558 0.00423115 -0.00084694 0.0144073 0.0266714 0.0155561 -0.00820998 -0.00188244 -0.00526092 -0.0102175 0.00284503 0.0018439 -0.00179903
internal_weight=0 1897 1169 912 741 171 149 169 12411 572 5057 7354 4348 255 215 257 229 81 148 728 237 179 152 491 5678 2978 1848 1130 2700 1880
internal_count=14308 1897 1169 912 741 171 149 169 12411 572 5057 7354 4348 255 215 257 229 81 148 728 237 179 152 491 5678 2978 1848 1130 2700 1880
is_linear=0
shrinkage=0.1


Tree=24
num_leaves=31
num_cat=0
split_feature=1 0 12 6 9 2 10 14 8 0 15 11 7 15 10 8 15 7 8 0 16 7 9 13 14 0 1 7 1 1
split_gain=15.373 11.6699 10.9609 8.5882 9.84424 10.1131 8.38254 18.1807 12.4686 11.9395 9.66842 8.20315 16.4712 8.75578 8.41034 9.75581 7.3427 7.16934 5.84387 5.75348 14.812 5.68717 4.75126 4.61442 4.05493 3.57182 3.71026 3.46205 3.14461 2.17218
threshold=79.500000000000014 49.250000000000007 62.250000000000007 2.5000000000000004 66.937500000000014 -142.01999999999998 83.583333333333357 84.380952380952394 0.7809278350515465 127.25000000000001 66.90000000000002 67.050000000000011 0.018041237113402064 65.145833333333357 71.062500000000014 0.85824742268041254 77.071428571428584 0.6778350515463919 0.19329896907216496 108.75000000000001 70.875000000000014 0.038659793814432998 76.828571428571436 70.100000000000009 79.585714285714303 72.750000000000014 -18.499999999999996 0.36597938144329906 -18.499999999999996 85.500000000000014
decision_type=2 2 2 2 2 2 2 2 2 2 2 2 2 2 2 2 2 2 2 2 2 2 2 2 2 2 2 2 2 2
left_child=3 -2 6 11 -5 -6 8 -8 9 -3 -10 12 -1 25 15 -14 -16 27 -4 21 -21 -15 -19 24 -20 26 -13 -7 -27 -25
right_child=1 2 18 4 5 17 7 -9 10 -11 -12 13 14 19 16 -17 -18 22 23 20 -22 -23 -24 29 -26 28 -28 -29 -30 -31
leaf_value=0.084095921522627279 0.083125023479047044 0.038458943730940866 0.030100893798387714 0.081740963955720281 0.079417452365159999 0.009277806670538017 -0.073936258182973322 0.039034210132168873 0.061260794035413048 -0.015352415697688752 -0.0097576695441224642 -0.0076149130647930555 -0.0025974902228189504 0.020025695146371925 0.017208640352106633 0.0081834979581112098 -0.00099770659782193812 0.0088664365477032128 -0.034082263386220606 -0.0086603635286049141 0.090255602511266866 -0.0025524244888802173 -0.034771571724143413 0.033917885202737079 0.0071696882166208762 -0.011330338557825248 0.014163674959226658 0.04109271983422029 -0.026365271861019821 -0.0042958716770597535
leaf_weight=24 23 336 36 21 20 119 29 28 22 47 149 443 4216 114 552 1048 370 45 103 41 24 5219 56 21 31 809 95 48 168 51
leaf_count=24 23 336 36 21 20 119 29 28 22 47 149 443 4216 114 552 1048 370 45 103 41 24 5219 56 21 31 809 95 48 168 51
internal_value=0 0.0128354 0.0109401 -0.000837089 0.0156414 0.0108217 0.0180741 -0.018442 0.0218312 0.0318555 -0.000620791 -0.0012251 0.00141282 -0.00359476 0.00109203 -0.000451123 0.00990241 0.00570258 -0.00707188 -0.00170936 0.0278625 -0.00206979 -0.0153289 -0.0135681 -0.0245389 -0.0103125 -0.00376925 0.0184222 -0.0139157 0.00684981
internal_weight=0 876 853 13432 309 288 611 57 554 383 171 13123 6210 6913 6186 5264 922 268 242 5398 65 5333 101 206 134 1515 538 167 977 72
internal_count=14308 876 853 13432 309 288 611 57 554 383 171 13123 6210 6913 6186 5264 922 268 242 5398 65 5333 101 206 134 1515 538 167 977 72
is_linear=0
shrinkage=0.1


Tree=25
num_leaves=23
num_cat=0
split_feature=1 0 7 10 7 1 0 1 1 0 2 2 11 10 8 13 14 13 0 0 10 14
split_gain=12.7526 10.6334 17.3107 14.0117 14.0513 11.9632 11.3904 8.97199 10.0153 18.3021 7.842 9.58351 6.1321 5.78852 5.05584 4.96364 5.38354 8.79288 5.26511 4.71904 2.77191 1.60791
threshold=110.50000000000001 110.75000000000001 0.77061855670103108 79.364285714285728 0.29639175257731964 118.50000000000001 72.250000000000014 108.50000000000001 8.5000000000000018 179.75000000000003 -445.55999999999989 -383.08999999999997 67.450000000000017 70.071428571428584 0.72938144329896915 87.563492063492077 64.100000000000009 74.291666666666671 61.750000000000007 64.750000000000014 82.125000000000014 67.733333333333348
decision_type=2 2 2 2 2 2 2 2 2 2 2 2 2 2 2 2 2 2 2 2 2 2
left_child=7 2 3 4 -2 -6 19 8 15 10 12 -12 -10 -3 -8 16 18 -18 -1 -5 21 -17
right_child=1 13 -4 6 5 -7 14 -9 9 -11 11 -13 -14 -15 -16 20 17 -19 -20 -21 -22 -23
leaf_value=0.0053039555056867277 0.11009829497337342 0.0082348876986010327 0.10100121375173331 -0.0020664945244789124 -0.031559645900359527 0.050758863189681015 -0.065528809484094383 -0.05172970207298503 0.083120893012909661 0.072186828698766858 -0.055150318839426699 0.0024905104696840647 0.012166206022435479 -0.060703356386650177 -0.0046386254727840423 -0.037759756474267873 0.0065276010286893574 -0.0029891194040813206 -0.006030412526398265 0.066628755871024625 -0.047708272753516218 -0.0062102705559560238
leaf_weight=462 25 29 30 20 26 55 30 34 21 38 29 5382 29 21 25 21 1489 2790 3630 20 32 70
leaf_count=462 25 29 30 20 26 55 30 34 21 38 29 5382 29 21 25 21 1489 2790 3630 20 32 70
internal_value=0 0.021093 0.0301433 0.0195675 0.0445627 0.0243356 -0.00832194 -0.000422552 -0.000297887 0.0030271 0.00254586 0.00218159 0.0419672 -0.0207192 -0.0378515 -0.00245048 -0.00215745 0.000322495 -0.00475073 0.0322811 -0.022393 -0.0134909
internal_weight=0 281 231 201 106 81 95 14027 13993 5499 5461 5411 50 50 55 8494 8371 4279 4092 40 123 91
internal_count=14308 281 231 201 106 81 95 14027 13993 5499 5461 5411 50 50 55 8494 8371 4279 4092 40 123 91
is_linear=0
shrinkage=0.1


Tree=26
num_leaves=31
num_cat=0
split_feature=12 10 7 1 1 0 0 2 0 13 11 10 1 1 15 13 11 2 7 10 7 8 2 1 16 10 12 8 7 8
split_gain=11.6364 13.4044 12.7223 14.5231 12.8191 11.9581 10.8905 7.80457 7.73692 6.95279 9.18987 6.67491 13.636 10.0986 6.56825 6.22758 14.2913 7.2489 5.96578 6.55524 6.24653 5.88295 5.22098 5.03071 6.15839 5.2083 5.06978 4.88508 12.8093 6.0603
threshold=62.250000000000007 74.70714285714287 0.018041237113402064 62.500000000000007 64.500000000000014 154.25000000000003 127.25000000000001 -98.884999999999948 87.250000000000014 67.619047619047635 63.775000000000006 51.846153846153854 55.500000000000007 57.500000000000007 70.464285714285737 71.225000000000009 62.803571428571438 62.18 0.92525773195876304 73.954545454545467 0.83247422680412386 0.79123711340206193 -294.48499999999996 -1.4999999999999998 63.45000000000001 67.535714285714292 67.833333333333357 0.14690721649484537 0.35309278350515466 0.22422680412371135
decision_type=2 2 2 2 2 2 2 2 2 2 2 2 2 2 2 2 2 2 2 2 2 2 2 2 2 2 2 2 2 2
left_child=2 8 -1 7 -5 6 -6 14 15 10 21 12 -9 -13 -4 16 -2 -18 20 -20 -17 -3 -11 -10 26 -26 -25 28 -24 -29
right_child=1 9 3 4 5 -7 -8 11 23 22 -12 13 -14 -15 -16 18 17 -19 19 -21 -22 -23 27 24 25 -27 -28 29 -30 -31
leaf_value=0.06492161967188996 -0.01406255436187747 -0.019654166864998202 -0.037862084443267024 0.066640357275803891 0.014761497892504378 0.088452013856731362 -0.016738588464431815 -0.0030611487455604325 -0.007647580045775643 0.031447527602543698 0.028371582248753496 0.0083182426726004632 0.055158278055307347 -0.0300176742590136 0.015510158817614278 -0.0046935634027811543 0.011092259968762874 -0.038074868172407156 0.0055179674235149856 0.064858108581531612 -0.019906430934831205 0.033927382211442349 -0.012370716912769959 -0.020188564270372605 0.0023411934832750841 -0.025966482545527116 -0.059370795479349675 -0.013496246738574254 0.023897506296205101 0.0011020182483960047
leaf_weight=34 354 85 90 45 770 20 128 2142 1220 57 223 1506 41 72 31 2613 917 31 164 21 301 27 152 72 131 129 61 325 271 2275
leaf_count=34 354 85 90 45 770 20 128 2142 1220 57 223 1506 41 72 31 2613 917 31 164 21 301 27 152 72 131 129 61 325 271 2275
internal_value=0 -0.00205141 0.00396449 0.00353672 0.0145293 0.0119748 0.0102715 0.000809824 -0.00489262 0.00295212 0.0166337 0.00161407 -0.0019677 0.00656908 -0.0241882 -0.0027212 0.00308229 0.00948447 -0.00515945 0.0122539 -0.00626497 -0.00673719 0.00146402 -0.0108172 -0.0206569 -0.0117038 -0.0381594 0.000898672 0.010865 -0.000722765
internal_weight=0 9429 4879 4845 963 918 898 3882 6014 3415 335 3761 2183 1578 121 4401 1302 948 3099 185 2914 112 3080 1613 393 260 133 3023 423 2600
internal_count=14308 9429 4879 4845 963 918 898 3882 6014 3415 335 3761 2183 1578 121 4401 1302 948 3099 185 2914 112 3080 1613 393 260 133 3023 423 2600
is_linear=0
shrinkage=0.1


Tree=27
num_leaves=31
num_cat=0
split_feature=6 9 13 8 7 7 15 16 7 8 10 1 1 16 2 13 12 9 9 7 0 0 7 11 0 9 1 15 1 15
split_gain=10.4796 12.4449 10.6724 13.4039 18.8307 25.8083 19.8092 15.6439 10.6184 10.337 12.0978 16.5011 10.1336 10.0599 9.93565 9.33475 8.90277 13.9908 9.46646 8.81157 8.09846 5.53261 4.67802 7.14018 4.25529 4.24795 4.17313 7.50747 6.53915 4.15733
threshold=2.5000000000000004 62.733333333333341 59.428571428571438 0.85824742268041254 0.27061855670103097 0.14175257731958765 61.750000000000007 77.961538461538467 0.95103092783505161 0.82731958762886604 83.583333333333357 95.500000000000014 36.500000000000007 68.590277777777786 -156.72499999999999 58.928571428571438 74.585714285714303 80.267857142857153 51.857142857142868 0.6778350515463919 99.750000000000014 117.25000000000001 0.98195876288659811 67.050000000000011 157.25000000000003 67.727941176470594 28.500000000000004 88.100000000000009 41.500000000000007 60.900000000000006
decision_type=2 2 2 2 2 2 2 2 2 2 2 2 2 2 2 2 2 2 2 2 2 2 2 2 2 2 2 2 2 2
left_child=2 -2 3 9 5 6 -5 15 14 10 11 -1 -7 20 -3 -6 17 18 -15 25 22 -22 23 -4 -23 -16 27 -18 -28 -24
right_child=1 8 13 4 7 12 -8 -9 -10 -11 -12 -13 -14 16 19 -17 26 -19 -20 -21 21 24 29 -25 -26 -27 28 -29 -30 -31
leaf_value=0.00075768452460059496 0.084940468184649953 0.073457134834357674 0.0059616693461754522 0.067389870374178401 0.0029722703745445381 0.067347268824991965 -0.019316569062178598 0.089227087471796127 0.078924561901526025 -0.024035157647007442 -0.065775344721399828 0.029078415020187789 0.1646751967445016 -0.019360053515171304 -0.025330980308353901 0.062979994446936027 -0.0025710513238527332 0.052299936291140818 0.005034910113698123 -0.023346061893212408 -0.020190497831569922 -0.003313516922627777 -0.0019215773674659431 -0.0057331243879161775 -0.033932900577783587 0.01954788895452331 -0.030476661890988119 0.049461434881335926 -0.0010983275116554327 -0.041554190054283305
leaf_weight=2978 25 21 727 49 650 23 57 23 22 158 26 221 20 170 24 27 2872 60 2474 92 580 492 48 1852 50 174 138 28 168 59
leaf_count=2978 25 21 727 49 650 23 57 23 22 158 26 221 20 170 24 27 2872 60 2474 92 580 492 48 1852 50 174 138 28 168 59
internal_value=0 0.0168939 -0.000433549 0.00375785 0.014992 0.0472721 0.0207647 0.00812094 0.0117853 0.000938516 0.00216203 0.0027142 0.112616 -0.00225882 0.00703586 0.00536549 0.00032381 0.00454998 0.0034664 0.00222604 -0.00626705 -0.0134023 -0.0032865 -0.00243645 -0.00613818 0.014108 -0.00324062 -0.00206867 -0.0143474 -0.0237751
internal_weight=0 358 13950 4232 849 149 106 700 333 3383 3225 3199 43 9718 311 677 5910 2704 2644 290 3808 1122 2686 2579 542 198 3206 2900 306 107
internal_count=14308 358 13950 4232 849 149 106 700 333 3383 3225 3199 43 9718 311 677 5910 2704 2644 290 3808 1122 2686 2579 542 198 3206 2900 306 107
is_linear=0
shrinkage=0.1


Tree=28
num_leaves=31
num_cat=0
split_feature=6 9 13 13 0 16 7 0 7 7 7 7 7 14 0 2 0 7 1 0 10 15 10 2 1 16 11 13 1 11
split_gain=8.4885 10.0804 8.64461 12.6642 15.2403 24.1559 10.9466 21.8636 19.9941 27.3523 16.7631 14.1651 8.60093 8.26785 11.9632 8.04787 7.82461 7.13737 7.01862 6.46249 5.91372 5.81874 5.61823 4.81639 4.16018 8.97235 7.89433 3.76009 5.6222 5.21583
threshold=2.5000000000000004 62.733333333333341 59.428571428571438 52.666666666666679 134.25000000000003 62.533333333333339 0.76546391752577325 94.750000000000014 0.69329896907216504 0.68814432989690733 0.847938144329897 0.85309278350515472 0.95103092783505161 62.900000000000006 50.750000000000007 -156.72499999999999 78.250000000000014 0.6778350515463919 9.5000000000000018 47.750000000000007 69.708333333333357 70.535714285714292 61.100000000000009 22.515000000000075 50.500000000000007 76.535714285714292 65.77500000000002 66.709790209790228 -12.499999999999998 67.050000000000011
decision_type=2 2 2 2 2 2 2 2 2 2 2 2 2 2 2 2 2 2 2 2 2 2 2 2 2 2 2 2 2 2
left_child=2 -2 3 6 5 -5 8 10 9 -1 -8 -9 15 14 18 -3 -10 -17 -4 20 22 -7 -15 -22 25 -21 -26 28 -16 -29
right_child=1 12 13 4 -6 21 7 11 16 -11 -12 -13 -14 19 27 17 -18 -19 -20 24 23 -23 -24 -25 26 -27 -28 29 -30 -31
leaf_value=0.0010983044199420226 0.07644642242789268 0.066111421017419722 0.011648403649493088 0.14378726250775484 -0.013837852820754053 -0.0082267947109608813 0.10119830687579356 0.022242401992423565 0.0039041432757656296 0.090055136925407828 0.027177635108114807 -0.0064758903154327882 0.071032106910239576 0.0093822228339602159 -0.0076386045782737017 0.01269722389847492 -0.032570846506369204 -0.021011456178055835 0.075006498210132125 0.0026057268855838632 -0.0023082969675591526 0.047678918996825817 -0.016432912977567563 0.015715492439444347 -0.016662122684627256 0.020921551852032198 0.0046577097455256858 0.0020474752994819679 -0.026584161489378089 -0.009903018308997466
leaf_weight=2780 25 21 139 23 50 29 38 270 77 35 157 472 22 101 394 198 249 92 20 2400 2989 52 510 156 290 301 433 525 260 1200
leaf_count=2780 25 21 139 23 50 29 38 270 77 35 157 472 22 101 394 198 249 92 20 2400 2989 52 510 156 290 301 433 525 260 1200
internal_value=0 0.0152045 -0.000390194 0.00338206 0.0315321 0.0533446 0.00231902 0.011805 -0.000510763 0.00220434 0.0416022 0.00397416 0.0106067 -0.00203294 -0.0069389 0.00633227 -0.0239556 0.00200344 0.019618 -0.000298769 -0.00316322 0.0276633 -0.0121656 -0.00141427 0.00284343 0.00464685 -0.00389381 -0.00871382 -0.0151705 -0.00626591
internal_weight=0 358 13950 4232 154 104 4078 937 3141 2815 195 742 333 9718 2538 311 326 290 159 7180 3756 81 611 3145 3424 2701 723 2379 654 1725
internal_count=14308 358 13950 4232 154 104 4078 937 3141 2815 195 742 333 9718 2538 311 326 290 159 7180 3756 81 611 3145 3424 2701 723 2379 654 1725
is_linear=0
shrinkage=0.1


Tree=29
num_leaves=31
num_cat=0
split_feature=1 0 10 12 2 8 10 8 13 11 7 10 10 0 8 7 1 1 9 7 0 13 13 11 7 1 0 12 0 10
split_gain=7.54143 13.4048 6.48458 8.39096 13.2004 8.47566 11.6994 10.9384 8.32047 10.9521 15.2007 20.3256 11.0366 7.13868 5.94979 5.8925 7.7135 5.81401 5.45049 5.3042 5.1185 4.91549 4.51152 10.6129 4.72135 4.09352 4.91171 4.07085 4.01073 2.07914
threshold=146.50000000000003 100.25000000000001 74.70714285714287 62.250000000000007 -104.96499999999999 0.19845360824742272 49.000000000000007 0.5128865979381444 67.619047619047635 65.300000000000026 0.63144329896907225 81.928571428571445 79.055555555555571 89.750000000000014 0.7448453608247424 0.80670103092783518 58.500000000000007 68.500000000000014 57.583333333333336 0.47164948453608252 87.250000000000014 87.563492063492077 71.225000000000009 62.803571428571438 0.92525773195876304 -1.4999999999999998 90.750000000000014 71.708333333333357 81.250000000000014 82.125000000000014
decision_type=2 2 2 2 2 2 2 2 2 2 2 2 2 2 2 2 2 2 2 2 2 2 2 2 2 2 2 2 2 2
left_child=2 -2 3 4 15 6 -6 -7 9 10 13 -12 17 -4 -14 19 -17 -11 -10 -1 22 28 23 -5 -24 27 -27 -22 -20 -23
right_child=1 -3 8 20 5 7 -8 -9 18 12 11 -13 14 -15 -16 16 -18 -19 21 -21 25 29 24 -25 -26 26 -28 -29 -30 -31
leaf_value=-0.012609964554699569 0.093004321702755993 -0.0072634575143456469 0.0033962804901031111 -0.011934187342965251 0.058213846758008003 0.012338280378535274 -0.010256199034672508 0.0007951987238569878 -0.049609264394357089 0.046129795704637808 0.014735484517301285 0.10669327798870304 0.026171138252331212 -0.03018461924392539 -0.038552438318729398 -0.034295974709093568 0.053530554249882706 0.10700932925655729 0.0015916059376027637 -0.051177425814580318 -0.0014521753037228221 -0.0084413883515766699 -0.0051580051307191892 0.0083574371635771402 0.01131653636593271 -0.043155855836258056 -0.012677515741567889 -0.013452454791979844 0.028141827489538442 -0.043708507338305939
leaf_weight=65 24 30 336 354 26 1280 621 2289 21 62 107 31 49 78 20 20 20 21 2991 79 775 35 2914 948 185 63 329 445 58 32
leaf_count=65 24 30 336 354 26 1280 621 2289 21 62 107 31 49 78 20 20 20 21 2991 79 775 35 2914 948 185 63 329 445 58 32
internal_value=0 0.0373 -0.000141308 -0.00143672 0.00188175 0.00302601 -0.0075047 0.00493505 0.00337056 0.0131953 0.00665025 0.0353927 0.0369643 -0.00293056 0.00741068 -0.0243368 0.00961729 0.0615331 0.0011657 -0.0337685 -0.003865 0.00150789 -0.00209923 0.00284036 -0.00417453 -0.00868579 -0.0175758 -0.00582933 0.00209666 -0.0252854
internal_weight=0 54 14254 10413 4400 4216 647 3569 3841 704 552 138 152 414 69 184 40 83 3137 144 6013 3116 4401 1302 3099 1612 392 1220 3049 67
internal_count=14308 54 14254 10413 4400 4216 647 3569 3841 704 552 138 152 414 69 184 40 83 3137 144 6013 3116 4401 1302 3099 1612 392 1220 3049 67
is_linear=0
shrinkage=0.1


Tree=30
num_leaves=27
num_cat=0
split_feature=2 8 2 13 6 10 13 0 7 2 14 11 12 9 1 0 11 0 7 7 10 13 0 0 14 1
split_gain=7.06171 10.7769 7.17499 5.79308 15.3178 11.71 11.5766 14.0628 10.2217 10.07 8.51001 7.45104 10.424 7.08595 7.77665 6.91385 6.44048 6.31318 8.32594 5.77377 6.92249 5.59129 5.51988 5.00347 4.25075 3.80364
threshold=-445.55999999999989 0.35824742268041243 -565.2149999999998 59.428571428571438 1.0000000180025095e-35 83.071428571428584 52.666666666666679 134.25000000000003 0.77061855670103108 -39.04499999999998 83.857142857142875 63.100000000000009 67.071428571428584 66.937500000000014 9.5000000000000018 69.750000000000014 52.70000000000001 106.75000000000001 0.96134020618556715 0.80154639175257747 74.414285714285725 64.100000000000009 74.250000000000014 52.750000000000007 73.944444444444457 -20.499999999999996
decision_type=2 2 2 2 2 2 2 2 2 2 2 2 2 2 2 2 2 2 2 2 2 2 2 2 2 2
left_child=1 -1 -3 4 5 6 9 -8 10 -2 -6 16 13 15 -15 -13 17 18 -5 20 -18 24 -23 -21 -14 -19
right_child=3 2 -4 11 8 -7 7 -9 -10 -11 -12 12 21 14 -16 -17 19 25 -20 23 -22 22 -24 -25 -26 -27
leaf_value=0.091619779930139589 -0.016862177616655292 -0.031495507299900055 0.045052372540036842 0.010786552470873553 0.056399045118855108 -0.07065376747738232 0.053446934770752665 -0.012315363191068173 0.10819886922836304 0.0028699778567364588 -0.020475701832522952 0.023419670181062363 0.0044602696986302086 0.0028233896751295438 0.025157340945831191 -0.014629926331884539 -0.023655701321662375 -0.0041553006435816105 -0.016065727698222444 0.039096478391438726 -0.079415076627181128 -0.00057555260298825818 -0.0072177022147908929 -0.012550542376311872 0.039404520761620793 -0.028687443228900374
leaf_weight=21 278 25 24 396 36 22 93 50 20 3712 24 65 92 275 360 180 155 130 163 20 26 6085 1575 302 56 123
leaf_count=21 278 25 24 396 36 22 93 50 20 3712 24 65 92 275 360 180 155 130 163 20 26 6085 1575 302 56 123
internal_value=0 0.0316841 0.00599733 -0.000155772 0.00294428 0.00210977 0.00249709 0.0304531 0.0462866 0.00149516 0.0256491 -0.00146825 -0.00040644 0.00991133 0.0154852 -0.00453514 -0.00848346 -0.00297535 0.00295664 -0.0173753 -0.0316653 -0.0015693 -0.00194127 -0.00934265 0.0176824 -0.016082
internal_weight=0 70 49 14238 4235 4155 4133 143 80 3990 60 10003 8688 880 635 245 1315 812 559 503 181 7808 7660 322 148 253
internal_count=14308 70 49 14238 4235 4155 4133 143 80 3990 60 10003 8688 880 635 245 1315 812 559 503 181 7808 7660 322 148 253
is_linear=0
shrinkage=0.1


end of trees

feature_importances:
rank_difference=149
average_rank=116
home_team_mean_offense_score=80
away_team_encoded_norm=75
home_team_encoded_norm=71
away_team_mean_midfield_score=70
away_team_goalkeeper_score=66
home_team_mean_midfield_score=58
away_team_mean_offense_score=57
home_team_goalkeeper_score=54
home_team_mean_defense_score=36
point_difference=33
away_team_mean_defense_score=30
number_of_topFour_away=21
number_of_champ_away=2

parameters:
[boosting: gbdt]
[objective: regression]
[metric: rmse]
[tree_learner: serial]
[device_type: cpu]
[data: ]
[valid: ]
[num_iterations: 200]
[learning_rate: 0.1]
[num_leaves: 31]
[num_threads: 8]
[deterministic: 0]
[force_col_wise: 0]
[force_row_wise: 0]
[histogram_pool_size: -1]
[max_depth: 6]
[min_data_in_leaf: 20]
[min_sum_hessian_in_leaf: 0.001]
[bagging_fraction: 1]
[pos_bagging_fraction: 1]
[neg_bagging_fraction: 1]
[bagging_freq: 0]
[bagging_seed: 3]
[feature_fraction: 1]
[feature_fraction_bynode: 1]
[feature_fraction_seed: 2]
[extra_trees: 0]
[extra_seed: 6]
[early_stopping_round: 50]
[first_metric_only: 0]
[max_delta_step: 0]
[lambda_l1: 0]
[lambda_l2: 0]
[linear_lambda: 0]
[min_gain_to_split: 0]
[drop_rate: 0.1]
[max_drop: 50]
[skip_drop: 0.5]
[xgboost_dart_mode: 0]
[uniform_drop: 0]
[drop_seed: 4]
[top_rate: 0.2]
[other_rate: 0.1]
[min_data_per_group: 100]
[max_cat_threshold: 32]
[cat_l2: 10]
[cat_smooth: 10]
[max_cat_to_onehot: 4]
[top_k: 20]
[monotone_constraints: ]
[monotone_constraints_method: basic]
[monotone_penalty: 0]
[feature_contri: ]
[forcedsplits_filename: ]
[refit_decay_rate: 0.9]
[cegb_tradeoff: 1]
[cegb_penalty_split: 0]
[cegb_penalty_feature_lazy: ]
[cegb_penalty_feature_coupled: ]
[path_smooth: 0]
[interaction_constraints: ]
[verbosity: 0]
[saved_feature_importance_type: 0]
[linear_tree: 0]
[max_bin: 255]
[max_bin_by_feature: ]
[min_data_in_bin: 3]
[bin_construct_sample_cnt: 200000]
[data_random_seed: 1]
[is_enable_sparse: 1]
[enable_bundle: 1]
[use_missing: 1]
[zero_as_missing: 0]
[feature_pre_filter: 1]
[pre_partition: 0]
[two_round: 0]
[header: 0]
[label_column: ]
[weight_column: ]
[group_column: ]
[ignore_column: ]
[categorical_feature: ]
[forcedbins_filename: ]
[precise_float_parser: 0]
[objective_seed: 5]
[num_class: 1]
[is_unbalance: 0]
[scale_pos_weight: 1]
[sigmoid: 1]
[boost_from_average: 1]
[reg_sqrt: 0]
[alpha: 0.9]
[fair_c: 1]
[poisson_max_delta_step: 0.7]
[tweedie_variance_power: 1.5]
[lambdarank_truncation_level: 30]
[lambdarank_norm: 1]
[label_gain: ]
[eval_at: ]
[multi_error_top_k: 1]
[auc_mu_weights: ]
[num_machines: 1]
[local_listen_port: 12400]
[time_out: 120]
[machine_list_filename: ]
[machines: ]
[gpu_platform_id: -1]
[gpu_device_id: -1]
[gpu_use_dp: 0]
[num_gpu: 1]

end of parameters

pandas_categorical:[]
